tree
version=v2
num_class=1
num_tree_per_iteration=1
label_index=0
max_feature_idx=0
objective=binary sigmoid:1
feature_names=Column_0
feature_infos=[7.5865:23.132400000000001]
tree_sizes=1125 1123 1120 1124 1115 1129 1129 1133 1131 1128 1112 1115 1118 1118 1118 1134 1131 1132 1124 1130 1132 1132 1129 1129 1131

Tree=0
num_leaves=13
num_cat=0
split_feature=0 0 0 0 0 0 0 0 0 0 0 0
split_gain=187.513 22.9866 18.2072 2.56364 2.14702 1.80983 1.42402 1.40348 1.17522 1.94657 2.65302 1.40175
threshold=11.932050000000002 10.423700000000002 13.458400000000003 9.685900000000002 12.709850000000001 11.420350000000001 9.5165000000000024 11.624450000000001 13.820250000000001 14.576650000000003 14.554250000000001 13.657150000000001
decision_type=2 2 2 2 2 2 2 2 2 2 2 2
left_child=1 3 4 6 -2 -3 -1 -7 11 10 -10 -4
right_child=2 5 8 -5 -6 7 -8 -9 9 -11 -12 -13
leaf_value=-0.0090556179775280882 -0.01234608938547486 -0.010871428571428572 -0.013383465045592704 -0.0098696269982238016 -0.012832584269662922 -0.01212135785007072 -0.0076660714285714275 -0.011206849315068492 -0.013185940146809712 -0.013424866980612807 -0.011355140186915887 -0.014083889695210449
leaf_count=1424 4296 2268 1645 1126 5340 707 224 1168 7084 32702 214 1378
internal_value=0 -1.28582 -1.63607 -1.14492 -1.55749 -1.38016 -1.09466 -1.42613 -1.65367 -1.6508 -1.62127 -1.6917
internal_count=59576 6917 52659 2774 9636 4143 1648 1875 43023 40000 7298 3023
shrinkage=0.0081


Tree=1
num_leaves=13
num_cat=0
split_feature=0 0 0 0 0 0 0 0 0 0 0 0
split_gain=184.52 22.6187 17.9172 2.52255 2.1128 1.78091 1.40117 1.38107 1.15653 1.91559 2.61072 1.37946
threshold=11.932050000000002 10.423700000000002 13.458400000000003 9.685900000000002 12.709850000000001 11.420350000000001 9.5165000000000024 11.624450000000001 13.820250000000001 14.576650000000003 14.554250000000001 13.657150000000001
decision_type=2 2 2 2 2 2 2 2 2 2 2 2
left_child=1 3 4 6 -2 -3 -1 -7 11 10 -10 -4
right_child=2 5 8 -5 -6 7 -8 -9 9 -11 -12 -13
leaf_value=-0.0089824516764788996 -0.01224655383803643 -0.010783689762190872 -0.013275654907432891 -0.0097899220983249276 -0.012729166077619595 -0.012023617590210894 -0.0076040881375842679 -0.01111642400565043 -0.013079703993219692 -0.013316727504193904 -0.011263527692382317 -0.013970505153954503
leaf_count=1424 4296 2268 1645 1126 5340 707 224 1168 7084 32702 214 1378
internal_value=0 -1.27544 -1.62289 -1.13567 -1.54494 -1.36902 -1.08581 -1.41463 -1.64035 -1.6375 -1.6082 -1.67807
internal_count=59576 6917 52659 2774 9636 4143 1648 1875 43023 40000 7298 3023
shrinkage=0.0081


Tree=2
num_leaves=13
num_cat=0
split_feature=0 0 0 0 0 0 0 0 0 0 0 0
split_gain=181.641 22.2625 17.6394 2.48265 2.07994 1.75301 1.37893 1.35947 1.15665 2.10174 1.20861 1.28558
threshold=11.932050000000002 10.423700000000002 13.458400000000003 9.685900000000002 12.709850000000001 11.420350000000001 9.5165000000000024 11.624450000000001 12.563850000000002 12.320100000000002 12.362650000000002 12.448250000000002
decision_type=2 2 2 2 2 2 2 2 2 2 2 2
left_child=1 3 4 6 8 -3 -1 -7 9 -2 -11 -12
right_child=2 5 -4 -5 -6 7 -8 -9 -10 10 11 -13
leaf_value=-0.008910238701003716 -0.011937731874524274 -0.010697283176371501 -0.013180994356921716 -0.0097113282094506235 -0.012627607499056131 -0.01192753130896709 -0.007542825387642671 -0.011027412285414775 -0.011650839023710124 -0.013815555839085145 -0.01190219345463431 -0.012983578527665941
leaf_count=1424 1905 2268 43023 1126 5340 707 224 1168 953 237 482 719
internal_value=0 -1.26521 -1.60996 -1.12654 -1.53261 -1.35806 -1.07708 -1.40331 -1.49984 -1.51737 -1.57509 -1.54933
internal_count=59576 6917 52659 2774 9636 4143 1648 1875 4296 3343 1438 1201
shrinkage=0.0081


Tree=3
num_leaves=13
num_cat=0
split_feature=0 0 0 0 0 0 0 0 0 0 0 0
split_gain=178.868 21.9174 17.3729 2.44389 2.04836 1.72607 1.35728 1.33866 1.1393 1.88698 2.57146 1.35894
threshold=11.932050000000002 10.423700000000002 13.458400000000003 9.685900000000002 12.709850000000001 11.420350000000001 9.5165000000000024 11.624450000000001 13.820250000000001 14.576650000000003 14.554250000000001 13.657150000000001
decision_type=2 2 2 2 2 2 2 2 2 2 2 2
left_child=1 3 4 6 -2 -3 -1 -7 11 10 -10 -4
right_child=2 5 8 -5 -6 7 -8 -9 9 -11 -12 -13
leaf_value=-0.0088389545503760169 -0.012052585383663826 -0.01061217311616155 -0.013065986437341755 -0.0096338173970453942 -0.012527854727122546 -0.011833051251488352 -0.0074822679809652655 -0.01093977491549027 -0.012871470155825321 -0.013106758330519898 -0.01106873948632108 -0.013755775897319491
leaf_count=1424 4296 2268 1645 1126 5340 707 224 1168 7084 32702 214 1378
internal_value=0 -1.25513 -1.59726 -1.11753 -1.52049 -1.34727 -1.06846 -1.39217 -1.61446 -1.61163 -1.58254 -1.6519
internal_count=59576 6917 52659 2774 9636 4143 1648 1875 43023 40000 7298 3023
shrinkage=0.0081


Tree=4
num_leaves=13
num_cat=0
split_feature=0 0 0 0 0 0 0 0 0 0 0 0
split_gain=176.197 21.5831 17.1173 2.40623 2.01802 1.70005 1.3362 1.31857 1.13917 2.07002 1.19044 1.26618
threshold=11.932050000000002 10.423700000000002 13.458400000000003 9.685900000000002 12.709850000000001 11.420350000000001 9.5165000000000024 11.624450000000001 12.563850000000002 12.320100000000002 12.362650000000002 12.448250000000002
decision_type=2 2 2 2 2 2 2 2 2 2 2 2
left_child=1 3 4 6 8 -3 -1 -7 9 -2 -11 -12
right_child=2 5 -4 -5 -6 7 -8 -9 -10 10 11 -13
leaf_value=-0.00876857928571847 -0.011748603538818602 -0.010528325737275784 -0.012975132749020533 -0.0095573625328677584 -0.012429852155207326 -0.011740130281299279 -0.0074224010616694555 -0.010853475867148566 -0.011463828512028984 -0.013612673992971168 -0.011713326956810823 -0.012786765878876205
leaf_count=1424 1905 2268 43023 1126 5340 707 224 1168 953 237 482 719
internal_value=0 -1.2452 -1.5848 -1.10865 -1.50858 -1.33664 -1.05995 -1.38121 -1.4763 -1.4937 -1.551 -1.52543
internal_count=59576 6917 52659 2774 9636 4143 1648 1875 4296 3343 1438 1201
shrinkage=0.0081


Tree=5
num_leaves=13
num_cat=0
split_feature=0 0 0 0 0 0 0 0 0 0 0 0
split_gain=191.534 34.8326 11.483 2.60208 2.25292 1.55095 1.67897 1.2087 2.23047 1.32939 3.26753 1.17586
threshold=11.343050000000002 13.008150000000002 10.013050000000002 14.982850000000001 14.622650000000002 15.477650000000002 15.341150000000003 16.775650000000002 16.966050000000003 17.103150000000003 17.323850000000004 15.317050000000002
decision_type=2 2 2 2 2 2 2 2 2 2 2 2
left_child=2 -2 -1 4 -3 6 11 -7 -9 -10 -11 -5
right_child=1 3 -4 5 -6 7 -8 8 9 10 -12 -13
leaf_value=-0.0084614533770663546 -0.011745596018312647 -0.012935663887199016 -0.010041876708207078 -0.012626989286305989 -0.013383173332385204 -0.012948948643124783 -0.012042405354121396 -0.012118803127346742 -0.013380544440812343 -0.012027944382961984 -0.012875891472413912 -0.013798417828587959
leaf_count=2107 8473 14120 2827 3418 3738 11960 1390 1438 944 1420 7500 241
internal_value=0 -1.568 -1.15641 -1.58964 -1.60856 -1.57771 -1.54592 -1.58461 -1.56978 -1.58051 -1.57295 -1.56841
internal_count=59576 54642 4934 46169 17858 28311 5049 23262 11302 9864 8920 3659
shrinkage=0.0081


Tree=6
num_leaves=13
num_cat=0
split_feature=0 0 0 0 0 0 0 0 0 0 0 0
split_gain=188.777 34.3431 11.3114 2.56264 2.22073 1.52817 1.65425 1.19096 2.19765 1.30991 3.21945 1.15864
threshold=11.343050000000002 13.008150000000002 10.013050000000002 14.982850000000001 14.622650000000002 15.477650000000002 15.341150000000003 16.775650000000002 16.966050000000003 17.103150000000003 17.323850000000004 15.317050000000002
decision_type=2 2 2 2 2 2 2 2 2 2 2 2
left_child=2 -2 -1 4 -3 6 11 -7 -9 -10 -11 -5
right_child=1 3 -4 5 -6 7 -8 8 9 10 -12 -13
leaf_value=-0.0083946584772317968 -0.011655000833120639 -0.01283684330284691 -0.0099634126010841161 -0.012530450278913917 -0.013281251263033958 -0.012850111666778408 -0.011950061158826446 -0.01202590988859387 -0.013278641576806669 -0.01193570455695178 -0.012777574707134663 -0.013693560516423108
leaf_count=2107 8473 14120 2827 3418 3738 11960 1390 1438 944 1420 7500 241
internal_value=0 -1.55601 -1.14733 -1.5775 -1.59628 -1.56566 -1.5341 -1.57251 -1.55778 -1.56844 -1.56093 -1.55643
internal_count=59576 54642 4934 46169 17858 28311 5049 23262 11302 9864 8920 3659
shrinkage=0.0081


Tree=7
num_leaves=13
num_cat=0
split_feature=0 0 0 0 0 0 0 0 0 0 0 0
split_gain=186.116 33.8729 11.1445 2.52478 2.18991 1.50629 1.63049 1.17393 2.16615 1.29123 3.17329 1.14214
threshold=11.343050000000002 13.008150000000002 10.013050000000002 14.982850000000001 14.622650000000002 15.477650000000002 15.341150000000003 16.775650000000002 16.966050000000003 17.103150000000003 17.323850000000004 15.317050000000002
decision_type=2 2 2 2 2 2 2 2 2 2 2 2
left_child=2 -2 -1 4 -3 6 11 -7 -9 -10 -11 -5
right_child=1 3 -4 5 -6 7 -8 8 9 10 -12 -13
leaf_value=-0.0083286729419163995 -0.011565860313589169 -0.012739788382084036 -0.0098860329974811475 -0.012435589633887042 -0.013181226461709444 -0.012753043283160468 -0.011859238455868315 -0.011934555450164681 -0.013178634218122286 -0.01184498167892392 -0.012681006545142559 -0.013590730807433369
leaf_count=2107 8473 14120 2827 3418 3738 11960 1390 1438 944 1420 7500 241
internal_value=0 -1.54422 -1.13838 -1.56558 -1.58422 -1.55382 -1.52247 -1.56062 -1.54599 -1.55658 -1.54912 -1.54465
internal_count=59576 54642 4934 46169 17858 28311 5049 23262 11302 9864 8920 3659
shrinkage=0.0081


Tree=8
num_leaves=13
num_cat=0
split_feature=0 0 0 0 0 0 0 0 0 0 0 0
split_gain=183.546 33.421 10.9899 2.48846 2.16038 1.4853 1.60767 1.15758 2.13589 1.27333 3.12893 1.12634
threshold=11.343050000000002 13.008150000000002 10.148500000000002 14.982850000000001 14.622650000000002 15.477650000000002 15.341150000000003 16.775650000000002 16.966050000000003 17.103150000000003 17.323850000000004 15.317050000000002
decision_type=2 2 2 2 2 2 2 2 2 2 2 2
left_child=2 -2 -1 4 -3 6 11 -7 -9 -10 -11 -5
right_child=1 3 -4 5 -6 7 -8 8 9 10 -12 -13
leaf_value=-0.0083457914341241723 -0.011478134398299597 -0.012644447462332079 -0.0098778785073045765 -0.012342356008455622 -0.013083041158284979 -0.01265769081365388 -0.011769892346823756 -0.011844699130120208 -0.013080465300796781 -0.011755733701207419 -0.012586133672591629 -0.013489864539257126
leaf_count=2346 8473 14120 2588 3418 3738 11960 1390 1438 944 1420 7500 241
internal_value=0 -1.53264 -1.12954 -1.55386 -1.57238 -1.54219 -1.51105 -1.54894 -1.53441 -1.54492 -1.53752 -1.53308
internal_count=59576 54642 4934 46169 17858 28311 5049 23262 11302 9864 8920 3659
shrinkage=0.0081


Tree=9
num_leaves=13
num_cat=0
split_feature=0 0 0 0 0 0 0 0 0 0 0 0
split_gain=181.064 32.9865 10.8403 2.45361 2.1321 1.46514 1.58571 1.1419 2.1068 1.25616 3.08629 1.11119
threshold=11.343050000000002 13.008150000000002 10.013050000000002 14.982850000000001 14.622650000000002 15.477650000000002 15.341150000000003 16.775650000000002 16.966050000000003 17.103150000000003 17.323850000000004 15.317050000000002
decision_type=2 2 2 2 2 2 2 2 2 2 2 2
left_child=2 -2 -1 4 -3 6 11 -7 -9 -10 -11 -5
right_child=1 3 -4 5 -6 7 -8 8 9 10 -12 -13
leaf_value=-0.0081984184324774192 -0.011391783531347163 -0.012550770254192352 -0.0097348937740970067 -0.012250703047798198 -0.012986641421315252 -0.01256400439881962 -0.011681984445886213 -0.011756297644424709 -0.012984082700010205 -0.011667917907454677 -0.01249290628440998 -0.013390904199661033
leaf_count=2107 8473 14120 2827 3418 3738 11960 1390 1438 944 1420 7500 241
internal_value=0 -1.52126 -1.12081 -1.54235 -1.56074 -1.53075 -1.49982 -1.53747 -1.52303 -1.53347 -1.52612 -1.5217
internal_count=59576 54642 4934 46169 17858 28311 5049 23262 11302 9864 8920 3659
shrinkage=0.0081


Tree=10
num_leaves=13
num_cat=0
split_feature=0 0 0 0 0 0 0 0 0 0 0 0
split_gain=165.375 18.8048 17.4081 1.7724 1.54332 1.86678 1.7707 1.4822 0.941976 0.80599 0.698357 0.690702
threshold=11.624450000000001 10.423700000000002 13.20105 11.087050000000001 9.685900000000002 10.290850000000002 9.3571500000000025 12.320100000000002 12.083750000000002 10.884150000000002 11.984050000000002 11.263750000000002
decision_type=2 2 2 2 2 2 2 2 2 2 2 2
left_child=1 4 7 9 6 -6 -1 8 10 -3 -2 -5
right_child=2 3 -4 11 5 -7 -8 -9 -10 -11 -12 -13
leaf_value=-0.0084836439264961878 -0.011399337956327022 -0.010158420394929686 -0.01243076152792362 -0.011175880449167619 -0.0092314779379175649 -0.007551529502191282 -0.0073037539137786349 -0.01179587446416459 -0.010996826231231461 -0.0093449538570101898 -0.012121838644081315 -0.010448177485836362
leaf_count=1147 1398 916 44832 476 931 214 472 5808 1187 493 471 1231
internal_value=0 -1.16485 -1.51861 -1.27155 -1.04467 -1.10093 -1.00489 -1.43748 -1.40177 -1.21899 -1.4298 -1.31496
internal_count=59576 5880 53696 3116 2764 1145 1619 8864 3056 1409 1869 1707
shrinkage=0.0081


Tree=11
num_leaves=13
num_cat=0
split_feature=0 0 0 0 0 0 0 0 0 0 0 0
split_gain=163.245 18.545 17.1995 1.74863 1.5216 1.83876 1.74436 1.46396 0.928115 0.794286 0.689187 0.679738
threshold=11.624450000000001 10.423700000000002 13.20105 11.087050000000001 9.685900000000002 10.290850000000002 9.3571500000000025 12.320100000000002 12.083750000000002 10.884150000000002 11.984050000000002 11.263750000000002
decision_type=2 2 2 2 2 2 2 2 2 2 2 2
left_child=1 4 7 9 6 -6 -1 8 10 -3 -2 -5
right_child=2 3 -4 11 5 -7 -8 -9 -10 -11 -12 -13
leaf_value=-0.0084181690391033834 -0.0113147286028833 -0.010081686471686625 -0.012340480599778608 -0.011092104580242132 -0.0091608775402922012 -0.0074932520444811147 -0.0072468926003543318 -0.011709149732154353 -0.010915191838883986 -0.0092739379656793398 -0.012032733310664095 -0.01036998008075754
leaf_count=1147 1398 916 44832 476 931 214 472 5808 1187 493 471 1231
internal_value=0 -1.15599 -1.50756 -1.26199 -1.03662 -1.0925 -0.997117 -1.42689 -1.39138 -1.20976 -1.41921 -1.30511
internal_count=59576 5880 53696 3116 2764 1145 1619 8864 3056 1409 1869 1707
shrinkage=0.0081


Tree=12
num_leaves=13
num_cat=0
split_feature=0 0 0 0 0 0 0 0 0 0 0 0
split_gain=161.188 18.2925 16.999 1.72558 1.50043 1.81147 1.71866 1.44637 0.914739 0.783644 0.680351 0.66914
threshold=11.624450000000001 10.423700000000002 13.20105 11.087050000000001 9.685900000000002 10.290850000000002 9.3571500000000025 12.320100000000002 12.083750000000002 10.781250000000002 11.984050000000002 11.263750000000002
decision_type=2 2 2 2 2 2 2 2 2 2 2 2
left_child=1 4 7 9 6 -6 -1 8 10 -3 -2 -5
right_child=2 3 -4 11 5 -7 -8 -9 -10 -11 -12 -13
leaf_value=-0.0083534725133255824 -0.011231411862304246 -0.010113285383347491 -0.012251715698041765 -0.01100958609224457 -0.0090911691696872205 -0.0074356123147728088 -0.0071906466234689052 -0.011623797466591923 -0.010834756476615835 -0.0093476797458000496 -0.011945083812169806 -0.010292875384633134
leaf_count=1147 1398 695 44832 476 931 214 472 5808 1187 714 471 1231
internal_value=0 -1.14724 -1.49668 -1.25255 -1.02866 -1.08417 -0.989432 -1.41645 -1.38115 -1.20066 -1.40879 -1.29541
internal_count=59576 5880 53696 3116 2764 1145 1619 8864 3056 1409 1869 1707
shrinkage=0.0081


Tree=13
num_leaves=13
num_cat=0
split_feature=0 0 0 0 0 0 0 0 0 0 0 0
split_gain=159.199 18.0469 16.8061 1.70324 1.4798 1.78489 1.69357 1.4294 0.901829 0.775109 0.671834 0.662328
threshold=11.624450000000001 10.423700000000002 13.20105 11.087050000000001 9.685900000000002 10.290850000000002 9.3571500000000025 12.320100000000002 12.083750000000002 10.884150000000002 11.984050000000002 11.691250000000002
decision_type=2 2 2 2 2 2 2 2 2 2 2 2
left_child=1 4 7 9 6 -6 -1 8 10 -3 11 -2
right_child=2 3 -4 -5 5 -7 -8 -9 -10 -11 -12 -13
leaf_value=-0.0082895365443419623 -0.011931896751006572 -0.0099319163342845157 -0.012164423654002917 -0.010415309303293104 -0.0090223315959346174 -0.0073785973073514427 -0.0071350034040893505 -0.011539780711303968 -0.010755488240628648 -0.0091335131524530079 -0.011858850679459415 -0.010989598376758072
leaf_count=1147 237 916 44832 1707 931 214 472 5808 1187 493 471 1161
internal_value=0 -1.1386 -1.48599 -1.24324 -1.0208 -1.07594 -0.981834 -1.40618 -1.37107 -1.19167 -1.39853 -1.37646
internal_count=59576 5880 53696 3116 2764 1145 1619 8864 3056 1409 1869 1398
shrinkage=0.0081


Tree=14
num_leaves=13
num_cat=0
split_feature=0 0 0 0 0 0 0 0 0 0 0 0
split_gain=157.275 17.808 16.6205 1.68159 1.45967 1.75898 1.67709 1.41303 0.889362 0.764981 0.663624 0.658583
threshold=11.624450000000001 10.423700000000002 13.20105 11.087050000000001 9.685900000000002 10.290850000000002 9.5165000000000024 12.320100000000002 12.083750000000002 10.781250000000002 11.984050000000002 11.263750000000002
decision_type=2 2 2 2 2 2 2 2 2 2 2 2
left_child=1 4 7 9 6 -6 -1 8 10 -3 -2 -5
right_child=2 3 -4 11 5 -7 -8 -9 -10 -11 -12 -13
leaf_value=-0.0081046212610082248 -0.011068519604406071 -0.0099643045614243708 -0.012078563560416216 -0.010851939109800833 -0.0089543452902180482 -0.0073221949707932893 -0.0066088769677382494 -0.011457061942461579 -0.010677357040552527 -0.009207385649600372 -0.01177399357825386 -0.010140383677256446
leaf_count=1389 1398 695 44832 476 931 214 230 5808 1187 714 471 1231
internal_value=0 -1.13007 -1.47547 -1.23406 -1.01303 -1.06781 -0.974324 -1.39607 -1.36115 -1.1828 -1.38842 -1.27641
internal_count=59576 5880 53696 3116 2764 1145 1619 8864 3056 1409 1869 1707
shrinkage=0.0081


Tree=15
num_leaves=13
num_cat=0
split_feature=0 0 0 0 0 0 0 0 0 0 0 0
split_gain=158.325 21.6732 12.9135 4.5434 1.3382 1.68002 1.60863 1.31362 1.30375 1.19602 1.12632 1.04979
threshold=11.984050000000002 10.552650000000002 13.039750000000002 9.5165000000000024 14.599100000000002 14.439150000000001 14.228150000000001 16.121950000000002 9.2691500000000016 11.493500000000003 15.593550000000002 12.183850000000001
decision_type=2 2 2 2 2 2 2 2 2 2 2 2
left_child=1 3 11 8 5 6 -4 10 -1 -3 -6 -2
right_child=2 9 4 -5 7 -7 -8 -9 -10 -11 -12 -13
leaf_value=-0.0079109623678617954 -0.010705369913446732 -0.009824671245802807 -0.011832207886579885 -0.0088349219380290632 -0.012054923242487298 -0.011371528332238739 -0.012328512597215829 -0.011942920119428616 -0.0068300451673160801 -0.010377794564908623 -0.012351728471178181 -0.011291434003339415
leaf_count=916 950 2298 9957 1646 10495 1697 2093 16796 433 1876 4999 5420
internal_value=0 -1.15008 -1.46794 -1.02003 -1.47967 -1.46307 -1.47141 -1.48674 -0.933824 -1.24359 -1.50008 -1.38321
internal_count=59576 7169 52407 2995 46037 13747 12050 32290 1349 4174 15494 6370
shrinkage=0.0081


Tree=16
num_leaves=13
num_cat=0
split_feature=0 0 0 0 0 0 0 0 0 0 0 0
split_gain=156.497 21.3989 12.7774 4.49092 1.3221 1.65879 1.58867 1.29765 1.18278 1.1124 1.03654 1.26685
threshold=11.984050000000002 10.552650000000002 13.039750000000002 9.685900000000002 14.599100000000002 14.439150000000001 14.228150000000001 16.121950000000002 11.493500000000003 15.593550000000002 12.183850000000001 12.036750000000001
decision_type=2 2 2 2 2 2 2 2 2 2 2 2
left_child=1 3 10 -1 5 6 -4 9 -3 -6 11 -2
right_child=2 8 4 -5 7 -7 -8 -9 -10 -11 -12 -13
leaf_value=-0.0076139129182896288 -0.011631455915788198 -0.0097528085132877161 -0.011749969286372241 -0.0088747924434913247 -0.011971481115895972 -0.011291965029651586 -0.012243480032002776 -0.011860084541149269 -0.010303096389237076 -0.012266623540876462 -0.011211576419526761 -0.010276819892556953
leaf_count=1602 247 2298 9957 1393 10495 1697 2093 16796 1876 4999 5420 703
internal_value=0 -1.14159 -1.45774 -1.01234 -1.46942 -1.45291 -1.4612 -1.47645 -1.23456 -1.48972 -1.37342 -1.31221
internal_count=59576 7169 52407 2995 46037 13747 12050 32290 4174 15494 6370 950
shrinkage=0.0081


Tree=17
num_leaves=13
num_cat=0
split_feature=0 0 0 0 0 0 0 0 0 0 0 0
split_gain=154.727 21.1317 12.6464 4.43059 1.30661 1.63833 1.56946 1.28229 1.16992 1.09901 1.02372 1.25079
threshold=11.984050000000002 10.552650000000002 13.039750000000002 9.685900000000002 14.599100000000002 14.439150000000001 14.228150000000001 16.121950000000002 11.493500000000003 15.593550000000002 12.183850000000001 12.036750000000001
decision_type=2 2 2 2 2 2 2 2 2 2 2 2
left_child=1 3 10 -1 5 6 -4 9 -3 -6 11 -2
right_child=2 8 4 -5 7 -7 -8 -9 -10 -11 -12 -13
leaf_value=-0.0075561850123608415 -0.011550305567629749 -0.0096818763683095884 -0.011669011510397094 -0.0088089464219069744 -0.011889368143086896 -0.011213583385788112 -0.012159840391476084 -0.011778553346375125 -0.010229411755889258 -0.012182916064735701 -0.011132901595635673 -0.01020355061111315
leaf_count=1602 247 2298 9957 1393 10495 1697 2093 16796 1876 4999 5420 703
internal_value=0 -1.13322 -1.44769 -1.00474 -1.45932 -1.4429 -1.45114 -1.46632 -1.22565 -1.47952 -1.36376 -1.30291
internal_count=59576 7169 52407 2995 46037 13747 12050 32290 4174 15494 6370 950
shrinkage=0.0081


Tree=18
num_leaves=13
num_cat=0
split_feature=0 0 0 0 0 0 0 0 0 0 0 0
split_gain=153.022 24.3398 9.39308 4.37875 1.74742 1.2866 0.960541 1.78751 1.35174 1.26752 1.08615 0.946566
threshold=12.134550000000003 10.552650000000002 13.20105 9.5165000000000024 11.493500000000003 9.2691500000000016 14.599100000000002 14.439150000000001 14.228150000000001 16.121950000000002 15.593550000000002 17.654350000000004
decision_type=2 2 2 2 2 2 2 2 2 2 2 2
left_child=1 3 -2 5 -3 -1 7 8 -4 10 -8 -11
right_child=2 4 6 -5 -6 -7 9 -9 -10 11 -12 -13
leaf_value=-0.0077365747868481426 -0.0111008557543816 -0.0096118520431561025 -0.011616423416206017 -0.0086403839594777487 -0.010227983722972773 -0.00666196354114614 -0.01180854842187576 -0.011136353888273422 -0.012077557344390968 -0.011611840004679583 -0.012100567567749906 -0.011871563459006312
leaf_count=916 6833 2298 8772 1646 2598 433 10495 1697 2093 11205 4999 5591
internal_value=0 -1.1396 -1.43994 -0.997232 -1.22698 -0.912542 -1.45054 -1.4356 -1.44509 -1.45635 -1.46948 -1.44423
internal_count=59576 7891 51685 2995 4896 1349 44852 12562 10865 32290 15494 16796
shrinkage=0.0081


Tree=19
num_leaves=13
num_cat=0
split_feature=0 0 0 0 0 0 0 0 0 0 0 0
split_gain=151.374 20.6127 12.4074 4.32425 1.27505 1.60077 1.53177 1.25331 1.14319 1.07378 0.997277 1.2409
threshold=11.984050000000002 10.552650000000002 13.039750000000002 9.685900000000002 14.599100000000002 14.439150000000001 14.228150000000001 16.121950000000002 11.493500000000003 15.593550000000002 12.183850000000001 12.036750000000001
decision_type=2 2 2 2 2 2 2 2 2 2 2 2
left_child=1 3 10 -1 5 6 -4 9 -3 -6 11 -2
right_child=2 8 4 -5 7 -7 -8 -9 -10 -11 -12 -13
leaf_value=-0.0074419052925568888 -0.011400181292220566 -0.0095427144813744723 -0.011511034763502197 -0.0086803476947366152 -0.011728986880432462 -0.011060246124143564 -0.011996591764646104 -0.011619265927787737 -0.01008448061191479 -0.012019541551019907 -0.01097866059077386 -0.0100572525773615
leaf_count=1602 247 2298 9957 1393 10495 1697 2093 16796 1876 4999 5420 703
internal_value=0 -1.11675 -1.42807 -0.989802 -1.43961 -1.42337 -1.43152 -1.44653 -1.20815 -1.4596 -1.34485 -1.28472
internal_count=59576 7169 52407 2995 46037 13747 12050 32290 4174 15494 6370 950
shrinkage=0.0081


Tree=20
num_leaves=13
num_cat=0
split_feature=0 0 0 0 0 0 0 0 0 0 0 0
split_gain=159.704 17.1898 10.2942 2.78415 1.94935 1.84084 2.82921 2.00316 2.57401 1.65389 1.64621 1.15611
threshold=11.755450000000002 13.008150000000002 9.685900000000002 10.669150000000002 9.1187500000000021 14.251650000000001 13.846550000000002 16.466750000000001 16.576200000000004 12.487850000000002 12.639650000000001 12.404300000000001
decision_type=2 2 2 2 2 2 2 2 2 2 2 2
left_child=2 9 4 -4 -1 6 -3 -7 -9 11 -11 -2
right_child=1 5 3 -5 -6 7 -8 8 -10 10 -12 -13
leaf_value=-0.0089762595570359593 -0.010558410024912306 -0.011575423102181986 -0.0085532696126659723 -0.0093818635405657127 -0.0073554480532119189 -0.011713589644170753 -0.011015294113827137 -0.010629903517232713 -0.01152255066448849 -0.011526176191538491 -0.010729866964848305 -0.0096822295510134871
leaf_count=229 3013 6559 1633 3141 1364 22109 3793 923 12833 944 2573 462
internal_value=0 -1.4133 -1.07646 -1.12321 -0.936838 -1.4274 -1.40373 -1.43424 -1.41514 -1.32028 -1.35107 -1.28913
internal_count=59576 53209 6367 4774 1593 46217 10352 35865 13756 6992 3517 3475
shrinkage=0.0081


Tree=21
num_leaves=13
num_cat=0
split_feature=0 0 0 0 0 0 0 0 0 0 0 0
split_gain=158.022 17.0289 10.1712 2.75285 1.92211 1.82106 2.7949 1.98108 2.54319 1.63575 1.62582 1.1408
threshold=11.755450000000002 13.008150000000002 9.685900000000002 10.669150000000002 9.1187500000000021 14.251650000000001 13.846550000000002 16.466750000000001 16.576200000000004 12.487850000000002 12.639650000000001 12.404300000000001
decision_type=2 2 2 2 2 2 2 2 2 2 2 2
left_child=2 9 4 -4 -1 6 -3 -7 -9 11 -11 -2
right_child=1 5 3 -5 -6 7 -8 8 -10 10 -12 -13
leaf_value=-0.0089103860963864103 -0.010485724731499441 -0.011498481200001099 -0.0084909415463279986 -0.0093152266469032456 -0.0073003443419755237 -0.011636129866526464 -0.010941364073635114 -0.010558091643452082 -0.011445981082526568 -0.011448529624048576 -0.01065663478912258 -0.0096148627314977912
leaf_count=229 3013 6559 1633 3141 1364 22109 3793 923 12833 944 2573 462
internal_value=0 -1.40388 -1.06866 -1.11516 -0.929841 -1.41793 -1.39437 -1.42473 -1.40573 -1.31124 -1.34188 -1.28025
internal_count=59576 53209 6367 4774 1593 46217 10352 35865 13756 6992 3517 3475
shrinkage=0.0081


Tree=22
num_leaves=13
num_cat=0
split_feature=0 0 0 0 0 0 0 0 0 0 0 0
split_gain=156.39 16.8736 10.0511 2.72233 1.89551 1.802 2.76181 1.95981 2.51344 1.6182 1.60612 1.12595
threshold=11.755450000000002 13.008150000000002 9.685900000000002 10.669150000000002 9.1187500000000021 14.251650000000001 13.846550000000002 16.466750000000001 16.576200000000004 12.487850000000002 12.639650000000001 12.404300000000001
decision_type=2 2 2 2 2 2 2 2 2 2 2 2
left_child=2 9 4 -4 -1 6 -3 -7 -9 11 -11 -2
right_child=1 5 3 -5 -6 7 -8 8 -10 10 -12 -13
leaf_value=-0.0088452973832692204 -0.010414020448581342 -0.011422688282830249 -0.0084293204263916639 -0.0092493966699060647 -0.0072458139634283027 -0.011559842481198493 -0.010868472422733127 -0.010487247356802955 -0.011370547222360191 -0.011372040443408961 -0.010584406054628851 -0.0095483269294479919
leaf_count=229 3013 6559 1633 3141 1364 22109 3793 923 12833 944 2573 462
internal_value=0 -1.3946 -1.06096 -1.10721 -0.922917 -1.4086 -1.38514 -1.41537 -1.39645 -1.30232 -1.33282 -1.27148
internal_count=59576 53209 6367 4774 1593 46217 10352 35865 13756 6992 3517 3475
shrinkage=0.0081


Tree=23
num_leaves=13
num_cat=0
split_feature=0 0 0 0 0 0 0 0 0 0 0 0
split_gain=154.808 16.7238 9.93372 2.69255 1.86955 1.78362 2.72986 1.93932 2.4847 1.60121 1.5871 1.11156
threshold=11.755450000000002 13.008150000000002 9.685900000000002 10.669150000000002 9.1187500000000021 14.251650000000001 13.846550000000002 16.466750000000001 16.576200000000004 12.487850000000002 12.639650000000001 12.404300000000001
decision_type=2 2 2 2 2 2 2 2 2 2 2 2
left_child=2 9 4 -4 -1 6 -3 -7 -9 11 -11 -2
right_child=1 5 3 -5 -6 7 -8 8 -10 10 -12 -13
leaf_value=-0.0087809760708903346 -0.010343273367122281 -0.01134801280168621 -0.0083683916076613581 -0.0091843550522087529 -0.007191845357137675 -0.011484696767861659 -0.010796593157507122 -0.010417347869862056 -0.01129621916461088 -0.011296678737415571 -0.010513154983195241 -0.0094826019852754882
leaf_count=229 3013 6559 1633 3141 1364 22109 3793 923 12833 944 2573 462
internal_value=0 -1.38545 -1.05334 -1.09935 -0.916066 -1.3994 -1.37605 -1.40614 -1.38731 -1.29352 -1.32388 -1.26283
internal_count=59576 53209 6367 4774 1593 46217 10352 35865 13756 6992 3517 3475
shrinkage=0.0081


Tree=24
num_leaves=13
num_cat=0
split_feature=0 0 0 0 0 0 0 0 0 0 0 0
split_gain=153.273 16.5792 9.81898 2.66349 1.84419 1.7659 2.69903 1.91959 2.45693 1.58476 1.56871 1.09759
threshold=11.755450000000002 13.008150000000002 9.685900000000002 10.669150000000002 9.1187500000000021 14.251650000000001 13.846550000000002 16.466750000000001 16.576200000000004 12.487850000000002 12.639650000000001 12.404300000000001
decision_type=2 2 2 2 2 2 2 2 2 2 2 2
left_child=2 9 4 -4 -1 6 -3 -7 -9 11 -11 -2
right_child=1 5 3 -5 -6 7 -8 8 -10 10 -12 -13
leaf_value=-0.0087174046113593223 -0.01027345930829722 -0.011274427200253461 -0.0083081403725389427 -0.0091200838312207062 -0.0071384281140457412 -0.011410663296267538 -0.010725700013601116 -0.010348368426072427 -0.01122296811937348 -0.011222414863884133 -0.010442858319008283 -0.0094176695718570305
leaf_count=229 3013 6559 1633 3141 1364 22109 3793 923 12833 944 2573 462
internal_value=0 -1.37644 -1.04581 -1.09158 -0.909287 -1.39034 -1.36708 -1.39705 -1.3783 -1.28484 -1.31507 -1.25429
internal_count=59576 53209 6367 4774 1593 46217 10352 35865 13756 6992 3517 3475
shrinkage=0.0081


end of trees

feature importances:
Column_0=300

parameters:
[boosting: gbdt]
[objective: binary]
[metric: auc,none]
[tree_learner: serial]
[device_type: cpu]
[data: ]
[valid: ]
[num_iterations: 100]
[learning_rate: 0.0081]
[num_leaves: 13]
[num_threads: 8]
[max_depth: -1]
[min_data_in_leaf: 80]
[min_sum_hessian_in_leaf: 10]
[bagging_fraction: 0.331]
[bagging_freq: 5]
[bagging_seed: 29824]
[feature_fraction: 0.041]
[feature_fraction_seed: 21393]
[early_stopping_round: 0]
[max_delta_step: 0]
[lambda_l1: 0]
[lambda_l2: 0]
[min_gain_to_split: 0]
[drop_rate: 0.1]
[max_drop: 50]
[skip_drop: 0.5]
[xgboost_dart_mode: 0]
[uniform_drop: 0]
[drop_seed: 5998]
[top_rate: 0.2]
[other_rate: 0.1]
[min_data_per_group: 100]
[max_cat_threshold: 32]
[cat_l2: 10]
[cat_smooth: 10]
[max_cat_to_onehot: 4]
[top_k: 20]
[monotone_constraints: ]
[feature_contri: ]
[forcedsplits_filename: ]
[refit_decay_rate: 0.9]
[verbosity: 1]
[max_bin: 255]
[min_data_in_bin: 3]
[bin_construct_sample_cnt: 200000]
[histogram_pool_size: -1]
[data_random_seed: 12652]
[output_model: LightGBM_model.txt]
[snapshot_freq: -1]
[input_model: ]
[output_result: LightGBM_predict_result.txt]
[initscore_filename: ]
[valid_data_initscores: ]
[pre_partition: 0]
[enable_bundle: 1]
[max_conflict_rate: 0]
[is_enable_sparse: 1]
[sparse_threshold: 0.8]
[use_missing: 1]
[zero_as_missing: 0]
[two_round: 0]
[save_binary: 0]
[enable_load_from_binary_file: 1]
[header: 0]
[label_column: ]
[weight_column: ]
[group_column: ]
[ignore_column: ]
[categorical_feature: ]
[predict_raw_score: 0]
[predict_leaf_index: 0]
[predict_contrib: 0]
[num_iteration_predict: -1]
[pred_early_stop: 0]
[pred_early_stop_freq: 10]
[pred_early_stop_margin: 10]
[convert_model_language: ]
[convert_model: gbdt_prediction.cpp]
[num_class: 1]
[is_unbalance: 0]
[scale_pos_weight: 1]
[sigmoid: 1]
[boost_from_average: 0]
[reg_sqrt: 0]
[alpha: 0.9]
[fair_c: 1]
[poisson_max_delta_step: 0.7]
[tweedie_variance_power: 1.5]
[max_position: 20]
[label_gain: ]
[metric_freq: 1]
[is_provide_training_metric: 0]
[eval_at: ]
[num_machines: 1]
[local_listen_port: 12400]
[time_out: 120]
[machine_list_filename: ]
[machines: ]
[gpu_platform_id: -1]
[gpu_device_id: -1]
[gpu_use_dp: 0]

end of parameters

pandas_categorical:null
