tree
version=v2
num_class=1
num_tree_per_iteration=1
label_index=0
max_feature_idx=0
objective=binary sigmoid:1
feature_names=Column_0
feature_infos=[7.5865:23.132400000000001]
tree_sizes=1130 1131 1128 1130 1130 1127 1128 1129 1128 1128 1136 1135 1134 1134 1132 1131 1128 1132 1126 1134 1124 1124 1125 1126 1123 1129 1128 1130 1128 1139 1133 1132 1136 1134 1132 1135 1133 1135 1135 1137 1141 1141 1139 1145 1143 1142 1138 1136 1137 1136 1135 1140 1137 1137 1135 1131 1137 1136 1131 1133 1124 1124 1119 1127 1121 1123 1120 1121 1122 1120 1142 1142 1142 1142 1143 1145 1143 1145 1143 1148 1147 1146 1147 1150 1149 1146 1145 1146 1145 1146 1140 1140 1143 1143 1140 1147 1149 1149 1149 1150 1154 1150 1151 1151 1149 1150 1150 1145 1149 1154 1144 1147 1146 1146 1149 1151 1153 1153 1147 1151 1139 1140 1141 1142 1143 1142 1145 1144 1145 1142 1155 1150 1151 1153 1150 1130 1131 1130 1132 1133 1141 1146 1140 1143 1139 1154 1153 1146 1150 1151 1141 1139 1141 1137 1141 1149 1148 1150 1148 1154 1142 1142 1144 1145 1146 1150 1153 1150 1147 1153 1152 1152 1151 1152 1156 1139 1137 1139 1141 1143 1147 1148 1148 1142 1144 1153 1148 1153 1150 1151 1150 1151 1146 1154 1152 1139 1137 1130 1136 1141 1146 1143 1149 1144 1148 1152 1147 1152 1150 1153 1152 1151 1152 1149 1152 1150 1143 1148 1141 1142 1131 1136 1135 1127 1131 1131 1139 1139 1136 1135 1139 1137 1140 1139 1140 1155 1151 1153 1149 1151 1148 1151 1148 1152 1150 1152 1151 1149 1152 1151 1156 1155 1154 1156 1153 1152 1151 1155 1150 1151 1158 1157 1160 1156 1157 1157 1155 1153 1156 1156 1125 1126 1126 1133 1125 1141 1143 1144 1144 1144 1141 1141 1144 1137 1143 1151 1157 1158 1158 1158 1136 1139 1143 1139 1137 1153 1152 1148 1154 1150 1138 1141 1140 1139 1142 1153 1152 1152 1152 1150 1126 1127 1128 1127 1129 1141 1142 1140 1142 1141 1141 1136 1136 1138 1142 1156 1153 1157 1148 1155 1140 1146 1146 1145 1146 1154 1155 1153 1158 1152 1144 1143 1140 1144 1145 1158 1151 1158 1153 1154 1156 1152 1157 1154 1154 1148 1140 1149 1145 1148 1149 1148 1151 1149 1151 1153 1152 1149 1154 1147 1146 1147 1147 1147 1148 1156 1150 1154 1155 1157 1153 1156 1156 1159 1157 1154 1150 1150 1150 1149 1155 1153 1154 1152 1155 1156 1154 1153 1152 1151 1156 1156 1157 1157 1156 1146 1142 1146 1149 1147 1163 1161 1158 1161 1155 1118 1120 1144 1111 1119 1152 1150 1151 1156 1151 1139 1137 1137 1136 1152 1142 1143 1148 1149 1144 1154 1158 1154 1155 1154 1132 1130 1130 1130 1133 1135 1135 1135 1136 1132 1156 1156 1153 1155 1158 1158 1158 1156 1158 1163 1161 1158 1157 1152 1153 1152 1151 1154 1158 1151 1143 1145 1143 1139 1146 1155 1157 1154 1155 1155 1150 1150 1151 1153 1145 1149 1151 1148 1152 1154 1152 1152 1151 1157 1153 1145 1147 1147 1145 1145 1146 1147 1148 1149 1150 1165 1167 1167 1166 1169 1148 1152 1149 1152 1152 1159 1158 1156 1162 1159 1164 1164 1164 1166 1163 1165 1161 1164 1161 1162 1161 1168 1163 1163 1164 1161 1149 1161 1150 1151 1162 1158 1160 1159 1158 1159 1160 1155 1153 1158 1147 1141 1142 1145 1146 1145 1145 1143 1144 1140 1154 1155 1153 1156 1159 1151 1150 1154 1158 1159 1129 1133 1126 1130 1131 1135 1140 1140 1140 1144 1154 1155 1158 1154 1155 1140 1143 1136 1141 1138 1161 1167 1168 1164 1168 1154 1157 1153 1160 1157 1156 1153 1158 1157 1156 1158 1159 1162 1159 1154 1162 1160 1159 1161 1159 1154 1159 1161 1160 1160 1171 1169 1171 1172 1162 1143 1140 1137 1136 1135 1162 1164 1163 1165 1160 1129 1131 1149 1134 1151 1159 1166 1163 1163 1165 1142 1146 1150 1146 1146 1155 1152 1153 1152 1155 1146 1143 1140 1148 1144 1158 1163 1162 1161 1154 1172 1167 1171 1169 1171 1153 1153 1158 1156 1157 1150 1146 1150 1149 1151 1163 1160 1159 1159 1162 1149 1146 1149 1150 1141 1165 1160 1164 1163 1167 1153 1153 1146 1150 1152 1162 1159 1161 1163 1165 1156 1154 1155 1155 1155 1161 1164 1156 1164 1163 1153 1148 1147 1148 1149 1151 1155 1154 1153 1158 1161 1158 1159 1162 1158 1157 1150 1154 1153 1153 1152 1164 1153 1149 1158 1165 1167 1164 1166 1164 1160 1162 1162 1160 1162 1158 1158 1159 1160 1160 1157 1155 1155 1152 1152 1163 1159 1161 1163 1163 1148 1145 1146 1146 1148 1157 1157 1157 1154 1158 1140 1139 1135 1139 1139 1160 1161 1162 1164 1163 1158 1160 1161 1157 1163 1160 1161 1164 1168 1161 1154 1147 1155 1144 1144 1154 1156 1158 1154 1159 1158 1158 1160 1159 1160 1145 1145 1149 1145 1147 1163 1166 1165 1164 1165 1154 1154 1154 1150 1163 1161 1162 1163 1162 1157 1164 1163 1162 1166 1164 1147 1151 1150 1148 1151 1153 1157 1158 1161 1155 1141 1143 1141 1143 1144 1143 1147 1151 1147 1144 1137 1140 1137 1137 1134 1159 1159 1171 1160 1172 1152 1150 1156 1157 1158 1146 1146 1144 1143 1145 1158 1159 1159 1161 1162 1148 1147 1149 1153 1151 1145 1140 1144 1148 1151 1160 1162 1163 1166 1162 1156 1156 1155 1158 1158 1144 1146 1139 1142 1146 1157 1157 1158 1159 1163 1131 1131 1136 1129 1141 1152 1129 1135 1132 1132 1142 1143 1146 1142 1141 1133 1133 1133 1129 1129 1141 1142 1142 1139 1139 1146 1144 1148 1139 1141 1146 1146 1146 1151 1149 1154 1155 1142 1157 1151 1157 1153 1155 1154 1150 1162 1164 1161 1168 1165 1156 1158 1160 1159 1157 1165 1163 1162 1163 1164 1145 1151 1146 1145 1150 1151 1155 1157 1154 1154 1140 1144 1141 1141 1140 1132 1127 1134 1129 1127 1158 1156 1154 1156 1156 1152 1151 1152 1154 1154 1144 1151 1149 1150 1144 1160 1162 1162 1157 1154 1150 1148 1149 1145 1149 1146 1155 1151 1149 1155 1157 1163 1162 1160 1167 1150 1146 1154 1158 1152 1162 1162 1161 1159 1163 1167 1166 1149 1146 1163 1163 1162 1162 1161 1164 1167 1166 1166 1167 1160 1163 1164 1165 1167 1163 1158 1160 1154 1161 1154 1160 1165 1166 1159 1169 1150 1151 1152 1153 1149 1154 1162 1153 1162 1154 1155 1152 1150 1154 1156 1156 1160 1162 1159 1159 1172 1177 1178 1172 1171 1142 1137 1135 1140 1142 1158 1162 1163 1160 1171 1143 1141 1147 1149 1152 1161 1163 1166 1164 1165 1144 1142 1146 1147 1151 1156 1151 1157 1154 1155 1155 1140 1147 1153 1144 1161 1145 1144 1145 1144 1149 1151 1150 1151 1151 1160 1160 1157 1159 1162 1152 1146 1146 1149 1147 1146 1144 1148 1146 1147 1165 1167 1168 1166 1168 1162 1164 1162 1161 1163 1150 1153 1150 1147 1150 1154 1155 1157 1158 1158 1161 1163 1163 1161 1156 1148 1154 1156 1148 1148 1152 1159 1156 1156 1162 1138 1136 1137 1138 1137 1155 1157 1155 1156 1156 1133 1127 1130 1135 1134 1149 1152 1150 1154 1148 1153 1150 1149 1150 1152 1134 1135 1132 1141 1133 1147 1148 1153 1142 1150 1153 1154 1158 1154 1159 1148 1146 1146 1146 1147 1150 1146 1157 1156 1149 1160 1156 1157 1158 1154 1158 1157 1165 1160 1167 1155 1157 1153 1154 1151 1164 1163 1163 1165 1160 1142 1144 1165 1141 1159 1158 1158 1156 1156 1156 1154 1153 1154 1148 1155 1151 1152 1152 1150 1151 1155 1153 1155 1160 1161 1136 1139 1136 1137 1140 1156 1163 1161 1165 1162 1145 1152 1144 1144 1148 1148 1147 1145 1143 1144 1153 1154 1160 1144 1155 1157 1162 1158 1163 1161 1152 1150 1152 1151 1148 1142 1158 1141 1159 1136 1160 1162 1163 1162 1165 1137 1135 1135 1133 1128 1136 1133 1136 1135 1135 1141 1140 1137 1142 1139 1154 1157 1163 1163 1158 1162 1157 1162 1165 1161 1151 1149 1151 1148 1154 1158 1161 1159 1158 1159 1153 1153 1151 1152 1154 1158 1155 1152 1159 1159 1158 1159 1156 1156 1149 1149 1149 1136 1135 1145 1164 1160 1161 1164 1160 1160 1158 1164 1164 1162 1148 1147 1144 1144 1145 1152 1155 1160 1158 1159 1151 1149 1149 1144 1150 1164 1165 1168 1163 1170 1163 1166 1165 1165 1162 1158 1155 1157 1156 1157 1149 1153 1155 1155 1157 1149 1146 1147 1144 1146 1164 1166 1166 1162 1163 1152 1151 1154 1150 1155 1165 1164 1163 1165 1161 1156 1158 1158 1156 1159 1142 1143 1141 1137 1139 1158 1157 1160 1157 1158 1150 1145 1146 1143 1148 1145 1149 1142 1149 1144 1156 1158 1157 1151 1161 1165 1162 1157 1167 1162 1137 1136 1136 1137 1136 1153 1159 1159 1160 1156 1145 1149 1140 1148 1149 1157 1154 1157 1158 1157 1157 1158 1158 1158 1162 1159 1163 1163 1162 1164 1157 1158 1158 1157 1159 1160 1162 1162 1163 1163 1153 1157 1154 1155 1154 1154 1156 1160 1157 1161 1159 1155 1164 1157 1168 1156 1149 1157 1155 1156 1141 1149 1146 1145 1149 1155 1144 1154 1148 1152 1142 1146 1139 1141 1147 1149 1150 1147 1148 1150 1155 1150 1147 1155 1153 1149 1153 1152 1157 1154 1145 1146 1148 1156 1147 1154 1153 1150 1153 1156 1137 1135 1138 1133 1150 1151 1148 1148 1151 1145 1148 1148 1144 1150 1163 1154 1156 1152 1159 1156 1158 1162 1158 1161 1165 1159 1155 1157 1153 1153 1166 1164 1163 1163 1171 1134 1138 1139 1134 1146 1152 1156 1153 1153 1154 1140 1143 1137 1139 1141 1165 1150 1165 1166 1163 1165 1168 1169 1165 1169 1156 1155 1160 1157 1154 1168 1161 1163 1163 1164 1161 1161 1159 1162 1164 1137 1143 1137 1138 1142 1146 1147 1145 1147 1148 1147 1149 1148 1154 1149 1148 1147 1147 1148 1152 1153 1155 1154 1157 1159 1149 1148 1149 1151 1147 1147 1152 1152 1149 1147 1144 1148 1148 1148 1144 1140 1136 1133 1134 1138 1126 1130 1130 1128 1129 1161 1163 1165 1161 1149 1164 1162 1162 1165 1166 1156 1157 1157 1155 1158 1168 1168 1162 1170 1165 1159 1159 1147 1156 1155 1146 1140 1146 1141 1146 1154 1152 1153 1153 1152 1152 1154 1154 1149 1158 1148 1148 1152 1148 1149 1163 1160 1162 1162 1159 1166 1162 1159 1160 1161 1157 1161 1160 1157 1159 1157 1157 1160 1159 1157 1139 1141 1142 1136 1139 1161 1159 1149 1155 1146 1161 1160 1159 1161 1158 1152 1151 1155 1151 1153 1156 1155 1154 1150 1154 1140 1140 1143 1140 1140 1157 1161 1156 1158 1160 1160 1159 1161 1162 1159 1144 1146 1143 1142 1140 1156 1162 1157 1162 1162 1164 1167 1162 1168 1166 1155 1157 1156 1154 1155 1148 1151 1149 1149 1154 1155 1155 1153 1156 1156 1171 1175 1173 1176 1176 1154 1141 1159 1140 1145 1146 1146 1159 1143 1157 1151 1150 1155 1158 1156 1164 1164 1161 1165 1159 1142 1150 1140 1152 1139 1153 1153 1150 1153 1148 1156 1158 1161 1155 1159 1165 1162 1162 1166 1164 1153 1156 1153 1152 1153 1144 1144 1143 1142 1144 1137 1142 1145 1143 1142 1157 1159 1154 1157 1155 1141 1149 1142 1158 1147 1149 1152 1150 1148 1153 1154 1153 1148 1155 1155 1155 1153 1155 1156 1155 1150 1145 1150 1150 1150 1155 1156 1155 1159 1169 1146 1145 1154 1155 1153 1161 1164 1162 1162 1151 1142 1142 1148 1150 1142 1154 1156 1153 1156 1153 1162 1157 1160 1160 1160 1161 1156 1161 1157 1162 1161 1168 1169 1158 1158 1163 1165 1163 1163 1164 1143 1154 1153 1153 1151 1167 1161 1161 1165 1164 1147 1150 1148 1148 1145 1159 1158 1154 1154 1159 1161 1160 1162 1169 1156 1146 1142 1146 1147 1150 1150 1157 1148 1153 1151 1157 1161 1161 1162 1161 1132 1130 1134 1134 1132 1152 1154 1155 1151 1159 1152 1154 1151 1152 1152 1155 1163 1161 1158 1164 1145 1143 1145 1142 1136 1162 1167 1149 1146 1149 1159 1158 1159 1158 1158 1150 1148 1152 1155 1157 1164 1153 1147 1141 1149 1157 1157 1155 1162 1156 1145 1157 1145 1140 1144 1154 1162 1154 1160 1159 1155 1153 1160 1160 1154 1157 1155 1161 1163 1163 1134 1129 1128 1128 1130 1150 1152 1149 1147 1155 1157 1159 1150 1157 1155 1165 1164 1164 1170 1171 1138 1136 1140 1137 1145 1149 1149 1147 1149 1143 1155 1156 1158 1158 1159 1154 1159 1154 1158 1157 1152 1153 1151 1153 1150 1153 1143 1142 1140 1142 1163 1160 1160 1164 1158 1147 1149 1149 1148 1154 1147 1136 1144 1148 1144 1157 1156 1158 1153 1163 1159 1155 1158 1158 1157 1155 1155 1158 1154 1163 1143 1147 1143 1128 1137 1149 1158 1151 1146 1158 1142 1138 1152 1153 1144 1164 1166 1163 1161 1165 1158 1155 1159 1155 1159 1151 1152 1152 1152 1152 1151 1151 1157 1155 1154 1163 1164 1162 1165 1163 1166 1167 1162 1167 1167 1160 1160 1155 1161 1159 1143 1145 1147 1144 1142 1157 1151 1149 1156 1158 1161 1164 1160 1169 1169 1148 1146 1147 1142 1140 1162 1162 1136 1160 1157 1160 1161 1156 1165 1164 1162 1162 1160 1163 1159 1154 1153 1154 1150 1161 1155 1153 1154 1149 1155 1157 1164 1164 1168 1158 1157 1156 1152 1156 1153 1162 1162 1164 1165 1164 1164 1160 1166 1169 1170 1163 1163 1162 1153 1162 1145 1148 1142 1143 1154 1161 1156 1159 1161 1152 1147 1147 1150 1153 1148 1156 1158 1160 1157 1160 1150 1144 1148 1148 1146 1147 1144 1147 1136 1139 1149 1148 1151 1151 1148 1156 1156 1158 1159 1157 1161 1158 1161 1162 1164 1146 1149 1144 1148 1146 1145 1144 1146 1146 1150 1145 1149 1144 1143 1145 1158 1154 1159 1159 1156 1133 1132 1134 1129 1136 1165 1172 1171 1168 1173 1153 1148 1155 1154 1154 1151 1152 1148 1152 1149 1158 1156 1157 1160 1157 1141 1139 1139 1141 1141 1158 1159 1154 1161 1156 1167 1170 1166 1166 1169 1149 1151 1148 1151 1150 1163 1160 1168 1166 1164 1164 1159 1160 1163 1158 1137 1143 1136 1144 1140 1138 1140 1134 1143 1141 1162 1163 1161 1164 1164 1161 1154 1163 1153 1163 1147 1148 1147 1148 1147 1137 1138 1137 1154 1155 1149 1152 1150 1149 1151 1166 1167 1166 1164 1167 1166 1163 1145 1154 1152 1151 1153 1156 1157 1155 1152 1157 1154 1156 1157 1154 1155 1154 1154 1155 1166 1168 1162 1161 1158 1149 1147 1148 1149 1146 1144 1147 1145 1141 1144 1142 1145 1141 1141 1146 1151 1149 1154 1154 1154 1141 1145 1143 1151 1148 1157 1156 1158 1156 1162 1158 1161 1165 1160 1163 1140 1145 1143 1144 1142 1149 1149 1148 1156 1152 1139 1140 1138 1152 1137 1156 1158 1156 1163 1163 1160 1156 1151 1151 1153 1158 1156 1156 1158 1158 1161 1161 1164 1165 1165 1156 1153 1159 1155 1159 1145 1146 1145 1149 1147 1139 1139 1140 1146 1148 1147 1147 1145 1145 1146 1150 1152 1150 1150 1154 1145 1144 1148 1142 1147 1162 1162 1162 1155 1164 1168 1166 1167 1169 1166 1151 1150 1152 1149 1144 1163 1167 1169 1171 1171 1131 1131 1131 1131 1129 1146 1146 1146 1146 1153 1147 1160 1156 1146 1160 1171 1172 1168 1164 1167 1162 1161 1162 1163 1159 1150 1136 1146 1134 1146 1164 1162 1165 1156 1159 1153 1159 1158 1155 1157 1132 1138 1134 1137 1144 1160 1154 1146 1157 1142 1148 1150 1152 1154 1149 1148 1145 1146 1150 1149 1155 1161 1162 1164 1160 1162 1166 1164 1159 1158 1158 1155 1157 1160 1154 1161 1159 1153 1158 1159 1149 1150 1155 1151 1145 1147 1152 1151 1155 1152 1152 1152 1150 1154 1149 1157 1148 1155 1156 1149 1165 1164 1165 1161 1163 1144 1145 1152 1158 1138 1157 1159 1164 1153 1160 1157 1161 1163 1162 1165 1158 1156 1158 1160 1156 1144 1149 1153 1145 1151 1136 1138 1138 1138 1137 1144 1146 1149 1149 1147 1135 1137 1139 1135 1138 1157 1153 1154 1154 1159 1156 1158 1153 1156 1153 1158 1156 1159 1157 1162 1153 1152 1153 1153 1152 1155 1154 1159 1164 1152 1157 1159 1157 1156 1160 1158 1152 1153 1152 1142 1161 1157 1157 1155 1154 1168 1167 1168 1171 1168 1156 1153 1153 1149 1151 1165 1165 1164 1164 1164 1144 1145 1146 1146 1143 1130 1137 1141 1139 1140 1160 1162 1162 1162 1162 1154 1154 1156 1158 1149 1159 1157 1161 1158 1159 1146 1142 1147 1149 1148 1166 1173 1169 1175 1178 1152 1145 1146 1147 1149 1140 1140 1141 1144 1146 1150 1150 1148 1148 1152 1148 1153 1164 1162 1156 1149 1149 1154 1157 1151 1125 1122 1127 1131 1124 1145 1144 1143 1147 1144 1145 1149 1149 1149 1151 1166 1164 1166 1161 1162 1166 1166 1168 1169 1171 1156 1156 1157 1152 1157 1138 1144 1145 1145 1146 1148 1147 1146 1140 1145 1146 1146 1146 1148 1143 1151 1163 1150 1161 1152 1141 1139 1139 1140 1140 1155 1144 1149 1152 1140 1150 1147 1151 1148 1145 1144 1145 1145 1146 1148 1159 1164 1159 1161 1161 1149 1149 1152 1157 1150 1127 1135 1136 1131 1132 1148 1146 1157 1146 1158 1163 1157 1163 1152 1159 1146 1141 1142 1146 1141 1134 1131 1131 1132 1134 1153 1138 1134 1154 1134 1133 1128 1134 1133 1131 1153 1157 1160 1159 1163 1155 1154 1152 1150 1159 1140 1144 1145 1157 1159 1141 1140 1141 1141 1135 1158 1161 1160 1159 1160 1149 1149 1151 1159 1154 1151 1146 1144 1146 1143 1153 1149 1158 1163 1149 1156 1154 1154 1160 1151 1149 1149 1148 1149 1147 1153 1156 1158 1153 1155 1156 1156 1151 1153 1155 1154 1159 1157 1156 1157 1162 1160 1163 1162 1164 1160 1158 1164 1150 1155 1169 1161 1172 1159 1170 1128 1129 1127 1131 1132 1138 1137 1134 1135 1139 1145 1146 1144 1144 1141 1158 1153 1156 1154 1140 1146 1151 1154 1150 1153 1152 1148 1149 1152 1151 1156 1163 1165 1165 1167 1156 1160 1163 1160 1153 1156 1160 1157 1161 1160 1155 1156 1152 1148 1154 1154 1163 1154 1163 1157 1155 1152 1155 1147 1153 1145 1147 1148 1147 1147 1157 1149 1150 1155 1145 1149 1148 1153 1152 1149 1144 1158 1159 1159 1157 1157 1157 1159 1158 1157 1152 1154 1152 1160 1154 1159 1154 1154 1156 1156 1158 1161 1159 1156 1162 1161 1163 1148 1159 1154 1155 1161 1159 1159 1161 1152 1135 1150 1131 1155 1141 1146 1140 1134 1140 1135 1134 1135 1134 1136 1162 1164 1143 1164 1160 1162 1162 1162 1160 1159 1155 1152 1149 1154 1151 1155 1154 1159 1157 1166 1161 1163 1158 1160 1161 1164 1160 1162 1161 1165 1150 1152 1152 1158 1158 1148 1148 1147 1143 1147 1156 1150 1153 1148 1153 1149 1149 1147 1147 1149 1146 1158 1146 1147 1145 1167 1165 1167 1165 1165 1143 1147 1143 1144 1144 1145 1149 1150 1147 1145 1150 1143 1156 1146 1157 1154 1161 1159 1161 1159 1165 1165 1159 1155 1163 1158 1152 1157 1156 1155 1161 1163 1162 1160 1163 1169 1168 1164 1167 1168 1155 1152 1154 1157 1161 1147 1151 1156 1158 1155 1154 1155 1153 1157 1158 1145 1144 1144 1142 1143 1139 1140 1141 1138 1137 1145 1141 1140 1146 1146 1147 1150 1148 1149 1147 1142 1147 1146 1145 1144 1160 1160 1157 1159 1160 1132 1128 1131 1132 1130 1153 1153 1151 1153 1152 1163 1167 1163 1164 1169 1145 1141 1140 1145 1146 1157 1161 1159 1160 1161 1156 1149 1154 1154 1151 1155 1160 1158 1157 1152 1158 1157 1156 1155 1158 1129 1124 1124 1125 1127 1168 1168 1167 1170 1164 1160 1160 1158 1158 1161 1155 1153 1152 1156 1155 1156 1152 1153 1158 1158 1154 1155 1157 1156 1156 1140 1134 1140 1139 1139 1148 1143 1159 1159 1158 1145 1148 1144 1147 1142 1146 1150 1152 1149 1152 1167 1167 1167 1165 1167 1156 1159 1156 1159 1153 1135 1132 1135 1131 1136 1146 1149 1149 1148 1145 1160 1161 1158 1162 1158 1162 1165 1164 1170 1168 1164 1164 1162 1161 1166

Tree=0
num_leaves=13
num_cat=0
split_feature=0 0 0 0 0 0 0 0 0 0 0 0
split_gain=210.379 23.6148 21.2877 2.69201 1.7885 1.5924 4.03844 2.92373 1.15492 1.09168 2.32689 1.17627
threshold=11.756750000000002 13.010550000000002 10.147700000000002 10.778200000000002 12.276550000000002 16.358150000000006 14.622850000000001 16.628850000000003 14.554250000000001 9.5106500000000018 9.2669500000000031 9.3529500000000017
decision_type=2 2 2 2 2 2 2 2 2 2 2 2
left_child=2 4 9 -4 -2 6 8 -7 -3 10 -1 -12
right_child=1 5 3 -5 -6 7 -8 -9 -10 -11 11 -13
leaf_value=-0.0090844349680170577 -0.012020259740259739 -0.013297179334916864 -0.010199999999999999 -0.01113823743627094 -0.012572038834951456 -0.012736024044654357 -0.013632185232116116 -0.013361118210862619 -0.012625459688826026 -0.0093313340227507754 -0.0068399999999999997 -0.0084857142857142857
leaf_count=938 2310 13472 1134 2746 4635 2329 17362 12520 707 967 225 231
internal_value=0 -1.63821 -1.25012 -1.34124 -1.52945 -1.65449 -1.66253 -1.63742 -1.63749 -1.10038 -1.06456 -0.947368
internal_count=59576 53335 6241 3880 6945 46390 31541 14849 14179 2361 1394 456
shrinkage=0.0081


Tree=1
num_leaves=13
num_cat=0
split_feature=0 0 0 0 0 0 0 0 0 0 0 0
split_gain=207.022 23.2387 20.9468 2.64896 1.75998 1.56706 3.97417 2.87718 1.13653 1.07417 2.28954 1.15738
threshold=11.756750000000002 13.010550000000002 10.147700000000002 10.778200000000002 12.276550000000002 16.358150000000006 14.622850000000001 16.628850000000003 14.554250000000001 9.5106500000000018 9.2669500000000031 9.3529500000000017
decision_type=2 2 2 2 2 2 2 2 2 2 2 2
left_child=2 4 9 -4 -2 6 8 -7 -3 10 -1 -12
right_child=1 5 3 -5 -6 7 -8 -9 -10 -11 11 -13
leaf_value=-0.0090110374067744903 -0.011923327516014352 -0.013190057209949256 -0.010117643528734356 -0.011048361262355979 -0.012470699118486944 -0.01263337575637544 -0.013522394314556471 -0.013253485982786226 -0.012523693957165153 -0.0092559524590066795 -0.0067846753380516921 -0.0084171320627176808
leaf_count=938 2310 13472 1134 2746 4635 2329 17362 12520 707 967 225 231
internal_value=0 -1.62501 -1.24003 -1.33041 -1.51712 -1.64117 -1.64914 -1.62423 -1.6243 -1.09149 -1.05596 -0.939709
internal_count=59576 53335 6241 3880 6945 46390 31541 14849 14179 2361 1394 456
shrinkage=0.0081


Tree=2
num_leaves=13
num_cat=0
split_feature=0 0 0 0 0 0 0 0 0 0 0 0
split_gain=203.789 22.8781 20.6164 2.60733 1.73257 1.54279 3.91269 2.83257 1.1189 1.05714 2.25319 1.13896
threshold=11.756750000000002 13.010550000000002 10.147700000000002 10.778200000000002 12.276550000000002 16.358150000000006 14.622850000000001 16.628850000000003 14.554250000000001 9.5106500000000018 9.2669500000000031 9.3529500000000017
decision_type=2 2 2 2 2 2 2 2 2 2 2 2
left_child=2 4 9 -4 -2 6 8 -7 -3 10 -1 -12
right_child=1 5 3 -5 -6 7 -8 -9 -10 -11 11 -13
leaf_value=-0.0089385968440677012 -0.011828020560733649 -0.0130849398485226 -0.010036468334596586 -0.010959881579417134 -0.012371142412000481 -0.012532558732412253 -0.013414718998578693 -0.013147881232519002 -0.012423727015210878 -0.0091815744998229674 -0.0067299546047828859 -0.0083494006674119138
leaf_count=938 2310 13472 1134 2746 4635 2329 17362 12520 707 967 225 231
internal_value=0 -1.61206 -1.23008 -1.31975 -1.505 -1.62809 -1.63601 -1.61128 -1.61135 -1.08271 -1.04746 -0.932138
internal_count=59576 53335 6241 3880 6945 46390 31541 14849 14179 2361 1394 456
shrinkage=0.0081


Tree=3
num_leaves=13
num_cat=0
split_feature=0 0 0 0 0 0 0 0 0 0 0 0
split_gain=200.675 22.5322 20.296 2.56707 1.7062 1.51957 3.85383 2.7898 1.10199 1.04057 2.21778 1.12099
threshold=11.756750000000002 13.010550000000002 10.147700000000002 10.778200000000002 12.276550000000002 16.358150000000006 14.622850000000001 16.628850000000003 14.554250000000001 9.5106500000000018 9.2669500000000031 9.3529500000000017
decision_type=2 2 2 2 2 2 2 2 2 2 2 2
left_child=2 4 9 -4 -2 6 8 -7 -3 10 -1 -12
right_child=1 5 3 -5 -6 7 -8 -9 -10 -11 11 -13
leaf_value=-0.0088670926413131276 -0.011734293690823704 -0.012981767283476584 -0.0099564436732741315 -0.010872761381173466 -0.012273315707300352 -0.012433519019420193 -0.013309093616149417 -0.01304423927853062 -0.012325504308758062 -0.0091081763193441891 -0.0066758245911085218 -0.0082825019893666418
leaf_count=938 2310 13472 1134 2746 4635 2329 17362 12520 707 967 225 231
internal_value=0 -1.59935 -1.22027 -1.30925 -1.49309 -1.61526 -1.62312 -1.59857 -1.59865 -1.07405 -1.03908 -0.924656
internal_count=59576 53335 6241 3880 6945 46390 31541 14849 14179 2361 1394 456
shrinkage=0.0081


Tree=4
num_leaves=13
num_cat=0
split_feature=0 0 0 0 0 0 0 0 0 0 0 0
split_gain=197.675 22.2003 19.9852 2.52812 1.68083 1.49733 3.79748 2.75605 1.08577 1.02446 2.18329 1.10345
threshold=11.756750000000002 13.010550000000002 10.147700000000002 10.778200000000002 12.276550000000002 16.358150000000006 14.622850000000001 16.743650000000006 14.554250000000001 9.5106500000000018 9.2669500000000031 9.3529500000000017
decision_type=2 2 2 2 2 2 2 2 2 2 2 2
left_child=2 4 9 -4 -2 6 8 -7 -3 10 -1 -12
right_child=1 5 3 -5 -6 7 -8 -9 -10 -11 11 -13
leaf_value=-0.0087965011110830698 -0.011642100507233789 -0.012880480040456971 -0.009877540109056419 -0.010786962850788099 -0.01217716804592567 -0.012436706863765981 -0.013205455201692546 -0.012966087663822038 -0.012228975688735936 -0.0090357353011525365 -0.0066222761448686048 -0.0082164173907118363
leaf_count=938 2310 13472 1134 2746 4635 3329 17362 11520 707 967 225 231
internal_value=0 -1.58687 -1.2106 -1.29891 -1.48138 -1.60266 -1.61046 -1.5861 -1.58617 -1.06549 -1.03079 -0.917259
internal_count=59576 53335 6241 3880 6945 46390 31541 14849 14179 2361 1394 456
shrinkage=0.0081


Tree=5
num_leaves=13
num_cat=0
split_feature=0 0 0 0 0 0 0 0 0 0 0 0
split_gain=189.656 20.4066 17.0069 2.62622 1.60651 1.52297 1.78585 1.70527 1.60772 1.4655 1.45493 1.31777
threshold=11.491500000000002 13.041000000000002 10.147700000000002 18.821800000000003 18.078550000000003 13.518550000000001 13.364250000000002 13.331650000000002 13.708850000000002 10.546350000000002 12.745050000000001 18.282100000000003
decision_type=2 2 2 2 2 2 2 2 2 2 2 2
left_child=2 10 -1 4 5 6 7 -3 -7 -4 -2 -6
right_child=1 3 9 -5 11 8 -8 -9 -10 -11 -12 -13
leaf_value=-0.0085455798583084896 -0.011888475936195258 -0.012674824197651313 -0.0097275814284462428 -0.013516930775389084 -0.011854923904926613 -0.013417525516913635 -0.012039107260327352 -0.014142440694442111 -0.012895086073362816 -0.010574067584922024 -0.012374792802144281 -0.01271848523061877
leaf_count=2378 6111 2089 699 1691 703 1615 1147 231 37029 2319 2197 1367
internal_value=0 -1.57484 -1.18153 -1.59136 -1.5884 -1.59108 -1.5509 -1.58283 -1.59468 -1.28123 -1.48359 -1.53398
internal_count=59576 54180 5396 45872 44181 42111 3467 2320 38644 3018 8308 2070
shrinkage=0.0081


Tree=6
num_leaves=13
num_cat=0
split_feature=0 0 0 0 0 0 0 0 0 0 0 0
split_gain=186.936 20.1254 16.7536 2.58764 1.58301 1.50099 1.75954 1.68031 1.58385 1.44385 1.43442 1.29834
threshold=11.491500000000002 13.041000000000002 10.147700000000002 18.821800000000003 18.078550000000003 13.518550000000001 13.364250000000002 13.331650000000002 13.708850000000002 10.546350000000002 12.745050000000001 18.282100000000003
decision_type=2 2 2 2 2 2 2 2 2 2 2 2
left_child=2 10 -1 4 5 6 7 -3 -7 -4 -2 -6
right_child=1 3 9 -5 11 8 -8 -9 -10 -11 -12 -13
leaf_value=-0.008478112769065415 -0.011796799021894537 -0.012577898170008763 -0.0096513817758417803 -0.013414040919470224 -0.011763915586759972 -0.013315308910464084 -0.011946746433233154 -0.01403510575960446 -0.012796636403767056 -0.010491710619768328 -0.012279776055853434 -0.01262127418433665
leaf_count=2378 6111 2089 699 1691 703 1615 1147 231 37029 2319 2197 1367
internal_value=0 -1.56279 -1.17226 -1.57921 -1.57627 -1.57893 -1.53903 -1.57074 -1.58251 -1.27124 -1.47216 -1.52223
internal_count=59576 54180 5396 45872 44181 42111 3467 2320 38644 3018 8308 2070
shrinkage=0.0081


Tree=7
num_leaves=13
num_cat=0
split_feature=0 0 0 0 0 0 0 0 0 0 0 0
split_gain=184.312 19.8554 16.5077 2.55068 1.56045 1.47991 1.73428 1.65643 1.56099 1.42288 1.41469 1.27967
threshold=11.491500000000002 13.041000000000002 10.147700000000002 18.821800000000003 18.078550000000003 13.518550000000001 13.364250000000002 13.331650000000002 13.708850000000002 10.546350000000002 12.745050000000001 18.282100000000003
decision_type=2 2 2 2 2 2 2 2 2 2 2 2
left_child=2 10 -1 4 5 6 7 -3 -7 -4 -2 -6
right_child=1 3 9 -5 11 8 -8 -9 -10 -11 -12 -13
leaf_value=-0.0084114687315328569 -0.011706614108921888 -0.012482662750168251 -0.0095762072180237013 -0.013313089462906358 -0.011674380452121887 -0.013215001189539898 -0.011855905901858647 -0.013929912467784099 -0.012699939567338205 -0.010410546379918426 -0.012186374024776219 -0.012525766329311717
leaf_count=2378 6111 2089 699 1691 703 1615 1147 231 37029 2319 2197 1367
internal_value=0 -1.55097 -1.16312 -1.56728 -1.56436 -1.567 -1.52737 -1.55886 -1.57055 -1.26139 -1.46092 -1.51069
internal_count=59576 54180 5396 45872 44181 42111 3467 2320 38644 3018 8308 2070
shrinkage=0.0081


Tree=8
num_leaves=13
num_cat=0
split_feature=0 0 0 0 0 0 0 0 0 0 0 0
split_gain=181.779 19.5961 16.2687 2.51526 1.5388 1.45966 1.71001 1.63357 1.53908 1.40255 1.3957 1.26171
threshold=11.491500000000002 13.041000000000002 10.147700000000002 18.821800000000003 18.078550000000003 13.518550000000001 13.364250000000002 13.331650000000002 13.708850000000002 10.546350000000002 12.745050000000001 18.282100000000003
decision_type=2 2 2 2 2 2 2 2 2 2 2 2
left_child=2 10 -1 4 5 6 7 -3 -7 -4 -2 -6
right_child=1 3 9 -5 11 8 -8 -9 -10 -11 -12 -13
leaf_value=-0.0083456300347584701 -0.011617878527414119 -0.012389070311152234 -0.0095020341698826057 -0.013214017813272267 -0.011586277690339758 -0.013116544618923327 -0.011766543035537241 -0.013826793208738799 -0.012604943503173831 -0.010330543840222655 -0.012094540596301084 -0.012431910834486854
leaf_count=2378 6111 2089 699 1691 703 1615 1147 231 37029 2319 2197 1367
internal_value=0 -1.53934 -1.1541 -1.55555 -1.55265 -1.55527 -1.51591 -1.54718 -1.55881 -1.25168 -1.44987 -1.49935
internal_count=59576 54180 5396 45872 44181 42111 3467 2320 38644 3018 8308 2070
shrinkage=0.0081


Tree=9
num_leaves=13
num_cat=0
split_feature=0 0 0 0 0 0 0 0 0 0 0 0
split_gain=179.334 19.3469 16.0364 2.48132 1.51801 1.44021 1.68668 1.61168 1.51809 1.38283 1.37743 1.24444
threshold=11.491500000000002 13.041000000000002 10.147700000000002 18.821800000000003 18.078550000000003 13.518550000000001 13.364250000000002 13.331650000000002 13.708850000000002 10.546350000000002 12.745050000000001 18.282100000000003
decision_type=2 2 2 2 2 2 2 2 2 2 2 2
left_child=2 10 -1 4 5 6 7 -3 -7 -4 -2 -6
right_child=1 3 9 -5 11 8 -8 -9 -10 -11 -12 -13
leaf_value=-0.0082805797947685285 -0.011530552084172559 -0.012297071813989894 -0.0094288388718994989 -0.013116769463926103 -0.011499567135826328 -0.01301988448275132 -0.011678616947267318 -0.013725683916107439 -0.012511598681551609 -0.010251673834787254 -0.012004230475802097 -0.012339660764132804
leaf_count=2378 6111 2089 699 1691 703 1615 1147 231 37029 2319 2197 1367
internal_value=0 -1.52792 -1.1452 -1.54403 -1.54115 -1.54375 -1.50464 -1.53571 -1.54726 -1.2421 -1.43899 -1.48819
internal_count=59576 54180 5396 45872 44181 42111 3467 2320 38644 3018 8308 2070
shrinkage=0.0081


Tree=10
num_leaves=13
num_cat=0
split_feature=0 0 0 0 0 0 0 0 0 0 0 0
split_gain=172.93 26.5143 8.43001 3.29532 1.01766 0.909204 0.880788 1.67847 0.983036 0.861134 0.833856 1.13327
threshold=11.420550000000002 13.010550000000002 9.6803500000000025 12.276550000000002 16.096450000000001 16.602350000000005 16.440850000000001 16.385650000000002 16.358150000000006 15.900550000000001 10.147700000000002 11.262300000000002
decision_type=2 2 2 2 2 2 2 2 2 2 2 2
left_child=2 3 -1 -2 9 6 7 8 -6 -3 -4 -12
right_child=1 4 10 -5 5 -7 -8 -9 -10 -11 11 -13
leaf_value=-0.0082236702242984606 -0.011020143105918159 -0.012440623723672529 -0.0091174016900407284 -0.011681113429271466 -0.012202104080270849 -0.012376700148988045 -0.011771131557315271 -0.013170326413538871 -0.01110399263673705 -0.012800041410453759 -0.0098856497247157161 -0.0090173353526285787
leaf_count=1686 3452 27249 705 4679 2392 12595 1407 456 236 1878 2366 475
internal_value=0 -1.51296 -1.13179 -1.40746 -1.53154 -1.51926 -1.49477 -1.51373 -1.49426 -1.53874 -1.18723 -1.20253
internal_count=59576 54344 5232 8131 46213 17086 4491 3084 2628 29127 3546 2841
shrinkage=0.0081


Tree=11
num_leaves=13
num_cat=0
split_feature=0 0 0 0 0 0 0 0 0 0 0 0
split_gain=170.7 26.1887 8.31292 3.25281 1.00443 0.897135 0.869603 1.65475 0.970079 0.849877 0.823501 1.11638
threshold=11.420550000000002 13.010550000000002 9.6803500000000025 12.276550000000002 16.096450000000001 16.602350000000005 16.440850000000001 16.385650000000002 16.358150000000006 15.900550000000001 10.147700000000002 11.262300000000002
decision_type=2 2 2 2 2 2 2 2 2 2 2 2
left_child=2 3 -1 -2 9 6 7 8 -6 -3 -4 -12
right_child=1 4 10 -5 5 -7 -8 -9 -10 -11 11 -13
leaf_value=-0.0081600604834072381 -0.010938207733080853 -0.012350308439748115 -0.0090473789048705899 -0.011595130364801176 -0.012113389926339254 -0.012286765035923547 -0.011684894959312143 -0.013075111013445662 -0.011022136041967964 -0.01270752505941145 -0.0098108378294236871 -0.0089488008181521517
leaf_count=1686 3452 27249 705 4679 2392 12595 1407 456 236 1878 2366 475
internal_value=0 -1.50194 -1.12314 -1.39706 -1.52041 -1.50821 -1.48388 -1.50273 -1.48338 -1.52757 -1.17821 -1.19342
internal_count=59576 54344 5232 8131 46213 17086 4491 3084 2628 29127 3546 2841
shrinkage=0.0081


Tree=12
num_leaves=13
num_cat=0
split_feature=0 0 0 0 0 0 0 0 0 0 0 0
split_gain=168.545 25.8754 8.19894 3.21178 0.991725 0.885526 0.85885 1.63197 0.957598 0.839068 0.813429 1.09998
threshold=11.420550000000002 13.010550000000002 9.6803500000000025 12.276550000000002 16.096450000000001 16.602350000000005 16.440850000000001 16.385650000000002 16.358150000000006 15.900550000000001 10.147700000000002 11.262300000000002
decision_type=2 2 2 2 2 2 2 2 2 2 2 2
left_child=2 3 -1 -2 9 6 7 8 -6 -3 -4 -12
right_child=1 4 10 -5 5 -7 -8 -9 -10 -11 11 -13
leaf_value=-0.0080971909280200122 -0.01085747990194526 -0.012261511435965083 -0.0089782343881180723 -0.011510493487883787 -0.012026132484031537 -0.012198331766332832 -0.011600017429447959 -0.012981613696088717 -0.010941489278025495 -0.012616617517347176 -0.0097370232152136013 -0.008881109693452946
leaf_count=1686 3452 27249 705 4679 2392 12595 1407 456 236 1878 2366 475
internal_value=0 -1.49111 -1.1146 -1.38681 -1.50948 -1.49734 -1.47316 -1.4919 -1.47268 -1.51659 -1.16931 -1.18444
internal_count=59576 54344 5232 8131 46213 17086 4491 3084 2628 29127 3546 2841
shrinkage=0.0081


Tree=13
num_leaves=13
num_cat=0
split_feature=0 0 0 0 0 0 0 0 0 0 0 0
split_gain=166.461 25.5738 8.08795 3.17218 0.97951 0.874363 0.848506 1.61009 0.945569 0.828697 0.80363 1.08404
threshold=11.420550000000002 13.010550000000002 9.6803500000000025 12.276550000000002 16.096450000000001 16.602350000000005 16.440850000000001 16.385650000000002 16.358150000000006 15.900550000000001 10.147700000000002 11.262300000000002
decision_type=2 2 2 2 2 2 2 2 2 2 2 2
left_child=2 3 -1 -2 9 6 7 8 -6 -3 -4 -12
right_child=1 4 10 -5 5 -7 -8 -9 -10 -11 11 -13
leaf_value=-0.0080350459869278391 -0.010777927022113326 -0.012174189339560005 -0.0089099473729810311 -0.01142716623929256 -0.011940290064362582 -0.01211135917691791 -0.011516462656333581 -0.012889785923491203 -0.010862022034381021 -0.012527273879634197 -0.0096641819161128982 -0.0088142451454369282
leaf_count=1686 3452 27249 705 4679 2392 12595 1407 456 236 1878 2366 475
internal_value=0 -1.48045 -1.10617 -1.37672 -1.49872 -1.48666 -1.46262 -1.48125 -1.46215 -1.5058 -1.16053 -1.17557
internal_count=59576 54344 5232 8131 46213 17086 4491 3084 2628 29127 3546 2841
shrinkage=0.0081


Tree=14
num_leaves=13
num_cat=0
split_feature=0 0 0 0 0 0 0 0 0 0 0 0
split_gain=164.445 25.2834 7.97984 3.13393 0.968547 1.54157 0.794089 1.06855 0.988898 0.775785 0.886532 0.799709
threshold=11.420550000000002 13.010550000000002 9.6803500000000025 12.276550000000002 16.021250000000006 15.900550000000001 10.147700000000002 11.262300000000002 10.008300000000002 12.321950000000003 12.407050000000002 12.364650000000001
decision_type=2 2 2 2 2 2 2 2 2 2 2 2
left_child=2 3 -1 -2 5 -3 8 -8 -4 -5 11 -11
right_child=1 4 6 9 -6 -7 7 -9 -10 10 -12 -13
leaf_value=-0.0079736102761332334 -0.010699519239550068 -0.012088300587048616 -0.0092959001204390712 -0.01228748211110158 -0.011959922394565716 -0.012696552566687684 -0.0095922904888108493 -0.008748185885849467 -0.0080274583627542879 -0.011303796174063345 -0.01138163223257372 -0.010025087013414379
leaf_count=1686 3452 27249 453 220 17815 1149 2366 475 252 259 3942 258
internal_value=0 -1.46996 -1.09784 -1.36678 -1.48814 -1.49542 -1.15186 -1.16681 -1.09167 -1.40063 -1.39489 -1.31675
internal_count=59576 54344 5232 8131 46213 28398 3546 2841 705 4679 4459 517
shrinkage=0.0081


Tree=15
num_leaves=13
num_cat=0
split_feature=0 0 0 0 0 0 0 0 0 0 0 0
split_gain=167.789 18.8349 15.0941 4.75732 3.31884 2.2136 2.1257 1.67309 1.61814 1.58126 1.12778 0.797412
threshold=11.623150000000003 13.166450000000001 10.665750000000001 9.2669500000000031 17.281550000000006 9.1168500000000012 12.489650000000001 9.1685500000000015 16.773750000000003 12.449600000000002 12.527300000000002 13.364250000000002
decision_type=2 2 2 2 2 2 2 2 2 2 2 2
left_child=2 6 3 5 8 -1 9 -7 11 -2 -8 -3
right_child=1 4 -4 -5 -6 7 10 -9 -10 -11 -12 -13
leaf_value=-0.0086399165000512722 -0.010968776995530387 -0.012337346719873275 -0.0098976821770408469 -0.0086294344073324231 -0.012296267266453708 -0.0056804159416420493 -0.012525551474107312 -0.007372249633840945 -0.011594336268282122 -0.0096639948407132737 -0.011337642301248145 -0.011942002219742301
leaf_count=227 3732 1410 2640 2413 7623 235 222 447 3573 263 4433 32358
internal_value=0 -1.46333 -1.10866 -1.01879 -1.47986 -0.895239 -1.37753 -0.838184 -1.47206 -1.34357 -1.40671 -1.47636
internal_count=59576 53614 5962 3322 44964 909 8650 682 37341 3995 4655 33768
shrinkage=0.0081


Tree=16
num_leaves=13
num_cat=0
split_feature=0 0 0 0 0 0 0 0 0 0 0 0
split_gain=165.842 18.6326 14.8989 4.69026 3.27664 2.1812 2.10224 1.64827 1.59802 1.55962 1.11281 0.787329
threshold=11.623150000000003 13.166450000000001 10.665750000000001 9.2669500000000031 17.281550000000006 9.1168500000000012 12.489650000000001 9.1685500000000015 16.773750000000003 12.449600000000002 12.527300000000002 13.364250000000002
decision_type=2 2 2 2 2 2 2 2 2 2 2 2
left_child=2 6 3 5 8 -1 9 -7 11 -2 -8 -3
right_child=1 4 -4 -5 -6 7 10 -9 -10 -11 -12 -13
leaf_value=-0.0085748182032627622 -0.010890596668209396 -0.012252278946551851 -0.0098254025792356182 -0.0085647243430422848 -0.01221141626207408 -0.0056364926693386113 -0.012438457179690542 -0.007316073768788775 -0.011513508579454686 -0.0095941991366850984 -0.011257784624526555 -0.011859204464045358
leaf_count=227 3732 1410 2640 2413 7623 235 222 447 3573 263 4433 32358
internal_value=0 -1.45316 -1.10042 -1.01112 -1.4696 -0.88841 -1.36778 -0.831764 -1.46185 -1.33399 -1.3968 -1.46613
internal_count=59576 53614 5962 3322 44964 909 8650 682 37341 3995 4655 33768
shrinkage=0.0081


Tree=17
num_leaves=13
num_cat=0
split_feature=0 0 0 0 0 0 0 0 0 0 0 0
split_gain=163.956 18.4377 14.7087 4.62477 3.23607 2.14955 2.07958 1.62398 1.57864 1.53866 1.09838 0.777641
threshold=11.623150000000003 13.166450000000001 10.665750000000001 9.2669500000000031 17.281550000000006 9.1168500000000012 12.489650000000001 9.1685500000000015 16.773750000000003 12.449600000000002 12.527300000000002 13.364250000000002
decision_type=2 2 2 2 2 2 2 2 2 2 2 2
left_child=2 6 3 5 8 -1 9 -7 11 -2 -8 -3
right_child=1 4 -4 -5 -6 7 10 -9 -10 -11 -12 -13
leaf_value=-0.0085104876393128168 -0.010813539687398521 -0.012168607595822986 -0.0097540648555881921 -0.0085007732518427147 -0.012127951299781886 -0.0055929808659931791 -0.012352823615497735 -0.0072604948173831656 -0.011433910122074504 -0.0095252845726833558 -0.011179113220040478 -0.011777710329100365
leaf_count=227 3732 1410 2640 2413 7623 235 222 447 3573 263 4433 32358
internal_value=0 -1.44314 -1.09228 -1.00353 -1.45951 -0.881654 -1.35816 -0.82541 -1.4518 -1.32454 -1.38705 -1.45605
internal_count=59576 53614 5962 3322 44964 909 8650 682 37341 3995 4655 33768
shrinkage=0.0081


Tree=18
num_leaves=13
num_cat=0
split_feature=0 0 0 0 0 0 0 0 0 0 0 0
split_gain=162.13 18.2499 14.5234 4.5608 3.19704 2.11863 2.05769 1.6002 1.55999 1.51836 1.0845 0.768319
threshold=11.623150000000003 13.166450000000001 10.665750000000001 9.2669500000000031 17.281550000000006 9.1168500000000012 12.489650000000001 9.1685500000000015 16.773750000000003 12.449600000000002 12.527300000000002 13.364250000000002
decision_type=2 2 2 2 2 2 2 2 2 2 2 2
left_child=2 6 3 5 8 -1 9 -7 11 -2 -8 -3
right_child=1 4 -4 -5 -6 7 10 -9 -10 -11 -12 -13
leaf_value=-0.0084469082529500354 -0.01073757564767092 -0.0120862924410892 -0.0096836459105195984 -0.0084375650295920243 -0.01204583387779321 -0.0055498770892921413 -0.012268609946521482 -0.007205499862329435 -0.011355506792657699 -0.0094572308877828113 -0.011101595568489471 -0.011697485041329912
leaf_count=227 3732 1410 2640 2413 7623 235 222 447 3573 263 4433 32358
internal_value=0 -1.43327 -1.08424 -0.996026 -1.44957 -0.874969 -1.34869 -0.819121 -1.44191 -1.31522 -1.37744 -1.44614
internal_count=59576 53614 5962 3322 44964 909 8650 682 37341 3995 4655 33768
shrinkage=0.0081


Tree=19
num_leaves=13
num_cat=0
split_feature=0 0 0 0 0 0 0 0 0 0 0 0
split_gain=160.361 18.0689 14.3427 4.49829 3.1595 2.08841 2.03654 1.57691 1.54201 1.49867 1.07111 0.759351
threshold=11.623150000000003 13.166450000000001 10.665750000000001 9.2669500000000031 17.281550000000006 9.1168500000000012 12.489650000000001 9.1685500000000015 16.773750000000003 12.449600000000002 12.527300000000002 13.364250000000002
decision_type=2 2 2 2 2 2 2 2 2 2 2 2
left_child=2 6 3 5 8 -1 9 -7 11 -2 -8 -3
right_child=1 4 -4 -5 -6 7 10 -9 -10 -11 -12 -13
leaf_value=-0.0083840638875360921 -0.010662676645849476 -0.012005296585839997 -0.0096141245802867526 -0.0083750836264904829 -0.011965028144077537 -0.0055071728685628183 -0.012185775673567115 -0.0071510793203078196 -0.011278268035795276 -0.0093900173675112598 -0.011025203069606186 -0.011618494111305352
leaf_count=227 3732 1410 2640 2413 7623 235 222 447 3573 263 4433 32358
internal_value=0 -1.42356 -1.07629 -0.988607 -1.43979 -0.868353 -1.33935 -0.812894 -1.43216 -1.30604 -1.36797 -1.43638
internal_count=59576 53614 5962 3322 44964 909 8650 682 37341 3995 4655 33768
shrinkage=0.0081


Tree=20
num_leaves=13
num_cat=0
split_feature=0 0 0 0 0 0 0 0 0 0 0 0
split_gain=137.061 23.7715 13.6181 5.32427 1.84456 1.69249 1.13064 0.964194 0.832777 0.758791 1.52535 1.26472
threshold=12.036550000000002 9.6803500000000025 13.010550000000002 10.883000000000001 10.987150000000002 11.341650000000001 11.98305 9.3529500000000017 12.676850000000002 16.276950000000003 16.197150000000004 18.714100000000006
decision_type=2 2 2 2 2 2 2 2 2 2 2 2
left_child=1 7 8 -3 -5 -6 -7 -1 -2 10 -4 -11
right_child=2 3 9 4 5 6 -8 -9 -10 11 -12 -13
leaf_value=-0.0076305018614724156 -0.01088561389259542 -0.008939083856359659 -0.011587911639588477 -0.01135947358196498 -0.0092932299597803698 -0.010194134626516775 -0.0089967645606840192 -0.0067478204769847363 -0.010490687784889966 -0.011411742420243622 -0.012356178892405367 -0.011878638304260914
leaf_count=1197 3548 2088 30087 235 979 2364 230 450 2369 13578 705 1746
internal_value=0 -1.12533 -1.41532 -1.18508 -1.22988 -1.21852 -1.24544 -0.912275 -1.32439 -1.42701 -1.43278 -1.41542
internal_count=59576 7543 52033 5896 3808 3573 2594 1647 5917 46116 30792 15324
shrinkage=0.0081


Tree=21
num_leaves=13
num_cat=0
split_feature=0 0 0 0 0 0 0 0 0 0 0 0
split_gain=135.658 23.4804 13.4892 5.2662 1.81952 1.67383 1.11557 0.950045 0.821311 0.750598 1.50763 1.25178
threshold=12.036550000000002 9.6803500000000025 13.010550000000002 10.883000000000001 10.987150000000002 11.341650000000001 11.98305 9.3529500000000017 12.676850000000002 16.276950000000003 16.197150000000004 18.714100000000006
decision_type=2 2 2 2 2 2 2 2 2 2 2 2
left_child=1 7 8 -3 -5 -6 -7 -1 -2 10 -4 -11
right_child=2 3 9 4 5 6 -8 -9 -10 11 -12 -13
leaf_value=-0.0075734999682671219 -0.010811315336843796 -0.0088743282034607924 -0.011511068213478236 -0.011280915035905831 -0.0092268683965935211 -0.010123132088635764 -0.0089331473928640371 -0.0066970584795154556 -0.010418869093014364 -0.011335704117112677 -0.012275458806658786 -0.011800559471940196
leaf_count=1197 3548 2088 30087 235 979 2364 230 450 2369 13578 705 1746
internal_value=0 -1.11725 -1.40589 -1.17667 -1.22125 -1.20996 -1.23675 -0.905447 -1.31534 -1.41754 -1.42328 -1.406
internal_count=59576 7543 52033 5896 3808 3573 2594 1647 5917 46116 30792 15324
shrinkage=0.0081


Tree=22
num_leaves=13
num_cat=0
split_feature=0 0 0 0 0 0 0 0 0 0 0 0
split_gain=134.299 23.1963 13.3649 5.20971 1.79527 1.65568 1.10094 0.936214 0.810224 0.742709 1.49058 1.23933
threshold=12.036550000000002 9.6803500000000025 13.010550000000002 10.883000000000001 10.987150000000002 11.341650000000001 11.98305 9.3529500000000017 12.676850000000002 16.276950000000003 16.197150000000004 18.714100000000006
decision_type=2 2 2 2 2 2 2 2 2 2 2 2
left_child=1 7 8 -3 -5 -6 -7 -1 -2 10 -4 -11
right_child=2 3 9 4 5 6 -8 -9 -10 11 -12 -13
leaf_value=-0.0075171034087598071 -0.010738052935266787 -0.0088103325950126595 -0.011435372768986018 -0.011203517396959444 -0.0091613056116091954 -0.010053056433262902 -0.0088702663819380159 -0.006646798171579784 -0.010348008402575931 -0.011260780432652211 -0.012196049906102024 -0.011723683362068501
leaf_count=1197 3548 2088 30087 235 979 2364 230 450 2369 13578 705 1746
internal_value=0 -1.10927 -1.39661 -1.16836 -1.21274 -1.20152 -1.22818 -0.89869 -1.30641 -1.40821 -1.41392 -1.39673
internal_count=59576 7543 52033 5896 3808 3573 2594 1647 5917 46116 30792 15324
shrinkage=0.0081


Tree=23
num_leaves=13
num_cat=0
split_feature=0 0 0 0 0 0 0 0 0 0 0 0
split_gain=132.982 22.9191 13.245 5.15471 1.77178 1.63803 1.08672 0.922691 0.799488 0.735105 1.47418 1.22734
threshold=12.036550000000002 9.6803500000000025 13.010550000000002 10.883000000000001 10.987150000000002 11.341650000000001 11.98305 9.3529500000000017 12.676850000000002 16.276950000000003 16.197150000000004 18.714100000000006
decision_type=2 2 2 2 2 2 2 2 2 2 2 2
left_child=1 7 8 -3 -5 -6 -7 -1 -2 10 -4 -11
right_child=2 3 9 4 5 6 -8 -9 -10 11 -12 -13
leaf_value=-0.0074613014754882955 -0.010665800183687017 -0.008747080453856174 -0.011360794675226406 -0.011127249080792372 -0.0090965241182634077 -0.0099838842859342122 -0.0088081060041700771 -0.0065970315519190501 -0.010278085002790264 -0.011186942484262793 -0.012117917515904129 -0.011647978271889648
leaf_count=1197 3548 2088 30087 235 979 2364 230 450 2369 13578 705 1746
internal_value=0 -1.10138 -1.38746 -1.16016 -1.20433 -1.19318 -1.21971 -0.892003 -1.29761 -1.39902 -1.40471 -1.38758
internal_count=59576 7543 52033 5896 3808 3573 2594 1647 5917 46116 30792 15324
shrinkage=0.0081


Tree=24
num_leaves=13
num_cat=0
split_feature=0 0 0 0 0 0 0 0 0 0 0 0
split_gain=131.704 22.6484 13.1292 5.10115 1.74902 1.62087 1.0729 0.909466 0.789102 0.727773 1.4584 1.21579
threshold=12.036550000000002 9.6803500000000025 13.010550000000002 10.883000000000001 10.987150000000002 11.341650000000001 11.98305 9.3529500000000017 12.676850000000002 16.276950000000003 16.197150000000004 18.714100000000006
decision_type=2 2 2 2 2 2 2 2 2 2 2 2
left_child=1 7 8 -3 -5 -6 -7 -1 -2 10 -4 -11
right_child=2 3 9 4 5 6 -8 -9 -10 11 -12 -13
leaf_value=-0.007406082153382636 -0.010594532093967551 -0.008684555540738631 -0.011287304782370078 -0.011052082562415513 -0.009032505796181681 -0.0099155947810334287 -0.0087466503576696056 -0.0065477488413522638 -0.010209073166366191 -0.011114162341843122 -0.012041026308523202 -0.011573412342222518
leaf_count=1197 3548 2088 30087 235 979 2364 230 450 2369 13578 705 1746
internal_value=0 -1.09358 -1.37844 -1.15206 -1.19603 -1.18494 -1.21135 -0.885385 -1.28892 -1.38996 -1.39562 -1.37857
internal_count=59576 7543 52033 5896 3808 3573 2594 1647 5917 46116 30792 15324
shrinkage=0.0081


Tree=25
num_leaves=13
num_cat=0
split_feature=0 0 0 0 0 0 0 0 0 0 0 0
split_gain=131.254 24.3056 10.8794 3.94137 3.04354 1.66071 1.56189 1.50706 1.45673 1.90842 1.57221 1.36186
threshold=11.623150000000003 12.847500000000002 9.8533500000000007 11.174900000000003 11.262300000000002 11.691850000000002 11.930550000000002 11.341650000000001 12.641150000000001 12.321950000000003 12.676850000000002 13.629650000000002
decision_type=2 2 2 2 2 2 2 2 2 2 2 2
left_child=2 5 -1 -4 -5 -2 -7 -6 9 -8 -10 -3
right_child=1 11 3 4 7 6 8 -9 10 -11 -12 -13
leaf_value=-0.0074620690419651345 -0.011442306032233283 -0.010964462076251062 -0.0085937738772030731 -0.011389504125231213 -0.0082355639961674883 -0.0094659108935844019 -0.0099831866853371531 -0.00964224130905454 -0.0084626323551459364 -0.010719264980873682 -0.0099683835880476999 -0.011230230728517447
leaf_count=1851 245 5916 2575 229 260 966 1891 926 220 1881 1194 41422
internal_value=0 -1.3665 -1.04853 -1.10786 -1.19339 -1.24966 -1.24316 -1.15227 -1.25706 -1.27778 -1.20174 -1.38235
internal_count=59576 53735 5841 3990 1415 6397 6152 1186 5186 3772 1414 47338
shrinkage=0.0081


Tree=26
num_leaves=13
num_cat=0
split_feature=0 0 0 0 0 0 0 0 0 0 0 0
split_gain=130.03 24.0916 10.7556 3.89646 3.00522 1.63991 1.54507 1.4893 1.43857 1.88814 1.55322 1.35002
threshold=11.623150000000003 12.847500000000002 9.8533500000000007 11.174900000000003 11.262300000000002 11.691850000000002 11.930550000000002 11.341650000000001 12.641150000000001 12.321950000000003 12.676850000000002 13.629650000000002
decision_type=2 2 2 2 2 2 2 2 2 2 2 2
left_child=2 5 -1 -4 -5 -2 -7 -6 9 -8 -10 -3
right_child=1 11 3 4 7 6 8 -9 10 -11 -12 -13
leaf_value=-0.0074073365414179153 -0.011367627054343347 -0.010893911491072598 -0.0085330762367463227 -0.011313697770863967 -0.0081772593485798829 -0.0094016566182575836 -0.0099163312639353948 -0.0095763776571149307 -0.0084044259133208548 -0.010649029711795571 -0.009902001124067656 -0.011158744239532607
leaf_count=1851 245 5916 2575 229 260 966 1891 926 220 1881 1194 41422
internal_value=0 -1.35774 -1.04109 -1.10012 -1.18521 -1.24134 -1.23487 -1.14434 -1.24871 -1.26932 -1.1937 -1.37353
internal_count=59576 53735 5841 3990 1415 6397 6152 1186 5186 3772 1414 47338
shrinkage=0.0081


Tree=27
num_leaves=13
num_cat=0
split_feature=0 0 0 0 0 0 0 0 0 0 0 0
split_gain=128.842 23.8848 10.6346 3.85272 2.96806 1.61977 1.52874 1.47199 1.42096 1.86848 1.53474 1.3386
threshold=11.623150000000003 12.847500000000002 9.8533500000000007 11.174900000000003 11.262300000000002 11.691850000000002 11.930550000000002 11.341650000000001 12.641150000000001 12.321950000000003 12.676850000000002 13.629650000000002
decision_type=2 2 2 2 2 2 2 2 2 2 2 2
left_child=2 5 -1 -4 -5 -2 -7 -6 9 -8 -10 -3
right_child=1 11 3 4 7 6 8 -9 10 -11 -12 -13
leaf_value=-0.0073531652031175237 -0.011294039623305678 -0.010824329617080509 -0.0084730510184478688 -0.011238998266661112 -0.0081195774604430754 -0.0093381620288057222 -0.0098503080550507681 -0.0095113126391220895 -0.0083468393151649792 -0.010579737540170539 -0.0098364400866199075 -0.011088267458899945
leaf_count=1851 245 5916 2575 229 260 966 1891 926 220 1881 1194 41422
internal_value=0 -1.34911 -1.03373 -1.09247 -1.17714 -1.23312 -1.22669 -1.1365 -1.24046 -1.26096 -1.18575 -1.36485
internal_count=59576 53735 5841 3990 1415 6397 6152 1186 5186 3772 1414 47338
shrinkage=0.0081


Tree=28
num_leaves=13
num_cat=0
split_feature=0 0 0 0 0 0 0 0 0 0 0 0
split_gain=127.688 23.6847 10.5163 3.81011 2.93202 1.60027 1.51287 1.45512 1.40386 1.84942 1.51676 1.32758
threshold=11.623150000000003 12.847500000000002 9.8533500000000007 11.174900000000003 11.262300000000002 11.691850000000002 11.930550000000002 11.341650000000001 12.641150000000001 12.321950000000003 12.676850000000002 13.629650000000002
decision_type=2 2 2 2 2 2 2 2 2 2 2 2
left_child=2 5 -1 -4 -5 -2 -7 -6 9 -8 -10 -3
right_child=1 11 3 4 7 6 8 -9 10 -11 -12 -13
leaf_value=-0.0072995441165164361 -0.011221514956872123 -0.010755691809854638 -0.0084136835665008392 -0.011165378665266715 -0.0080625055804884396 -0.0092754100444236189 -0.0097850975923808887 -0.0094470272855149678 -0.0082898595643190361 -0.010511365465667898 -0.0097716827861772659 -0.011018774796705854
leaf_count=1851 245 5916 2575 229 260 966 1891 926 220 1881 1194 41422
internal_value=0 -1.34059 -1.02645 -1.0849 -1.16917 -1.225 -1.21861 -1.12875 -1.23232 -1.25272 -1.1779 -1.35628
internal_count=59576 53735 5841 3990 1415 6397 6152 1186 5186 3772 1414 47338
shrinkage=0.0081


Tree=29
num_leaves=13
num_cat=0
split_feature=0 0 0 0 0 0 0 0 0 0 0 0
split_gain=126.576 24.4127 9.01181 4.66095 2.79314 1.49925 1.31696 2.06247 0.997105 1.27808 1.14471 2.06164
threshold=12.321950000000003 11.083600000000002 12.847500000000002 9.6803500000000025 12.641150000000001 12.676850000000002 13.629650000000002 13.682350000000001 20.166100000000004 18.821800000000003 16.096450000000001 15.296050000000001
decision_type=2 2 2 2 2 2 2 2 2 2 2 2
left_child=1 3 4 -1 -2 -6 -4 -8 9 10 11 -9
right_child=2 -3 6 -5 5 -7 7 8 -10 -11 -12 -13
leaf_value=-0.0071527320790613098 -0.010443890576488809 -0.0095523097669872343 -0.01068797467215785 -0.0082711941284287424 -0.0082334754186794666 -0.0097077089275021088 -0.011981951861546552 -0.010890050938385651 -0.0098588923148983879 -0.01143860291554586 -0.010815696697870858 -0.011214946980396446
leaf_count=1614 1881 4750 5916 2579 220 1194 518 15984 231 1364 15426 7899
internal_value=0 -1.07975 -1.34067 -0.967819 -1.23819 -1.17014 -1.34783 -1.35188 -1.35027 -1.35102 -1.34891 -1.35771
internal_count=59576 8943 50633 4193 3295 1414 47338 41422 40904 40673 39309 23883
shrinkage=0.0081


Tree=30
num_leaves=13
num_cat=0
split_feature=0 0 0 0 0 0 0 0 0 0 0 0
split_gain=164.558 18.9542 17.4198 2.02195 1.49641 1.81331 1.65687 1.36001 1.2213 1.83902 2.60077 1.32906
threshold=12.134250000000002 13.041000000000002 10.987150000000002 10.546350000000002 16.021250000000006 14.599250000000001 14.689950000000001 10.883000000000001 18.821800000000003 18.141850000000002 18.282100000000003 18.522550000000006
decision_type=2 2 2 2 2 2 2 2 2 2 2 2
left_child=2 -2 3 -1 5 -3 -7 -5 9 -6 -11 -12
right_child=1 4 -4 7 8 6 -8 -9 -10 10 11 -13
leaf_value=-0.0072322106876953462 -0.0098247391549696941 -0.010778923117833223 -0.0089670998286956894 -0.0084421026390771783 -0.0107441766758847 -0.011696124695415901 -0.010996288864515699 -0.0069817734571108857 -0.011150279983126529 -0.0091229756074568541 -0.011051204522267963 -0.010048907146891758
leaf_count=3016 5545 13529 4027 725 14261 983 13717 224 1653 461 709 726
internal_value=0 -1.32496 -1.01308 -0.918351 -1.3385 -1.34771 -1.36335 -0.999761 -1.32392 -1.31853 -1.25906 -1.30175
internal_count=59576 51584 7992 3965 46039 28229 14700 949 17810 16157 1896 1435
shrinkage=0.0081


Tree=31
num_leaves=13
num_cat=0
split_feature=0 0 0 0 0 0 0 0 0 0 0 0
split_gain=163.108 18.7998 17.2399 2.00058 1.482 1.79682 1.63988 1.34184 1.21112 1.81973 2.57362 1.31515
threshold=12.134250000000002 13.041000000000002 10.987150000000002 10.546350000000002 16.021250000000006 14.599250000000001 14.689950000000001 10.883000000000001 18.821800000000003 18.141850000000002 18.282100000000003 18.522550000000006
decision_type=2 2 2 2 2 2 2 2 2 2 2 2
left_child=2 -2 3 -1 5 -3 -7 -5 9 -6 -11 -12
right_child=1 4 -4 7 8 6 -8 -9 -10 10 11 -13
leaf_value=-0.0071802298268154501 -0.0097614984006411682 -0.010712604041691545 -0.0089070960468699435 -0.0083839371335554958 -0.010677975059822913 -0.0116261985746917 -0.010929222996185971 -0.0069325986286421703 -0.011082865936733419 -0.0090639305891227241 -0.010983792559863691 -0.009985798332221265
leaf_count=3016 5545 13529 4027 725 14261 983 13717 224 1653 461 709 726
internal_value=0 -1.31678 -1.00608 -0.911808 -1.33029 -1.33946 -1.35504 -0.992837 -1.31576 -1.3104 -1.25118 -1.29369
internal_count=59576 51584 7992 3965 46039 28229 14700 949 17810 16157 1896 1435
shrinkage=0.0081


Tree=32
num_leaves=13
num_cat=0
split_feature=0 0 0 0 0 0 0 0 0 0 0 0
split_gain=161.698 18.6504 17.0638 1.97963 1.46809 1.7809 1.6235 1.32409 1.20129 1.80104 2.54726 1.30168
threshold=12.134250000000002 13.041000000000002 10.987150000000002 10.546350000000002 16.021250000000006 14.599250000000001 14.689950000000001 10.883000000000001 18.821800000000003 18.141850000000002 18.282100000000003 18.522550000000006
decision_type=2 2 2 2 2 2 2 2 2 2 2 2
left_child=2 -2 3 -1 5 -3 -7 -5 9 -6 -11 -12
right_child=1 4 -4 7 8 6 -8 -9 -10 10 11 -13
leaf_value=-0.0071287577382955465 -0.0096990113030942498 -0.010647158919708076 -0.0088477541210158009 -0.0083263911449667771 -0.010612642086065931 -0.011557303229302705 -0.010863064180510857 -0.0068838805576984423 -0.011016378643326063 -0.0090055312912079941 -0.010917298033738258 -0.0099234528788417434
leaf_count=3016 5545 13529 4027 725 14261 983 13717 224 1653 461 709 726
internal_value=0 -1.30872 -0.999156 -0.905329 -1.32219 -1.33132 -1.34685 -0.985984 -1.30771 -1.30236 -1.2434 -1.28573
internal_count=59576 51584 7992 3965 46039 28229 14700 949 17810 16157 1896 1435
shrinkage=0.0081


Tree=33
num_leaves=13
num_cat=0
split_feature=0 0 0 0 0 0 0 0 0 0 0 0
split_gain=160.326 18.5058 16.8914 1.95908 1.45463 1.76554 1.6077 1.30674 1.1918 1.78293 2.52167 1.28865
threshold=12.134250000000002 13.041000000000002 10.987150000000002 10.546350000000002 16.021250000000006 14.599250000000001 14.689950000000001 10.883000000000001 18.821800000000003 18.141850000000002 18.282100000000003 18.522550000000006
decision_type=2 2 2 2 2 2 2 2 2 2 2 2
left_child=2 -2 3 -1 5 -3 -7 -5 9 -6 -11 -12
right_child=1 4 -4 7 8 6 -8 -9 -10 10 11 -13
leaf_value=-0.0070777851139674228 -0.0096372612840083822 -0.010582566238648082 -0.00878906050184859 -0.0082694523897957929 -0.01054815702076955 -0.011489411529886299 -0.010797789250432153 -0.0068356120024056577 -0.010950796029292208 -0.0089477647745870564 -0.010851698474816079 -0.0098618528607726866
leaf_count=3016 5545 13529 4027 725 14261 983 13717 224 1653 461 709 726
internal_value=0 -1.30076 -0.992303 -0.898914 -1.31419 -1.32329 -1.33877 -0.979201 -1.29976 -1.29443 -1.23571 -1.27788
internal_count=59576 51584 7992 3965 46039 28229 14700 949 17810 16157 1896 1435
shrinkage=0.0081


Tree=34
num_leaves=13
num_cat=0
split_feature=0 0 0 0 0 0 0 0 0 0 0 0
split_gain=158.99 18.3657 16.7225 1.93892 1.44161 1.75072 1.59248 1.28977 1.18263 1.76537 2.4968 1.27602
threshold=12.134250000000002 13.041000000000002 10.987150000000002 10.546350000000002 16.021250000000006 14.599250000000001 14.689950000000001 10.883000000000001 18.821800000000003 18.141850000000002 18.282100000000003 18.522550000000006
decision_type=2 2 2 2 2 2 2 2 2 2 2 2
left_child=2 -2 3 -1 5 -3 -7 -5 9 -6 -11 -12
right_child=1 4 -4 7 8 6 -8 -9 -10 10 11 -13
leaf_value=-0.0070273027173149262 -0.0095762308769145391 -0.010518805224753262 -0.0087309998966899911 -0.0082131068725107594 -0.010484499224961983 -0.011422498756582005 -0.010733376571956516 -0.006787786671652583 -0.010886094348226556 -0.0088906180816539209 -0.010786972014379009 -0.0098009815469886699
leaf_count=3016 5545 13529 4027 725 14261 983 13717 224 1653 461 709 726
internal_value=0 -1.2929 -0.98552 -0.892562 -1.30629 -1.31537 -1.3308 -0.972487 -1.29192 -1.2866 -1.22811 -1.27012
internal_count=59576 51584 7992 3965 46039 28229 14700 949 17810 16157 1896 1435
shrinkage=0.0081


Tree=35
num_leaves=13
num_cat=0
split_feature=0 0 0 0 0 0 0 0 0 0 0 0
split_gain=121.461 22.7546 6.30016 3.42952 3.23573 1.89241 2.82671 1.78622 1.41253 2.73085 1.58034 2.54316
threshold=12.230250000000002 10.147700000000002 13.166450000000001 11.083600000000002 9.5106500000000018 9.1168500000000012 9.1685500000000015 9.8533500000000007 13.815950000000001 14.103950000000003 13.761850000000001 13.736350000000002
decision_type=2 2 2 2 2 2 2 2 2 2 2 2
left_child=1 4 -2 -3 5 -1 -7 -6 10 -10 11 -4
right_child=2 3 8 -5 7 6 -8 -9 9 -11 -12 -13
leaf_value=-0.0078478641048213005 -0.0099764676837264862 -0.0083049066421385861 -0.010791142049740757 -0.0091409713111750713 -0.0084513462742642955 -0.0045815588398302421 -0.0066120492744009144 -0.0070251651614032136 -0.0099783474174018234 -0.010542982368131192 -0.011698712074270772 -0.0089996374560544594
leaf_count=228 6126 1929 4513 4225 461 227 948 481 2504 37223 483 228
internal_value=0 -1.0309 -1.29297 -1.09602 -0.861864 -0.800474 -0.767838 -0.953545 -1.30136 -1.29721 -1.33295 -1.3216
internal_count=59576 8499 51077 6154 2345 1403 1175 942 44951 39727 5224 4741
shrinkage=0.0081


Tree=36
num_leaves=13
num_cat=0
split_feature=0 0 0 0 0 0 0 0 0 0 0 0
split_gain=120.558 22.5269 6.266 3.40108 3.19553 1.86773 2.78803 1.76261 1.39847 2.70478 1.56578 2.51811
threshold=12.230250000000002 10.147700000000002 13.166450000000001 11.083600000000002 9.5106500000000018 9.1168500000000012 9.1685500000000015 9.8533500000000007 13.815950000000001 14.103950000000003 13.761850000000001 13.736350000000002
decision_type=2 2 2 2 2 2 2 2 2 2 2 2
left_child=1 4 -2 -3 5 -1 -7 -6 10 -10 11 -4
right_child=2 3 8 -5 7 6 -8 -9 9 -11 -12 -13
leaf_value=-0.0077929422147223716 -0.0099150391659660608 -0.0082488076920343052 -0.010727763799847228 -0.0090820012616854191 -0.0083931252840532787 -0.0045472285433135612 -0.0065644505570729168 -0.0069755997018963681 -0.0099180645111142905 -0.010480580943843127 -0.01163224869949946 -0.0089434296516998565
leaf_count=228 6126 1929 4513 4225 461 227 948 481 2504 37223 483 228
internal_value=0 -1.02399 -1.28528 -1.08884 -0.85573 -0.794699 -0.762266 -0.946896 -1.29366 -1.28952 -1.32512 -1.31382
internal_count=59576 8499 51077 6154 2345 1403 1175 942 44951 39727 5224 4741
shrinkage=0.0081


Tree=37
num_leaves=13
num_cat=0
split_feature=0 0 0 0 0 0 0 0 0 0 0 0
split_gain=119.679 22.3037 6.23303 3.37328 3.15611 1.84353 2.75006 1.73952 1.38487 2.67953 1.55174 2.49381
threshold=12.230250000000002 10.147700000000002 13.166450000000001 11.083600000000002 9.5106500000000018 9.1168500000000012 9.1685500000000015 9.8533500000000007 13.815950000000001 14.103950000000003 13.761850000000001 13.736350000000002
decision_type=2 2 2 2 2 2 2 2 2 2 2 2
left_child=1 4 -2 -3 5 -1 -7 -6 10 -10 11 -4
right_child=2 3 8 -5 7 6 -8 -9 9 -11 -12 -13
leaf_value=-0.0077385762658499155 -0.0098543388777484406 -0.008193285203275294 -0.010665207858825602 -0.0090236775998217209 -0.008335524519859229 -0.0045131796401842259 -0.0065172911284268878 -0.0069264990123163988 -0.0098584897388995073 -0.010418964579391564 -0.011566757799504439 -0.0088878113290795351
leaf_count=228 6126 1929 4513 4225 461 227 948 481 2504 37223 483 228
internal_value=0 -1.01714 -1.27768 -1.08174 -0.849653 -0.788978 -0.756746 -0.940312 -1.28605 -1.28193 -1.31739 -1.30613
internal_count=59576 8499 51077 6154 2345 1403 1175 942 44951 39727 5224 4741
shrinkage=0.0081


Tree=38
num_leaves=13
num_cat=0
split_feature=0 0 0 0 0 0 0 0 0 0 0 0
split_gain=118.823 22.085 6.20118 3.34608 3.11746 1.81981 2.71276 1.71695 1.37173 2.65507 1.53821 2.47023
threshold=12.230250000000002 10.147700000000002 13.166450000000001 11.083600000000002 9.5106500000000018 9.1168500000000012 9.1685500000000015 9.8533500000000007 13.815950000000001 14.103950000000003 13.761850000000001 13.736350000000002
decision_type=2 2 2 2 2 2 2 2 2 2 2 2
left_child=1 4 -2 -3 5 -1 -7 -6 10 -10 11 -4
right_child=2 3 8 -5 7 6 -8 -9 9 -11 -12 -13
leaf_value=-0.0076847564736463418 -0.0097943500500374675 -0.0081383289763464831 -0.01060345481842339 -0.0089659854290513701 -0.0082785319750156971 -0.0044794105586759307 -0.0064705625615462505 -0.0068778538676640619 -0.0097996058102448654 -0.010358114069290891 -0.011502212636985244 -0.0088327715525815358
leaf_count=228 6126 1929 4513 4225 461 227 948 481 2504 37223 483 228
internal_value=0 -1.01037 -1.27018 -1.07472 -0.843635 -0.783309 -0.751274 -0.933794 -1.27854 -1.27443 -1.30977 -1.29854
internal_count=59576 8499 51077 6154 2345 1403 1175 942 44951 39727 5224 4741
shrinkage=0.0081


Tree=39
num_leaves=13
num_cat=0
split_feature=0 0 0 0 0 0 0 0 0 0 0 0
split_gain=117.989 21.8704 6.17042 3.31946 3.07955 1.79655 2.67612 1.69488 1.35902 2.63135 1.52516 2.44735
threshold=12.230250000000002 10.147700000000002 13.166450000000001 11.083600000000002 9.5106500000000018 9.1168500000000012 9.1685500000000015 9.8533500000000007 13.815950000000001 14.103950000000003 13.761850000000001 13.736350000000002
decision_type=2 2 2 2 2 2 2 2 2 2 2 2
left_child=1 4 -2 -3 5 -1 -7 -6 10 -10 11 -4
right_child=2 3 8 -5 7 6 -8 -9 9 -11 -12 -13
leaf_value=-0.0076314707140161774 -0.0097350562004498223 -0.0080839266933899184 -0.010542485365620156 -0.0089089116131328278 -0.0082221346575526207 -0.0044459175725324405 -0.0064242588802075739 -0.0068296576043802779 -0.0097413980978567974 -0.010298011265737501 -0.011438590703636748 -0.0087782955053070533
leaf_count=228 6126 1929 4513 4225 461 227 948 481 2504 37223 483 228
internal_value=0 -1.00367 -1.26277 -1.06777 -0.837672 -0.777691 -0.745851 -0.927339 -1.27112 -1.26703 -1.30224 -1.29105
internal_count=59576 8499 51077 6154 2345 1403 1175 942 44951 39727 5224 4741
shrinkage=0.0081


Tree=40
num_leaves=13
num_cat=0
split_feature=0 0 0 0 0 0 0 0 0 0 0 0
split_gain=160.102 19.9146 3.61446 2.81134 1.94655 1.58764 2.23899 1.50611 1.03681 1.32449 0.754878 1.22123
threshold=11.491500000000002 12.878950000000001 9.2669500000000031 18.714100000000006 18.434450000000002 10.778200000000002 9.8533500000000007 10.147700000000002 12.914050000000001 13.041000000000002 15.478050000000001 16.546950000000006
decision_type=2 2 2 2 2 2 2 2 2 2 2 2
left_child=2 -2 -1 4 8 6 -4 -8 -3 -10 -11 -12
right_child=1 3 5 -5 -6 -7 7 -9 9 10 11 -13
leaf_value=-0.0062403034908398002 -0.0092692414561887163 -0.011326381901270239 -0.0077157298533628987 -0.010844238500212263 -0.0093083818086461753 -0.0077035351655559891 -0.0059874034337356018 -0.0070476255768331343 -0.0095628513248062277 -0.01013629820729409 -0.010407098556921521 -0.010150806308543257
leaf_count=978 7166 222 955 1849 696 1903 521 1185 910 22577 10042 10572
internal_value=0 -1.24472 -0.881945 -1.2602 -1.25698 -0.906053 -0.874133 -0.829981 -1.25867 -1.25797 -1.2596 -1.26859
internal_count=59576 54034 5542 46868 45019 4564 2661 1706 44323 44101 43191 20614
shrinkage=0.0081


Tree=41
num_leaves=13
num_cat=0
split_feature=0 0 0 0 0 0 0 0 0 0 0 0
split_gain=158.862 19.804 3.57638 2.78971 1.92883 1.57458 2.20691 1.48844 1.02488 1.31677 0.747561 1.21183
threshold=11.491500000000002 12.878950000000001 9.2669500000000031 18.714100000000006 18.434450000000002 10.778200000000002 9.8533500000000007 10.147700000000002 12.914050000000001 13.041000000000002 15.478050000000001 16.546950000000006
decision_type=2 2 2 2 2 2 2 2 2 2 2 2
left_child=2 -2 -1 4 8 6 -4 -8 -3 -10 -11 -12
right_child=1 3 5 -5 -6 -7 7 -9 9 10 11 -13
leaf_value=-0.0061956835511647133 -0.0092123028616693699 -0.011262678291953489 -0.0076626174864971603 -0.010783993167928756 -0.0092529018438711804 -0.007652452787021936 -0.0059448295981136441 -0.0069993798508441035 -0.0095054726610986108 -0.010077972362240509 -0.010347913958883542 -0.010092305913655278
leaf_count=978 7166 222 955 1849 696 1903 521 1185 910 22577 10042 10572
internal_value=0 -1.2375 -0.875896 -1.25297 -1.24975 -0.899897 -0.868092 -0.824232 -1.25144 -1.25074 -1.25237 -1.26133
internal_count=59576 54034 5542 46868 45019 4564 2661 1706 44323 44101 43191 20614
shrinkage=0.0081


Tree=42
num_leaves=13
num_cat=0
split_feature=0 0 0 0 0 0 0 0 0 0 0 0
split_gain=157.65 19.6967 3.53893 2.7688 1.91162 1.56171 2.17554 1.47108 1.01334 1.3093 0.74047 1.20273
threshold=11.491500000000002 12.878950000000001 9.2669500000000031 18.714100000000006 18.434450000000002 10.778200000000002 9.8533500000000007 10.147700000000002 12.914050000000001 13.041000000000002 15.478050000000001 16.546950000000006
decision_type=2 2 2 2 2 2 2 2 2 2 2 2
left_child=2 -2 -1 4 8 6 -4 -8 -3 -10 -11 -12
right_child=1 3 5 -5 -6 -7 7 -9 9 10 11 -13
leaf_value=-0.0061514567389252504 -0.0091559766798451157 -0.011199855434537827 -0.0076100254603201885 -0.010724522152256562 -0.0091980093723582849 -0.0076018506344308779 -0.0059026186431084078 -0.0069515700654845698 -0.0094487264769251792 -0.010020330349431637 -0.01028944808955122 -0.010034493006795689
leaf_count=978 7166 222 955 1849 696 1903 521 1185 910 22577 10042 10572
internal_value=0 -1.23037 -0.869904 -1.24582 -1.24261 -0.893797 -0.862106 -0.818534 -1.24429 -1.24359 -1.24523 -1.25415
internal_count=59576 54034 5542 46868 45019 4564 2661 1706 44323 44101 43191 20614
shrinkage=0.0081


Tree=43
num_leaves=13
num_cat=0
split_feature=0 0 0 0 0 0 0 0 0 0 0 0
split_gain=156.466 19.5926 3.50212 2.74859 1.89491 1.54902 2.14484 1.45402 1.00218 1.30205 0.740539 0.733597
threshold=11.491500000000002 12.878950000000001 9.2669500000000031 18.714100000000006 18.434450000000002 10.778200000000002 9.8533500000000007 10.147700000000002 12.914050000000001 13.041000000000002 11.420550000000002 15.478050000000001
decision_type=2 2 2 2 2 2 2 2 2 2 2 2
left_child=2 -2 -1 4 8 6 -4 -8 -3 -10 -7 -11
right_child=1 3 5 -5 -6 10 7 -9 9 11 -12 -13
leaf_value=-0.0061076166380568293 -0.0091002493822720121 -0.011137892511175751 -0.0075579446264275813 -0.010665807123411059 -0.0091436915617553703 -0.0074271125067442018 -0.0058607657960235886 -0.0069041894241515106 -0.0093925993842872979 -0.0099633558797387386 -0.0084056580638881516 -0.010101184035638323
leaf_count=978 7166 222 955 1849 696 1660 521 1185 910 22577 243 20614
internal_value=0 -1.22333 -0.863965 -1.23875 -1.23555 -0.887754 -0.856175 -0.812886 -1.23723 -1.23653 -0.932311 -1.23817
internal_count=59576 54034 5542 46868 45019 4564 2661 1706 44323 44101 1903 43191
shrinkage=0.0081


Tree=44
num_leaves=13
num_cat=0
split_feature=0 0 0 0 0 0 0 0 0 0 0 0
split_gain=155.308 19.4916 3.46592 2.72906 1.87868 1.53654 2.11482 1.43725 0.991381 1.29503 0.732827 0.72692
threshold=11.491500000000002 12.878950000000001 9.2669500000000031 18.714100000000006 18.434450000000002 10.778200000000002 9.8533500000000007 10.147700000000002 12.914050000000001 13.041000000000002 11.420550000000002 15.478050000000001
decision_type=2 2 2 2 2 2 2 2 2 2 2 2
left_child=2 -2 -1 4 8 6 -4 -8 -3 -10 -7 -11
right_child=1 3 5 -5 -6 10 7 -9 9 11 -12 -13
leaf_value=-0.0060641581874023714 -0.0090451081443621364 -0.011076768060473318 -0.0075063650161834184 -0.010607830696157809 -0.0090899365798098406 -0.0073780221426377676 -0.0058192649768547856 -0.0068572298249890669 -0.009337077282846766 -0.0099070346202120366 -0.0083522984248874301 -0.010044403756632533
leaf_count=978 7166 222 955 1849 696 1660 521 1185 910 22577 243 20614
internal_value=0 -1.21636 -0.858081 -1.23177 -1.22858 -0.881766 -0.850298 -0.807288 -1.23025 -1.22956 -0.92618 -1.23119
internal_count=59576 54034 5542 46868 45019 4564 2661 1706 44323 44101 1903 43191
shrinkage=0.0081


Tree=45
num_leaves=13
num_cat=0
split_feature=0 0 0 0 0 0 0 0 0 0 0 0
split_gain=117.241 15.6355 13.3008 3.22863 2.12285 1.04322 1.01753 1.19243 0.891138 1.21285 0.726516 2.46018
threshold=12.036550000000002 9.6803500000000025 13.166450000000001 11.083600000000002 9.1168500000000012 11.873450000000002 18.821800000000003 18.522550000000006 11.561950000000001 11.623150000000003 17.569150000000004 17.032100000000003
decision_type=2 2 2 2 2 2 2 2 2 2 2 2
left_child=1 4 -2 -3 -1 8 7 10 -5 -10 11 -4
right_child=2 3 6 5 -6 -7 -8 -9 9 -11 -12 -13
leaf_value=-0.0076179972163516489 -0.0091808355060701025 -0.0075947400018638034 -0.0099787721851947384 -0.0082574120305843011 -0.0059668495179977556 -0.007820180650362548 -0.010375196546054019 -0.0092745886911531506 -0.0099471848397685442 -0.008611785064729198 -0.010182199377469191 -0.0095043398844627952
leaf_count=248 6981 2508 35786 1354 1396 701 1627 724 236 918 3746 3351
internal_value=0 -0.941439 -1.21704 -0.992282 -0.767354 -1.03548 -1.23005 -1.22816 -1.05499 -1.09695 -1.22956 -1.22693
internal_count=59576 7361 52215 5717 1644 3209 45234 43607 2508 1154 42883 39137
shrinkage=0.0081


Tree=46
num_leaves=13
num_cat=0
split_feature=0 0 0 0 0 0 0 0 0 0 0 0
split_gain=116.496 15.4837 13.2318 3.20622 2.09637 1.03074 1.0116 1.18284 0.884358 1.20014 0.71977 2.4398
threshold=12.036550000000002 9.6803500000000025 13.166450000000001 11.083600000000002 9.1168500000000012 11.873450000000002 18.821800000000003 18.522550000000006 11.561950000000001 11.623150000000003 17.569150000000004 17.032100000000003
decision_type=2 2 2 2 2 2 2 2 2 2 2 2
left_child=1 4 -2 -3 -1 8 7 10 -5 -10 11 -4
right_child=2 3 6 5 -6 -7 -8 -9 9 -11 -12 -13
leaf_value=-0.0075663945834524571 -0.0091266109163554467 -0.0075444229314409576 -0.0099233462677791959 -0.0082050586134983436 -0.0059245238424062065 -0.007770668068877217 -0.010319172788044364 -0.0092211613683039154 -0.009888655245319157 -0.0085588323103991861 -0.010126067048003754 -0.0094503078435347471
leaf_count=248 6981 2508 35786 1354 1396 701 1627 724 236 918 3746 3351
internal_value=0 -0.935265 -1.21022 -0.985915 -0.761947 -1.02901 -1.22321 -1.22132 -1.04842 -1.09027 -1.22273 -1.2201
internal_count=59576 7361 52215 5717 1644 3209 45234 43607 2508 1154 42883 39137
shrinkage=0.0081


Tree=47
num_leaves=13
num_cat=0
split_feature=0 0 0 0 0 0 0 0 0 0 0 0
split_gain=115.768 15.3345 13.1648 3.18419 2.07039 1.01855 1.00587 1.17664 2.11673 2.42002 1.29762 1.77637
threshold=12.036550000000002 9.6803500000000025 13.166450000000001 11.083600000000002 9.1168500000000012 11.873450000000002 18.821800000000003 18.078550000000003 17.569150000000004 17.032100000000003 18.282100000000003 18.522550000000006
decision_type=2 2 2 2 2 2 2 2 2 2 2 2
left_child=1 4 -2 -3 -1 -5 7 8 9 -4 -9 -12
right_child=2 3 6 5 -6 -7 -8 10 -10 -11 11 -13
leaf_value=-0.0075152835706419133 -0.0090729464108874475 -0.0074945720335010263 -0.0098685442642686624 -0.0084395234673738159 -0.0058825571565550043 -0.0077216049774340486 -0.010263812542242004 -0.0088612970452985138 -0.010344990101263817 -0.0093968468837700349 -0.01036409753676081 -0.00916828430991261
leaf_count=248 6981 2508 35786 2508 1396 701 1627 700 2369 3351 677 724
internal_value=0 -0.929149 -1.20347 -0.97961 -0.756588 -1.0226 -1.21645 -1.21457 -1.21699 -1.21335 -1.16675 -1.20316
internal_count=59576 7361 52215 5717 1644 3209 45234 43607 41506 39137 2101 1401
shrinkage=0.0081


Tree=48
num_leaves=13
num_cat=0
split_feature=0 0 0 0 0 0 0 0 0 0 0 0
split_gain=115.057 15.1877 13.0998 3.16244 2.04489 1.00659 1.00033 1.16807 2.09957 2.4008 1.28697 1.76224
threshold=12.036550000000002 9.6803500000000025 13.166450000000001 11.083600000000002 9.1168500000000012 11.873450000000002 18.821800000000003 18.078550000000003 17.569150000000004 17.032100000000003 18.282100000000003 18.522550000000006
decision_type=2 2 2 2 2 2 2 2 2 2 2 2
left_child=1 4 -2 -3 -1 -5 7 8 9 -4 -9 -12
right_child=2 3 6 5 -6 -7 -8 10 -10 -11 11 -13
leaf_value=-0.0074646541358768491 -0.0090198298702772444 -0.0074451784717964702 -0.0098143522113357685 -0.0083873298593304009 -0.0058409443650195517 -0.0076729815932561982 -0.010209101030691017 -0.0088098809915461082 -0.010289508709637244 -0.0093439463496898661 -0.010308530646630586 -0.0091159463110354871
leaf_count=248 6981 2508 35786 2508 1396 701 1627 700 2369 3351 677 724
internal_value=0 -0.923087 -1.1968 -0.973362 -0.751274 -1.01625 -1.20977 -1.20788 -1.2103 -1.20667 -1.16018 -1.1965
internal_count=59576 7361 52215 5717 1644 3209 45234 43607 41506 39137 2101 1401
shrinkage=0.0081


Tree=49
num_leaves=13
num_cat=0
split_feature=0 0 0 0 0 0 0 0 0 0 0 0
split_gain=114.362 15.0434 13.0367 3.14104 2.01986 0.994966 1.15974 2.08293 2.38215 1.2766 1.74852 1.02273
threshold=12.036550000000002 9.6803500000000025 13.166450000000001 11.083600000000002 9.1168500000000012 18.821800000000003 18.078550000000003 17.569150000000004 17.032100000000003 18.282100000000003 18.522550000000006 18.209250000000001
decision_type=2 2 2 2 2 2 2 2 2 2 2 2
left_child=1 4 -2 -3 -1 6 7 8 -4 11 -11 -8
right_child=2 3 5 -5 -6 -7 9 -9 -10 10 -12 -13
leaf_value=-0.0074144984298932654 -0.0089672501882132674 -0.0073962344844944019 -0.0097607563391534265 -0.0081807134395931388 -0.005799679801435113 -0.01015502247655496 -0.0092232357189361586 -0.010234679901940196 -0.0092915921029357532 -0.010253619393546893 -0.0090641351136942078 -0.0078700810105046138
leaf_count=248 6981 2508 35786 3209 1396 1627 460 2369 3351 677 724 240
internal_value=0 -0.917081 -1.1902 -0.967173 -0.746006 -1.20316 -1.20128 -1.20369 -1.20007 -1.15368 -1.1899 -1.08135
internal_count=59576 7361 52215 5717 1644 45234 43607 41506 39137 2101 1401 700
shrinkage=0.0081


Tree=50
num_leaves=13
num_cat=0
split_feature=0 0 0 0 0 0 0 0 0 0 0 0
split_gain=135.925 19.0338 7.43482 3.71543 1.48426 2.11539 1.69456 2.13448 1.42103 1.19456 1.129 1.27838
threshold=11.491500000000002 12.946550000000002 10.289200000000003 11.262300000000002 11.083600000000002 10.418750000000001 10.546350000000002 10.778200000000002 10.883000000000001 14.202550000000002 12.230250000000002 11.691850000000002
decision_type=2 2 2 2 2 2 2 2 2 2 2 2
left_child=2 10 -1 4 5 -4 -7 -8 -9 -3 11 -2
right_child=1 9 3 -5 -6 6 7 8 -10 -11 -12 -13
leaf_value=-0.0060205388889701048 -0.009013015524070668 -0.0093941625279314409 -0.008860693471752756 -0.0062120617529973395 -0.008421235384913326 -0.0058368662379511965 -0.0082175631009850161 -0.0057207259849433286 -0.0073199246996790406 -0.0095992980703699174 -0.0088153783003632798 -0.0082081522593680858
leaf_count=2557 720 10355 224 712 475 233 492 230 460 36337 4439 2342
internal_value=0 -1.16376 -0.822604 -0.89538 -0.938443 -0.90929 -0.879952 -0.911508 -0.837839 -1.17948 -1.06719 -1.03675
internal_count=59576 54193 5383 2826 2114 1639 1415 1182 690 46692 7501 3062
shrinkage=0.0081


Tree=51
num_leaves=13
num_cat=0
split_feature=0 0 0 0 0 0 0 0 0 0 0 0
split_gain=135.008 18.9475 7.36249 3.67058 1.47038 2.09058 1.67561 2.10944 1.40453 1.18709 1.12293 1.26504
threshold=11.491500000000002 12.946550000000002 10.289200000000003 11.262300000000002 11.083600000000002 10.418750000000001 10.546350000000002 10.778200000000002 10.883000000000001 14.202550000000002 12.230250000000002 11.691850000000002
decision_type=2 2 2 2 2 2 2 2 2 2 2 2
left_child=2 10 -1 4 5 -4 -7 -8 -9 -3 11 -2
right_child=1 9 3 -5 -6 6 7 8 -10 -11 -12 -13
leaf_value=-0.0059786746640370777 -0.0089598807207612353 -0.0093423976565907441 -0.0088054533594725017 -0.0061706238442259496 -0.0083694045271986307 -0.0057967340549589666 -0.0081656374812406757 -0.0056816267050418708 -0.0072726222932893072 -0.0095471583079125739 -0.0087640999482232872 -0.008158359091706471
leaf_count=2557 720 10355 224 712 475 233 492 230 460 36337 4439 2342
internal_value=0 -1.15734 -0.817085 -0.889574 -0.932416 -0.903381 -0.874196 -0.905606 -0.832321 -1.17305 -1.06089 -1.0305
internal_count=59576 54193 5383 2826 2114 1639 1415 1182 690 46692 7501 3062
shrinkage=0.0081


Tree=52
num_leaves=13
num_cat=0
split_feature=0 0 0 0 0 0 0 0 0 0 0 0
split_gain=134.108 18.8634 7.29129 3.62661 1.45675 2.06629 1.657 2.08491 1.38832 1.17984 1.11697 1.25202
threshold=11.491500000000002 12.946550000000002 10.289200000000003 11.262300000000002 11.083600000000002 10.418750000000001 10.546350000000002 10.778200000000002 10.883000000000001 14.202550000000002 12.230250000000002 11.691850000000002
decision_type=2 2 2 2 2 2 2 2 2 2 2 2
left_child=2 10 -1 4 5 -4 -7 -8 -9 -3 11 -2
right_child=1 9 3 -5 -6 6 7 8 -10 -11 -12 -13
leaf_value=-0.005937156849458552 -0.0089072814182312911 -0.0092911607603713489 -0.0087507810355534101 -0.0061295151645641968 -0.0083180691612774089 -0.005756922972106341 -0.0081142077077615282 -0.0056428322728555849 -0.0072257313026444668 -0.0094955643792911156 -0.0087133169797348146 -0.0081090219467394101
leaf_count=2557 720 10355 224 712 475 233 492 230 460 36337 4439 2342
internal_value=0 -1.15099 -0.811613 -0.883819 -0.926444 -0.897524 -0.86849 -0.899756 -0.826849 -1.16669 -1.05465 -1.02431
internal_count=59576 54193 5383 2826 2114 1639 1415 1182 690 46692 7501 3062
shrinkage=0.0081


Tree=53
num_leaves=13
num_cat=0
split_feature=0 0 0 0 0 0 0 0 0 0 0 0
split_gain=133.225 18.7814 7.2212 3.5835 1.44337 2.04252 1.63872 2.06086 1.3724 1.17279 1.11113 1.23929
threshold=11.491500000000002 12.946550000000002 10.289200000000003 11.262300000000002 11.083600000000002 10.418750000000001 10.546350000000002 10.778200000000002 10.883000000000001 14.202550000000002 12.230250000000002 11.691850000000002
decision_type=2 2 2 2 2 2 2 2 2 2 2 2
left_child=2 10 -1 4 5 -4 -7 -8 -9 -3 11 -2
right_child=1 9 3 -5 -6 6 7 8 -10 -11 -12 -13
leaf_value=-0.0058959802924074562 -0.0088552049594887855 -0.0092404408722451762 -0.0086966649306336324 -0.0060887302854044098 -0.0082672201032480581 -0.0057174267258471587 -0.0080632638810415238 -0.0056043391051058015 -0.0071792446693609404 -0.009444504677265958 -0.0086630196285652356 -0.008060132246391986
leaf_count=2557 720 10355 224 712 475 233 492 230 460 36337 4439 2342
internal_value=0 -1.14471 -0.806187 -0.878113 -0.920525 -0.891719 -0.862833 -0.893958 -0.821422 -1.16039 -1.04847 -1.01818
internal_count=59576 54193 5383 2826 2114 1639 1415 1182 690 46692 7501 3062
shrinkage=0.0081


Tree=54
num_leaves=13
num_cat=0
split_feature=0 0 0 0 0 0 0 0 0 0 0 0
split_gain=132.359 18.7015 7.15217 3.54123 1.43022 2.01925 1.62075 2.0373 1.35674 1.16593 1.1054 1.22685
threshold=11.491500000000002 12.946550000000002 10.289200000000003 11.262300000000002 11.083600000000002 10.418750000000001 10.546350000000002 10.778200000000002 10.883000000000001 14.202550000000002 12.230250000000002 11.691850000000002
decision_type=2 2 2 2 2 2 2 2 2 2 2 2
left_child=2 10 -1 4 5 -4 -7 -8 -9 -3 11 -2
right_child=1 9 3 -5 -6 6 7 8 -10 -11 -12 -13
leaf_value=-0.0058551401211309612 -0.0088036409863083889 -0.0091902271226492454 -0.008643093076418468 -0.0060482646230020426 -0.008216847618665717 -0.0056782420846991375 -0.0080127962253538701 -0.0055661427802966637 -0.0071331547865020519 -0.0093939673882889353 -0.008613198000914063 -0.0080116809639309353
leaf_count=2557 720 10355 224 712 475 233 492 230 460 36337 4439 2342
internal_value=0 -1.13849 -0.800807 -0.872457 -0.914659 -0.885964 -0.857225 -0.88821 -0.81604 -1.15416 -1.04235 -1.01211
internal_count=59576 54193 5383 2826 2114 1639 1415 1182 690 46692 7501 3062
shrinkage=0.0081


Tree=55
num_leaves=13
num_cat=0
split_feature=0 0 0 0 0 0 0 0 0 0 0 0
split_gain=104.095 10.1412 9.9719 2.18693 1.29827 2.47122 2.42822 1.05882 1.26401 2.16482 1.12273 3.72893
threshold=11.930550000000002 10.883000000000001 13.010550000000002 9.1685500000000015 15.206850000000001 15.096450000000003 16.657150000000005 15.074150000000001 14.98305 14.849150000000002 13.842750000000002 14.027650000000001
decision_type=2 2 2 2 2 2 2 2 2 2 2 2
left_child=1 3 -2 -1 5 7 -6 8 9 10 -4 -12
right_child=2 -3 4 -5 6 -7 -8 -9 -10 -11 11 -13
leaf_value=-0.0055221735985730722 -0.0087268409406340303 -0.0078528896427484465 -0.0095172221532627901 -0.0067345569825203698 -0.0096732085643229573 -0.0085791876856084106 -0.0093440743973098629 -0.010548439358173187 -0.0087622945859691694 -0.010025410978373029 -0.0084977337920491072 -0.009378721446033942
leaf_count=466 6382 3309 6582 3184 13679 1170 12229 222 940 1469 1659 8285
internal_value=0 -0.886179 -1.15442 -0.81218 -1.1652 -1.15267 -1.17504 -1.15837 -1.15669 -1.1606 -1.15375 -1.1397
internal_count=59576 6959 52617 3650 46235 20327 25908 19157 18935 17995 16526 9944
shrinkage=0.0081


Tree=56
num_leaves=13
num_cat=0
split_feature=0 0 0 0 0 0 0 0 0 0 0 0
split_gain=103.547 10.0629 9.94188 2.16275 1.28928 2.45076 2.41112 1.05131 1.25349 2.14961 1.11319 3.70023
threshold=11.930550000000002 10.883000000000001 13.010550000000002 9.1685500000000015 15.206850000000001 15.096450000000003 16.657150000000005 15.074150000000001 14.98305 14.849150000000002 13.842750000000002 14.027650000000001
decision_type=2 2 2 2 2 2 2 2 2 2 2 2
left_child=1 3 -2 -1 5 7 -6 8 9 10 -4 -12
right_child=2 -3 4 -5 6 -7 -8 -9 -10 -11 11 -13
leaf_value=-0.0054834336450162334 -0.0086772415234726546 -0.0078050098057743785 -0.0094671048685023452 -0.0066897813689941821 -0.0096229370000865955 -0.0085317812824510456 -0.009294495473717173 -0.010496444938098065 -0.0087143615553257423 -0.0099744038314169611 -0.0084503538280986754 -0.0093290766314194813
leaf_count=466 6382 3309 6582 3184 13679 1170 12229 222 940 1469 1659 8285
internal_value=0 -0.880495 -1.14827 -0.806742 -1.15905 -1.14655 -1.16887 -1.15224 -1.15056 -1.15446 -1.14763 -1.13362
internal_count=59576 6959 52617 3650 46235 20327 25908 19157 18935 17995 16526 9944
shrinkage=0.0081


Tree=57
num_leaves=13
num_cat=0
split_feature=0 0 0 0 0 0 0 0 0 0 0 0
split_gain=103.009 9.98571 9.91274 2.13895 1.28053 2.43081 2.39451 1.04403 1.24324 2.13484 1.1039 3.67224
threshold=11.930550000000002 10.883000000000001 13.010550000000002 9.1685500000000015 15.206850000000001 15.096450000000003 16.657150000000005 15.074150000000001 14.98305 14.849150000000002 13.842750000000002 14.027650000000001
decision_type=2 2 2 2 2 2 2 2 2 2 2 2
left_child=1 3 -2 -1 5 7 -6 8 9 10 -4 -12
right_child=2 -3 4 -5 6 -7 -8 -9 -10 -11 11 -13
leaf_value=-0.0054450036563096485 -0.0086281058212955841 -0.0077575486394429703 -0.0094174962877370105 -0.0066453817086935766 -0.0095731869416328004 -0.0084847986260716962 -0.0092454071923400733 -0.010445066914094539 -0.0086668671166479135 -0.0099239541344072479 -0.0084033932175453917 -0.0092799247189291577
leaf_count=466 6382 3309 6582 3184 13679 1170 12229 222 940 1469 1659 8285
internal_value=0 -0.87486 -1.14218 -0.801349 -1.15297 -1.14049 -1.16277 -1.14616 -1.14449 -1.14838 -1.14156 -1.12759
internal_count=59576 6959 52617 3650 46235 20327 25908 19157 18935 17995 16526 9944
shrinkage=0.0081


Tree=58
num_leaves=13
num_cat=0
split_feature=0 0 0 0 0 0 0 0 0 0 0 0
split_gain=102.481 9.90959 9.88442 2.11553 1.27201 2.41138 2.37837 1.03696 1.23325 2.1205 1.09487 3.64495
threshold=11.930550000000002 10.883000000000001 13.010550000000002 9.1685500000000015 15.206850000000001 15.096450000000003 16.657150000000005 15.074150000000001 14.98305 14.849150000000002 13.842750000000002 14.027650000000001
decision_type=2 2 2 2 2 2 2 2 2 2 2 2
left_child=1 3 -2 -1 5 7 -6 8 9 10 -4 -12
right_child=2 -3 4 -5 6 -7 -8 -9 -10 -11 11 -13
leaf_value=-0.00540687848335263 -0.0085794248631243398 -0.0077104983242461999 -0.0093683859010003263 -0.0066013512774719622 -0.0095239464540398822 -0.0084382292383414978 -0.0091967987069126057 -0.010394294039924635 -0.008619800956146853 -0.0098740496409719502 -0.0083568441896198463 -0.0092312561871353421
leaf_count=466 6382 3309 6582 3184 13679 1170 12229 222 940 1469 1659 8285
internal_value=0 -0.869271 -1.13616 -0.796 -1.14694 -1.13449 -1.15672 -1.14015 -1.13847 -1.14235 -1.13555 -1.12162
internal_count=59576 6959 52617 3650 46235 20327 25908 19157 18935 17995 16526 9944
shrinkage=0.0081


Tree=59
num_leaves=13
num_cat=0
split_feature=0 0 0 0 0 0 0 0 0 0 0 0
split_gain=101.963 9.85688 9.8345 2.09246 1.26372 2.39242 2.36282 2.2235 1.03012 1.22352 2.10656 1.08606
threshold=11.930550000000002 13.010550000000002 10.883000000000001 9.1685500000000015 15.206850000000001 15.096450000000003 16.358150000000006 16.385650000000002 15.074150000000001 14.98305 14.849150000000002 13.842750000000002
decision_type=2 2 2 2 2 2 2 2 2 2 2 2
left_child=2 -2 3 -1 5 8 -6 -8 9 10 11 -3
right_child=1 4 -4 -5 6 -7 7 -9 -10 -11 -12 -13
leaf_value=-0.0053690546391464405 -0.0085311895917769189 -0.0093197626064237659 -0.0076638512691407637 -0.0065576850160031725 -0.00950872968656458 -0.0083920669895388711 -0.0074823172977724955 -0.0092052705577738807 -0.010344110798837883 -0.0085731545038592784 -0.0098246776687892622 -0.0090372237935004481
leaf_count=466 6382 6582 3309 3184 11148 1170 221 14539 222 940 1469 9944
internal_value=0 -1.13019 -0.863729 -0.790696 -1.14098 -1.12854 -1.15074 -1.13326 -1.13419 -1.13252 -1.13639 -1.1296
internal_count=59576 52617 6959 3650 46235 20327 25908 14760 19157 18935 17995 16526
shrinkage=0.0081


Tree=60
num_leaves=13
num_cat=0
split_feature=0 0 0 0 0 0 0 0 0 0 0 0
split_gain=93.935 15.8877 6.54573 5.31783 1.31816 3.36515 1.79026 4.82988 1.3258 2.55862 0.868828 0.754171
threshold=11.083600000000002 14.053150000000002 9.6803500000000025 12.364650000000001 16.096450000000001 17.569150000000004 17.24605 17.32225 18.078550000000003 18.353450000000006 14.001000000000001 9.1685500000000015
decision_type=2 2 2 2 2 2 2 2 2 2 2 2
left_child=2 3 11 -2 -3 6 -6 -8 -7 -10 -5 -1
right_child=1 4 -4 10 5 8 7 -9 9 -11 -12 -13
leaf_value=-0.0051193638055288182 -0.0081083708204007718 -0.0092807430966389982 -0.0069709566689765733 -0.0087845188665379784 -0.0089965026218882822 -0.0097166011917404586 -0.0068958107652452088 -0.008913828850127101 -0.0084128368861413061 -0.0094550017067036099 -0.0080380191764503166 -0.0058806824936925555
leaf_count=507 5057 20441 2675 12288 9005 2357 460 1398 911 2795 472 1210
internal_value=0 -1.10953 -0.79655 -1.05806 -1.13436 -1.12059 -1.09838 -1.03876 -1.16044 -1.13555 -1.08111 -0.698212
internal_count=59576 55184 4392 17817 37367 16926 10863 1858 6063 3706 12760 1717
shrinkage=0.0081


Tree=61
num_leaves=13
num_cat=0
split_feature=0 0 0 0 0 0 0 0 0 0 0 0
split_gain=93.4315 15.8319 6.48077 5.30751 1.30998 3.3424 1.77648 4.78942 1.31645 2.54202 0.860893 0.74498
threshold=11.083600000000002 14.053150000000002 9.6803500000000025 12.364650000000001 16.096450000000001 17.569150000000004 17.24605 17.32225 18.078550000000003 18.353450000000006 14.001000000000001 9.1685500000000015
decision_type=2 2 2 2 2 2 2 2 2 2 2 2
left_child=2 3 11 -2 -3 6 -6 -8 -7 -10 -5 -1
right_child=1 4 -4 10 5 8 7 -9 9 -11 -12 -13
leaf_value=-0.0050833765610907126 -0.0080612138825824561 -0.0092332440977488973 -0.0069263392345516083 -0.0087374307349256126 -0.0089494686589883469 -0.0096682264479690024 -0.0068550648941047444 -0.0088669849783081685 -0.0083670473978434169 -0.0094072603986221012 -0.0079933952450053809 -0.0058404700698313798
leaf_count=507 5057 20441 2675 12288 9005 2357 460 1398 911 2795 472 1210
internal_value=0 -1.10369 -0.791297 -1.05225 -1.12851 -1.11477 -1.0926 -1.03314 -1.15454 -1.1297 -1.07531 -0.693398
internal_count=59576 55184 4392 17817 37367 16926 10863 1858 6063 3706 12760 1717
shrinkage=0.0081


Tree=62
num_leaves=13
num_cat=0
split_feature=0 0 0 0 0 0 0 0 0 0 0 0
split_gain=92.936 15.7776 6.41673 5.29734 1.302 3.32024 1.76301 4.74977 1.30737 2.52583 0.853137 0.741136
threshold=11.083600000000002 14.053150000000002 9.6803500000000025 12.364650000000001 16.096450000000001 17.569150000000004 17.24605 17.32225 18.078550000000003 18.353450000000006 14.001000000000001 13.976050000000003
decision_type=2 2 2 2 2 2 2 2 2 2 2 2
left_child=2 3 -1 -2 -3 6 -6 -8 -7 -10 11 -5
right_child=1 4 -4 10 5 8 7 -9 9 -11 -12 -13
leaf_value=-0.0055778387205883285 -0.0080144648057063218 -0.0091861993445780943 -0.0068820879974617853 -0.008671746784818123 -0.0089028674434873389 -0.0096203469302195491 -0.0068146150609619165 -0.0088205681009944151 -0.0083216488100135762 -0.0093599881290997253 -0.0079491356543097916 -0.009617131371091903
leaf_count=1717 5057 20441 2675 12040 9005 2357 460 1398 911 2795 472 248
internal_value=0 -1.0979 -0.786086 -1.04648 -1.12272 -1.109 -1.08687 -1.02756 -1.1487 -1.12391 -1.06956 -1.07293
internal_count=59576 55184 4392 17817 37367 16926 10863 1858 6063 3706 12760 12288
shrinkage=0.0081


Tree=63
num_leaves=13
num_cat=0
split_feature=0 0 0 0 0 0 0 0 0 0 0 0
split_gain=92.4484 15.7246 6.35366 5.28734 1.29422 3.29865 1.74984 4.71091 1.29853 2.51005 0.845558 0.737194
threshold=11.083600000000002 14.053150000000002 9.6803500000000025 12.364650000000001 16.096450000000001 17.569150000000004 17.24605 17.32225 18.078550000000003 18.353450000000006 14.001000000000001 9.1685500000000015
decision_type=2 2 2 2 2 2 2 2 2 2 2 2
left_child=2 3 11 -2 -3 6 -6 -8 -7 -10 -5 -1
right_child=1 4 -4 10 5 8 7 -9 9 -11 -12 -13
leaf_value=-0.0050085094218270971 -0.0079681160643147661 -0.0091396000732751389 -0.0068381969250065995 -0.0086445203323564368 -0.0088566903779709431 -0.0095729520721903327 -0.0067744577251463954 -0.0087745688217623422 -0.0082766343714251959 -0.0093131738018257144 -0.0079052329664509192 -0.0057625197069693778
leaf_count=507 5057 20441 2675 12288 9005 2357 460 1398 911 2795 472 1210
internal_value=0 -1.09217 -0.780916 -1.04077 -1.11699 -1.10328 -1.0812 -1.02203 -1.14292 -1.11818 -1.06386 -0.683883
internal_count=59576 55184 4392 17817 37367 16926 10863 1858 6063 3706 12760 1717
shrinkage=0.0081


Tree=64
num_leaves=13
num_cat=0
split_feature=0 0 0 0 0 0 0 0 0 0 0 0
split_gain=91.9681 15.6729 6.29143 5.27746 1.28696 3.84396 1.37324 4.67281 1.28995 2.49465 0.966296 0.971854
threshold=11.083600000000002 14.053150000000002 9.6803500000000025 12.364650000000001 16.330950000000005 17.569150000000004 17.24605 17.32225 18.078550000000003 18.353450000000006 16.385650000000002 16.413150000000005
decision_type=2 2 2 2 2 2 2 2 2 2 2 2
left_child=2 3 -1 -2 -3 6 10 -8 -7 -10 -6 -12
right_child=1 4 -4 -5 5 8 7 -9 9 -11 11 -13
leaf_value=-0.0055013655435440277 -0.0079221600364449175 -0.0090837401930966774 -0.0067946605724931814 -0.0085714923790899782 -0.0079950313966363346 -0.0095260327165690838 -0.0067345871280234011 -0.0087289781955948685 -0.0082319965169606931 -0.0092668087067233288 -0.0098516407183958047 -0.0087707633745704467
leaf_count=1717 5057 22480 2675 12760 456 2357 460 1398 911 2795 256 6254
internal_value=0 -1.08649 -0.775787 -1.03511 -1.1113 -1.096 -1.06777 -1.01654 -1.13719 -1.1125 -1.08144 -1.08805
internal_count=59576 55184 4392 17817 37367 14887 8824 1858 6063 3706 6966 6510
shrinkage=0.0081


Tree=65
num_leaves=13
num_cat=0
split_feature=0 0 0 0 0 0 0 0 0 0 0 0
split_gain=124.746 22.4858 7.08492 2.23568 3.35142 2.83177 1.87232 1.80169 2.86067 1.47509 1.26229 2.10183
threshold=11.491500000000002 12.978300000000003 10.546350000000002 18.353450000000006 19.472300000000004 16.04635 16.197150000000004 11.262300000000002 11.083600000000002 10.778200000000002 18.078550000000003 17.24605
decision_type=2 2 2 2 2 2 2 2 2 2 2 2
left_child=2 -2 -1 5 -5 -3 -7 8 9 -4 11 -8
right_child=1 3 7 4 -6 6 10 -9 -10 -11 -12 -13
leaf_value=-0.0056188735331303679 -0.0079626768486983687 -0.009021291299293065 -0.0074435470092834933 -0.0097569801809003071 -0.0083768819585698789 -0.0081372178908650714 -0.0086765133878609711 -0.0061227691937788395 -0.0082714311654072063 -0.0062227910258651053 -0.0081804160348263825 -0.0091512586281886771
leaf_count=3103 7818 28793 463 2148 693 1439 8136 695 465 708 928 4187
internal_value=0 -1.0873 -0.757749 -1.10525 -1.16311 -1.10148 -1.07747 -0.844829 -0.882464 -0.827936 -1.08537 -1.09107
internal_count=59576 54142 5434 46324 2841 43483 14690 2331 1636 1171 13251 12323
shrinkage=0.0081


Tree=66
num_leaves=13
num_cat=0
split_feature=0 0 0 0 0 0 0 0 0 0 0 0
split_gain=124.048 22.403 7.02163 2.22291 3.3274 2.8133 1.85733 1.78177 2.83548 1.45885 1.25419 2.0879
threshold=11.491500000000002 12.978300000000003 10.546350000000002 18.353450000000006 19.472300000000004 16.04635 16.197150000000004 11.262300000000002 11.083600000000002 10.778200000000002 18.078550000000003 17.24605
decision_type=2 2 2 2 2 2 2 2 2 2 2 2
left_child=2 -2 -1 5 -5 -3 -7 8 9 -4 11 -8
right_child=1 3 7 4 -6 6 10 -9 -10 -11 -12 -13
leaf_value=-0.0055808805033877133 -0.0079179739694358754 -0.0089759130639367971 -0.0073980677686431903 -0.0097105585771400313 -0.0083333397416237888 -0.0080939120431797081 -0.0086317327794635315 -0.0060837119131751565 -0.0082240746968980372 -0.0061829124729626574 -0.0081365361198631088 -0.0091056280201982833
leaf_count=3103 7818 28793 463 2148 693 1439 8136 695 465 708 928 4187
internal_value=0 -1.08171 -0.752805 -1.09966 -1.15745 -1.0959 -1.07194 -0.839588 -0.877054 -0.822728 -1.07982 -1.08551
internal_count=59576 54142 5434 46324 2841 43483 14690 2331 1636 1171 13251 12323
shrinkage=0.0081


Tree=67
num_leaves=13
num_cat=0
split_feature=0 0 0 0 0 0 0 0 0 0 0 0
split_gain=123.361 22.322 6.95916 2.21049 3.30401 2.79527 1.84269 1.76221 2.81073 1.44289 1.24627 2.07433
threshold=11.491500000000002 12.978300000000003 10.546350000000002 18.353450000000006 19.472300000000004 16.04635 16.197150000000004 11.262300000000002 11.083600000000002 10.778200000000002 18.078550000000003 17.24605
decision_type=2 2 2 2 2 2 2 2 2 2 2 2
left_child=2 -2 -1 5 -5 -3 -7 8 9 -4 11 -8
right_child=1 3 7 4 -6 6 10 -9 -10 -11 -12 -13
leaf_value=-0.0055431760734392229 -0.007873635254790283 -0.0089309440266188214 -0.0073529640753909218 -0.0096646068739840389 -0.0082901519990005255 -0.0080509510946762571 -0.00858733688924182 -0.0060449410480020805 -0.0081771337618902953 -0.0061433314975253483 -0.0080930111308976753 -0.0090604175462548758
leaf_count=3103 7818 28793 463 2148 693 1439 8136 695 465 708 928 4187
internal_value=0 -1.07618 -0.747898 -1.09413 -1.15185 -1.09037 -1.06645 -0.834387 -0.871687 -0.817561 -1.07431 -1.07999
internal_count=59576 54142 5434 46324 2841 43483 14690 2331 1636 1171 13251 12323
shrinkage=0.0081


Tree=68
num_leaves=13
num_cat=0
split_feature=0 0 0 0 0 0 0 0 0 0 0 0
split_gain=122.685 22.2426 6.89746 2.19842 3.28125 2.77769 1.82838 1.74298 2.78639 1.42721 1.23852 2.06108
threshold=11.491500000000002 12.978300000000003 10.546350000000002 18.353450000000006 19.472300000000004 16.04635 16.197150000000004 11.262300000000002 11.083600000000002 10.778200000000002 18.078550000000003 17.24605
decision_type=2 2 2 2 2 2 2 2 2 2 2 2
left_child=2 -2 -1 5 -5 -3 -7 8 9 -4 11 -8
right_child=1 3 7 4 -6 6 10 -9 -10 -11 -12 -13
leaf_value=-0.0055057557638844507 -0.0078296541995015578 -0.0088863755605083292 -0.0073082293163014966 -0.0096191155407049055 -0.0082473127909486986 -0.008008328276624288 -0.0085433176524517245 -0.0060064522476553431 -0.0081305975716809541 -0.0061040445912439933 -0.0080498341870605707 -0.0090156172804421574
leaf_count=3103 7818 28793 463 2148 693 1439 8136 695 465 708 928 4187
internal_value=0 -1.07069 -0.743028 -1.08864 -1.14629 -1.08489 -1.061 -0.829226 -0.866363 -0.812433 -1.06885 -1.07452
internal_count=59576 54142 5434 46324 2841 43483 14690 2331 1636 1171 13251 12323
shrinkage=0.0081


Tree=69
num_leaves=13
num_cat=0
split_feature=0 0 0 0 0 0 0 0 0 0 0 0
split_gain=122.017 22.1649 6.83653 2.18667 3.25907 2.76051 1.81439 1.72409 2.76246 1.4118 1.23095 2.04815
threshold=11.491500000000002 12.978300000000003 10.546350000000002 18.353450000000006 19.472300000000004 16.04635 16.197150000000004 11.262300000000002 11.083600000000002 10.778200000000002 18.078550000000003 17.24605
decision_type=2 2 2 2 2 2 2 2 2 2 2 2
left_child=2 -2 -1 5 -5 -3 -7 8 9 -4 11 -8
right_child=1 3 7 4 -6 6 10 -9 -10 -11 -12 -13
leaf_value=-0.0054686163603830523 -0.0077860239017908638 -0.0088421993255120949 -0.0072638571528293849 -0.0095740735870950954 -0.0082048147057662869 -0.0079660374441804065 -0.0084996680047052155 -0.0059682410909368344 -0.0080844605528761285 -0.0060650464598678254 -0.008006999005459578 -0.0089712192550615751
leaf_count=3103 7818 28793 463 2148 693 1439 8136 695 465 708 928 4187
internal_value=0 -1.06525 -0.738195 -1.0832 -1.1408 -1.07945 -1.05561 -0.824105 -0.861081 -0.807345 -1.06343 -1.0691
internal_count=59576 54142 5434 46324 2841 43483 14690 2331 1636 1171 13251 12323
shrinkage=0.0081


Tree=70
num_leaves=13
num_cat=0
split_feature=0 0 0 0 0 0 0 0 0 0 0 0
split_gain=136.355 8.75069 3.45272 2.41688 1.12515 1.29301 1.21105 0.990175 0.943177 1.36157 1.2795 0.914618
threshold=11.420550000000002 13.010550000000002 10.147700000000002 10.008300000000002 11.083600000000002 10.778200000000002 11.174900000000003 10.987150000000002 14.576350000000001 16.021250000000006 13.708850000000002 13.788950000000002
decision_type=2 2 2 2 2 2 2 2 2 2 2 2
left_child=2 -2 3 -1 5 -4 -6 -7 10 -10 -3 -12
right_child=1 8 4 -5 6 7 -8 -9 9 -11 11 -13
leaf_value=-0.0053992725139249097 -0.0080536208549984757 -0.0087476811937393928 -0.0062033195437057329 -0.0036060325383929317 -0.0075996100249099731 -0.0048396023427139893 -0.0062165450760295225 -0.0061404781666347594 -0.0088340635097940955 -0.0086086707169364899 -0.007817575504246551 -0.0084603809585960133
leaf_count=2058 8273 5356 1149 235 243 476 736 258 14837 17730 731 7494
internal_value=0 -1.05758 -0.703349 -0.64402 -0.752014 -0.72235 -0.809748 -0.653846 -1.0692 -1.07546 -1.05422 -1.03744
internal_count=59576 54421 5155 2293 2862 1883 979 734 46148 32567 13581 8225
shrinkage=0.0081


Tree=71
num_leaves=13
num_cat=0
split_feature=0 0 0 0 0 0 0 0 0 0 0 0
split_gain=135.566 8.74653 3.42312 2.3857 1.11533 1.27744 1.19933 0.978977 0.938509 1.35476 1.27013 0.907914
threshold=11.420550000000002 13.010550000000002 10.147700000000002 10.008300000000002 11.083600000000002 10.778200000000002 11.174900000000003 10.987150000000002 14.576350000000001 16.021250000000006 13.708850000000002 13.788950000000002
decision_type=2 2 2 2 2 2 2 2 2 2 2 2
left_child=2 -2 3 -1 5 -4 -6 -7 10 -10 -3 -12
right_child=1 8 4 -5 6 7 -8 -9 9 -11 11 -13
leaf_value=-0.0053626433110765684 -0.008009755235150141 -0.0087041828711078295 -0.0061636895231945103 -0.0035801488439761047 -0.0075555492852151613 -0.0048070616453450002 -0.0061776797465939544 -0.0061016210394095813 -0.0087907299711486846 -0.0085655468160893439 -0.0077761468135197458 -0.0084174985809188155
leaf_count=2058 8273 5356 1149 235 243 476 736 258 14837 17730 731 7494
internal_value=0 -1.05224 -0.698731 -0.639625 -0.747235 -0.71768 -0.804777 -0.64954 -1.06387 -1.07013 -1.0489 -1.03216
internal_count=59576 54421 5155 2293 2862 1883 979 734 46148 32567 13581 8225
shrinkage=0.0081


Tree=72
num_leaves=13
num_cat=0
split_feature=0 0 0 0 0 0 0 0 0 0 0 0
split_gain=134.787 8.74244 3.39381 2.35499 1.10562 1.26213 1.1878 0.967938 0.933948 1.34935 1.50945 1.26098
threshold=11.420550000000002 13.010550000000002 10.147700000000002 10.008300000000002 11.083600000000002 10.778200000000002 11.174900000000003 10.987150000000002 14.576350000000001 15.388050000000002 15.501150000000001 13.708850000000002
decision_type=2 2 2 2 2 2 2 2 2 2 2 2
left_child=2 -2 3 -1 5 -4 -6 -7 11 -10 -11 -3
right_child=1 8 4 -5 6 7 -8 -9 9 10 -12 -13
leaf_value=-0.0053262872758289203 -0.0079662412589737129 -0.0086610528253499089 -0.0061243531744047206 -0.003554448512131506 -0.0075118386997081515 -0.0047747467542077725 -0.006139093045191741 -0.0060630444251742214 -0.0088145087243830331 -0.0079471233640305648 -0.008589829295669411 -0.008318069617814625
leaf_count=2058 8273 5356 1149 235 243 476 736 258 8457 1166 22944 8225
internal_value=0 -1.04693 -0.694146 -0.635263 -0.742492 -0.713044 -0.799842 -0.645265 -1.05858 -1.06483 -1.05664 -1.04363
internal_count=59576 54421 5155 2293 2862 1883 979 734 46148 32567 24110 13581
