tree
version=v2
num_class=1
num_tree_per_iteration=1
label_index=0
max_feature_idx=0
objective=binary sigmoid:1
feature_names=Column_0
feature_infos=[7.5865:23.132400000000001]
tree_sizes=1125 1128 1127 1125 1123 1123 1129 1130 1122 1124 1129 1130 1130 1130 1130 1125 1120 1123 1123 1125 1118 1125 1123 1125 1125 1121 1126 1123 1124 1125 1130 1134 1133 1132 1133 1131 1133 1133 1134 1132 1129 1129 1130 1126 1130 1139 1142 1143 1139 1134 1146 1145 1139 1142 1143 1134 1134 1135 1140 1142 1145 1145 1145 1146 1143 1138 1141 1138 1139 1138 1148 1142 1145 1145 1142 1139 1144 1142 1142 1143 1139 1143 1141 1140 1143

Tree=0
num_leaves=13
num_cat=0
split_feature=0 0 0 0 0 0 0 0 0 0 0 0
split_gain=225.792 20.0407 15.0008 4.88903 2.23061 1.958 3.05006 1.91246 1.72943 1.31076 1.40808 1.26895
threshold=12.088250000000002 10.292400000000002 13.069750000000001 11.340650000000002 12.640450000000001 9.117300000000002 9.6839500000000012 14.274650000000001 20.170650000000006 18.711550000000006 18.522000000000002 12.778300000000002
decision_type=2 2 2 2 2 2 2 2 2 2 2 2
left_child=1 5 4 -3 -2 -1 -7 -4 9 10 -9 -6
right_child=2 3 7 -5 11 6 -8 8 -10 -11 -12 -13
leaf_value=-0.010536585365853657 -0.012851162790697675 -0.010365782720273737 -0.013203413103177717 -0.011369538791562387 -0.011724861878453039 -0.0085525139664804472 -0.009755999999999999 -0.013454567893802113 -0.012042477876106196 -0.013911084043848965 -0.012544247787610619 -0.012449223529411765
leaf_count=246 3096 2338 10196 2797 905 1432 900 33221 226 1642 452 2125
internal_value=0 -1.27499 -1.64175 -1.34722 -1.54881 -1.13111 -1.11321 -1.6542 -1.66112 -1.66224 -1.65955 -1.51023
internal_count=59576 7713 51863 5135 6126 2578 2332 45737 35541 35315 33673 3030
shrinkage=0.0081


Tree=1
num_leaves=13
num_cat=0
split_feature=0 0 0 0 0 0 0 0 0 0 0 0
split_gain=222.189 19.7198 14.7619 4.81086 2.19505 1.92663 3.00117 1.88203 1.70188 1.28991 1.38566 1.24871
threshold=12.088250000000002 10.292400000000002 13.069750000000001 11.340650000000002 12.640450000000001 9.117300000000002 9.6839500000000012 14.274650000000001 20.170650000000006 18.711550000000006 18.522000000000002 12.778300000000002
decision_type=2 2 2 2 2 2 2 2 2 2 2 2
left_child=1 5 4 -3 -2 -1 -7 -4 9 10 -9 -6
right_child=2 3 7 -5 11 6 -8 8 -10 -11 -12 -13
leaf_value=-0.010451530563748392 -0.012747596244507737 -0.010282096751495301 -0.013097037410848356 -0.011277810448389302 -0.011630291711288081 -0.0084833942733382045 -0.0096772069885485423 -0.013346191616517544 -0.011945368271265255 -0.013799073767075799 -0.012443130488903048 -0.012348864850245486
leaf_count=246 3096 2338 10196 2797 905 1432 900 33221 226 1642 452 2125
internal_value=0 -1.2647 -1.62852 -1.33635 -1.53632 -1.12197 -1.10421 -1.64087 -1.64774 -1.64885 -1.64618 -1.49805
internal_count=59576 7713 51863 5135 6126 2578 2332 45737 35541 35315 33673 3030
shrinkage=0.0081


Tree=2
num_leaves=13
num_cat=0
split_feature=0 0 0 0 0 0 0 0 0 0 0 0
split_gain=218.722 19.409 14.5328 4.73533 2.16089 1.89619 2.95367 1.85288 1.67546 1.26998 1.36417 1.22923
threshold=12.088250000000002 10.292400000000002 13.069750000000001 11.340650000000002 12.640450000000001 9.117300000000002 9.6839500000000012 14.274650000000001 20.170650000000006 18.711550000000006 18.522000000000002 12.778300000000002
decision_type=2 2 2 2 2 2 2 2 2 2 2 2
left_child=1 5 4 -3 -2 -1 -7 -4 9 10 -9 -6
right_child=2 3 7 -5 11 6 -8 8 -10 -11 -12 -13
leaf_value=-0.010367729044712707 -0.012645895702367292 -0.010199627838062237 -0.012992638678297705 -0.011187537081163093 -0.011537267444901841 -0.0084151369679182266 -0.0095995027129827347 -0.013239871301254182 -0.011849890075097508 -0.013689273321769333 -0.012343787877006253 -0.012250252322039027
leaf_count=246 3096 2338 10196 2797 905 1432 900 33221 226 1642 452 2125
internal_value=0 -1.25455 -1.61554 -1.32565 -1.52406 -1.11295 -1.09534 -1.6278 -1.63462 -1.63572 -1.63307 -1.48609
internal_count=59576 7713 51863 5135 6126 2578 2332 45737 35541 35315 33673 3030
shrinkage=0.0081


Tree=3
num_leaves=13
num_cat=0
split_feature=0 0 0 0 0 0 0 0 0 0 0 0
split_gain=215.383 19.1077 14.3132 4.66231 2.12807 1.86666 2.90749 1.82501 1.65011 1.25091 1.34358 1.21732
threshold=12.088250000000002 10.292400000000002 13.069750000000001 11.340650000000002 12.640450000000001 9.117300000000002 9.6839500000000012 14.274650000000001 20.170650000000006 18.711550000000006 18.522000000000002 13.735150000000003
decision_type=2 2 2 2 2 2 2 2 2 2 2 2
left_child=1 5 4 -3 -2 -1 -7 11 9 10 -9 -4
right_child=2 3 7 -5 -6 6 -8 8 -10 -11 -12 -13
leaf_value=-0.01028515173590022 -0.012546005406490306 -0.010118344646899535 -0.01306372651892811 -0.011098678058088342 -0.011941987215719509 -0.0083477235853611012 -0.0095228581679835198 -0.013135546089252301 -0.011755997001007996 -0.013581614617232179 -0.01224616630590899 -0.012709564952938563
leaf_count=246 3096 2338 5199 2797 3030 1432 900 33221 226 1642 452 4997
internal_value=0 -1.24456 -1.60281 -1.3151 -1.51201 -1.10405 -1.08657 -1.61497 -1.62174 -1.62283 -1.6202 -1.59138
internal_count=59576 7713 51863 5135 6126 2578 2332 45737 35541 35315 33673 10196
shrinkage=0.0081


Tree=4
num_leaves=13
num_cat=0
split_feature=0 0 0 0 0 0 0 0 0 0 0 0
split_gain=212.166 18.8157 14.1026 4.5917 2.09653 1.83799 2.86261 1.79829 1.62578 1.23267 1.32382 1.21132
threshold=12.088250000000002 10.292400000000002 13.069750000000001 11.340650000000002 12.640450000000001 9.117300000000002 9.6839500000000012 14.274650000000001 20.170650000000006 18.711550000000006 18.522000000000002 12.778300000000002
decision_type=2 2 2 2 2 2 2 2 2 2 2 2
left_child=1 5 4 -3 -2 -1 -7 -4 9 10 -9 -6
right_child=2 3 7 -5 11 6 -8 8 -10 -11 -12 -13
leaf_value=-0.010203763732401379 -0.012447871318136735 -0.010038216533472904 -0.012789526953229187 -0.011011194343147328 -0.011351795075194774 -0.0082811339611013474 -0.0094472486600218966 -0.013033151661229786 -0.011663643606065612 -0.01347602939118636 -0.01215021626167548 -0.012059715121894785
leaf_count=246 3096 2338 10196 2797 905 1432 900 33221 226 1642 452 2125
internal_value=0 -1.2347 -1.5903 -1.30471 -1.50016 -1.09527 -1.07792 -1.60238 -1.6091 -1.61018 -1.60757 -1.46275
internal_count=59576 7713 51863 5135 6126 2578 2332 45737 35541 35315 33673 3030
shrinkage=0.0081


Tree=5
num_leaves=13
num_cat=0
split_feature=0 0 0 0 0 0 0 0 0 0 0 0
split_gain=203.903 29.8751 13.3897 3.162 1.87541 1.2079 1.65649 1.13121 1.04883 2.25161 1.90942 1.55644
threshold=11.495050000000001 13.425100000000002 10.150450000000001 12.088250000000002 11.695800000000002 13.394850000000002 13.038450000000003 9.856600000000002 16.124050000000004 15.297150000000002 17.249550000000003 14.982750000000001
decision_type=2 2 2 2 2 2 2 2 2 2 2 2
left_child=2 3 7 4 -2 6 -5 -1 9 11 -10 -3
right_child=1 8 -4 5 -6 -7 -8 -9 10 -11 -12 -13
leaf_value=-0.00829610428285457 -0.012105729218258122 -0.012927794552708507 -0.010108134220771116 -0.011971126828579022 -0.011103760662747179 -0.010935819923835273 -0.012465092018842452 -0.0091755412133916105 -0.012633343074410315 -0.013180313217926962 -0.012978486399387789 -0.012535018527024705
leaf_count=1875 710 14840 3000 5864 1588 232 2563 483 8961 8288 7945 3227
internal_value=0 -1.56836 -1.15925 -1.47503 -1.40905 -1.49254 -1.49646 -1.04645 -1.592 -1.59989 -1.5797 -1.58736
internal_count=59576 54218 5358 10957 2298 8659 8427 2358 43261 26355 16906 18067
shrinkage=0.0081


Tree=6
num_leaves=13
num_cat=0
split_feature=0 0 0 0 0 0 0 0 0 0 0 0
split_gain=200.972 29.4566 13.1887 3.11919 1.84726 1.18961 1.63347 1.11411 1.03306 2.21924 1.8814 1.53316
threshold=11.495050000000001 13.425100000000002 10.150450000000001 12.088250000000002 11.695800000000002 13.394850000000002 13.038450000000003 9.856600000000002 16.124050000000004 15.297150000000002 17.249550000000003 14.982750000000001
decision_type=2 2 2 2 2 2 2 2 2 2 2 2
left_child=2 3 7 4 -2 6 -5 -1 9 11 -10 -3
right_child=1 8 -4 5 -6 -7 -8 -9 10 -11 -12 -13
leaf_value=-0.0082305569871215511 -0.012012195024821088 -0.012829071174403128 -0.010029139771850196 -0.011878990831502814 -0.011017594061572921 -0.010851443528966775 -0.01236961665964182 -0.0091034242617975773 -0.012536775357863121 -0.013079848345826825 -0.012879456039301176 -0.012439154394753753
leaf_count=1875 710 14840 3000 5864 1588 232 2563 483 8961 8288 7945 3227
internal_value=0 -1.55636 -1.15015 -1.46367 -1.39813 -1.48107 -1.48496 -1.03819 -1.57984 -1.58768 -1.56763 -1.57524
internal_count=59576 54218 5358 10957 2298 8659 8427 2358 43261 26355 16906 18067
shrinkage=0.0081


Tree=7
num_leaves=13
num_cat=0
split_feature=0 0 0 0 0 0 0 0 0 0 0 0
split_gain=198.144 29.0546 12.9935 3.07793 1.82012 1.17199 1.61133 1.09747 1.01793 2.18823 1.85451 1.51084
threshold=11.495050000000001 13.425100000000002 10.150450000000001 12.088250000000002 11.695800000000002 13.394850000000002 13.038450000000003 9.856600000000002 16.124050000000004 15.297150000000002 17.249550000000003 14.982750000000001
decision_type=2 2 2 2 2 2 2 2 2 2 2 2
left_child=2 3 7 4 -2 6 -5 -1 9 11 -10 -3
right_child=1 8 -4 5 -6 -7 -8 -9 10 -11 -12 -13
leaf_value=-0.0081657927910582257 -0.011920216077706448 -0.012732110540147468 -0.0099512442097795285 -0.011788363189175454 -0.010932735586808073 -0.010768324379536639 -0.01227577578362401 -0.0090322335282723085 -0.012441886289247644 -0.012981219182112355 -0.012782202098848637 -0.012344940522324337
leaf_count=1875 710 14840 3000 5864 1588 232 2563 483 8961 8288 7945 3227
internal_value=0 -1.54458 -1.14117 -1.4525 -1.38738 -1.46979 -1.47365 -1.03003 -1.56791 -1.57568 -1.55578 -1.56333
internal_count=59576 54218 5358 10957 2298 8659 8427 2358 43261 26355 16906 18067
shrinkage=0.0081


Tree=8
num_leaves=13
num_cat=0
split_feature=0 0 0 0 0 0 0 0 0 0 0 0
split_gain=195.412 28.6682 12.8037 3.03816 1.79394 1.155 1.59003 1.08126 1.00343 2.15851 1.82873 1.4894
threshold=11.495050000000001 13.425100000000002 10.150450000000001 12.088250000000002 11.695800000000002 13.394850000000002 13.038450000000003 9.856600000000002 16.124050000000004 15.297150000000002 17.249550000000003 14.982750000000001
decision_type=2 2 2 2 2 2 2 2 2 2 2 2
left_child=2 3 7 4 -2 6 -5 -1 9 11 -10 -3
right_child=1 8 -4 5 -6 -7 -8 -9 10 -11 -12 -13
leaf_value=-0.008101795600690619 -0.011829746091171494 -0.01263686006634568 -0.0098744204444469377 -0.011699203302717188 -0.010849150545857377 -0.010686429164045233 -0.012183521711909858 -0.0089619472021409356 -0.012348625867722287 -0.012884370514392876 -0.012686672288203023 -0.012252330372606412
leaf_count=1875 710 14840 3000 5864 1588 232 2563 483 8961 8288 7945 3227
internal_value=0 -1.533 -1.1323 -1.44151 -1.3768 -1.45869 -1.46253 -1.02197 -1.55618 -1.5639 -1.54413 -1.55163
internal_count=59576 54218 5358 10957 2298 8659 8427 2358 43261 26355 16906 18067
shrinkage=0.0081


Tree=9
num_leaves=13
num_cat=0
split_feature=0 0 0 0 0 0 0 0 0 0 0 0
split_gain=192.775 28.297 12.6191 2.99981 1.76869 1.13861 1.56954 1.06547 0.989513 2.13 1.80398 1.46883
threshold=11.495050000000001 13.425100000000002 10.150450000000001 12.088250000000002 11.695800000000002 13.394850000000002 13.038450000000003 9.856600000000002 16.124050000000004 15.297150000000002 17.249550000000003 14.982750000000001
decision_type=2 2 2 2 2 2 2 2 2 2 2 2
left_child=2 3 7 4 -2 6 -5 -1 9 11 -10 -3
right_child=1 8 -4 5 -6 -7 -8 -9 10 -11 -12 -13
leaf_value=-0.0080385487681433037 -0.011740743849419628 -0.012543271448660617 -0.009798640839605988 -0.011611468473760383 -0.010766803557563742 -0.01060572581436081 -0.012092810317877123 -0.0088925457984533034 -0.012256948025525424 -0.012789249839300324 -0.012592815479554624 -0.012161277875699379
leaf_count=1875 710 14840 3000 5864 1588 232 2563 483 8961 8288 7945 3227
internal_value=0 -1.52161 -1.12355 -1.4307 -1.36638 -1.44777 -1.45158 -1.014 -1.54465 -1.55233 -1.53269 -1.54013
internal_count=59576 54218 5358 10957 2298 8659 8427 2358 43261 26355 16906 18067
shrinkage=0.0081


Tree=10
num_leaves=13
num_cat=0
split_feature=0 0 0 0 0 0 0 0 0 0 0 0
split_gain=190.852 30.5342 17.0123 3.94833 2.7135 1.71669 1.79351 1.88555 1.53302 2.08688 1.51796 1.29992
threshold=12.186550000000002 10.421650000000001 12.975350000000002 11.176600000000002 9.856600000000002 16.809850000000001 18.711550000000006 18.522000000000002 11.261350000000002 11.420150000000001 14.053800000000001 13.918650000000001
decision_type=2 2 2 2 2 2 2 2 2 2 2 2
left_child=1 4 -2 -3 -1 10 7 -7 -5 -10 11 -4
right_child=2 3 5 8 -6 6 -8 -9 9 -11 -12 -13
leaf_value=-0.0078599422962995977 -0.011348242072470451 -0.0096297641594827732 -0.012304194470951949 -0.011860113021733889 -0.0089278560500504634 -0.012139665105949988 -0.012626454671591736 -0.011092532515890508 -0.0095116002168897876 -0.010669984309543367 -0.012471992569153668 -0.011727024335278894
leaf_count=1872 4872 1581 7528 237 940 8694 1957 478 474 2997 26755 1191
internal_value=0 -1.18296 -1.51367 -1.27265 -1.01442 -1.52545 -1.50374 -1.49199 -1.30839 -1.29774 -1.53227 -1.5093
internal_count=59576 8101 51475 5289 2812 46603 11129 9172 3708 3471 35474 8719
shrinkage=0.0081


Tree=11
num_leaves=13
num_cat=0
split_feature=0 0 0 0 0 0 0 0 0 0 0 0
split_gain=188.398 30.111 16.7989 3.89575 2.67497 1.69259 1.77011 1.8606 1.50965 2.05874 1.49956 1.29655
threshold=12.186550000000002 10.421650000000001 12.975350000000002 11.176600000000002 9.856600000000002 16.809850000000001 18.711550000000006 18.522000000000002 11.261350000000002 11.420150000000001 14.053800000000001 14.759250000000002
decision_type=2 2 2 2 2 2 2 2 2 2 2 2
left_child=1 4 -2 -3 -1 10 7 -7 -5 -10 -4 -12
right_child=2 3 5 8 -6 6 -8 -9 9 -11 11 -13
leaf_value=-0.0077990062528775009 -0.011264412954059503 -0.0095566355477845113 -0.012136244421021443 -0.011771514609106623 -0.0088595316616979294 -0.012051274141972719 -0.012535089121196342 -0.011010711485451708 -0.0094394165138625124 -0.010590268370116148 -0.012570655844864487 -0.012313911198519016
leaf_count=1872 4872 1581 8719 237 940 8694 1957 478 474 2997 7041 19714
internal_value=0 -1.17398 -1.50265 -1.26308 -1.00659 -1.51437 -1.49279 -1.48111 -1.29859 -1.28803 -1.52114 -1.52858
internal_count=59576 8101 51475 5289 2812 46603 11129 9172 3708 3471 35474 26755
shrinkage=0.0081


Tree=12
num_leaves=13
num_cat=0
split_feature=0 0 0 0 0 0 0 0 0 0 0 0
split_gain=186.026 29.6996 16.5935 3.84478 2.6374 1.66944 1.74762 1.83656 1.48707 2.03145 1.48189 1.28253
threshold=12.186550000000002 10.421650000000001 12.975350000000002 11.176600000000002 9.856600000000002 16.809850000000001 18.711550000000006 18.522000000000002 11.261350000000002 11.420150000000001 14.053800000000001 13.918650000000001
decision_type=2 2 2 2 2 2 2 2 2 2 2 2
left_child=1 4 -2 -3 -1 10 7 -7 -5 -10 11 -4
right_child=2 3 5 8 -6 6 -8 -9 9 -11 -12 -13
leaf_value=-0.0077387592873475203 -0.011181856097470117 -0.0094844594987261756 -0.012126969194620021 -0.011684335606127668 -0.0087920462503818866 -0.011964325803573083 -0.012445285932254616 -0.010930100609489637 -0.0093681630783603569 -0.010511689793843839 -0.012292490240871845 -0.011553193372893648
leaf_count=1872 4872 1581 7528 237 940 8694 1957 478 474 2997 26755 1191
internal_value=0 -1.16512 -1.49182 -1.25364 -0.99885 -1.50346 -1.48203 -1.47042 -1.28894 -1.27845 -1.51019 -1.48748
internal_count=59576 8101 51475 5289 2812 46603 11129 9172 3708 3471 35474 8719
shrinkage=0.0081


Tree=13
num_leaves=13
num_cat=0
split_feature=0 0 0 0 0 0 0 0 0 0 0 0
split_gain=183.733 29.2994 16.3958 3.79534 2.60076 1.64718 1.72602 1.81339 1.46526 2.00499 1.46492 1.28046
threshold=12.186550000000002 10.421650000000001 12.975350000000002 11.176600000000002 9.856600000000002 16.809850000000001 18.711550000000006 18.522000000000002 11.261350000000002 11.420150000000001 14.053800000000001 14.759250000000002
decision_type=2 2 2 2 2 2 2 2 2 2 2 2
left_child=1 4 -2 -3 -1 10 7 -7 -5 -10 -4 -12
right_child=2 3 5 8 -6 6 -8 -9 9 -11 11 -13
leaf_value=-0.0076791856990888778 -0.011100536446599609 -0.0094132154662981242 -0.011962375449615575 -0.011598537282831951 -0.0087253820457254341 -0.011878779355835211 -0.012357001255400381 -0.010850667788336701 -0.0092978181104555694 -0.010434219916288272 -0.012393164691325662 -0.012137774939536635
leaf_count=1872 4872 1581 8719 237 940 8694 1957 478 474 2997 7041 19714
internal_value=0 -1.15637 -1.48116 -1.24433 -0.991199 -1.49274 -1.47144 -1.4599 -1.27942 -1.269 -1.49943 -1.50679
internal_count=59576 8101 51475 5289 2812 46603 11129 9172 3708 3471 35474 26755
shrinkage=0.0081


Tree=14
num_leaves=13
num_cat=0
split_feature=0 0 0 0 0 0 0 0 0 0 0 0
split_gain=181.516 28.9101 16.2054 3.74736 2.56501 1.62576 1.70524 1.79104 1.44862 1.44417 1.97931 1.2664
threshold=12.186550000000002 10.421650000000001 12.975350000000002 11.176600000000002 9.856600000000002 16.809850000000001 18.711550000000006 18.522000000000002 14.053800000000001 11.261350000000002 11.420150000000001 13.918650000000001
decision_type=2 2 2 2 2 2 2 2 2 2 2 2
left_child=1 4 -2 -3 -1 8 7 -7 11 -5 -11 -4
right_child=2 3 5 9 -6 6 -8 -9 -10 10 -12 -13
leaf_value=-0.0076202729064041783 -0.011020421621233388 -0.0093428804220437034 -0.011955496723346296 -0.011514081454402528 -0.008659520188573069 -0.011794597060982221 -0.012270191726215825 -0.010772381905047044 -0.012118919547447343 -0.0092283606044704404 -0.010357830002233297 -0.011384789634523227
leaf_count=1872 4872 1581 7528 237 940 8694 1957 478 26755 474 2997 1191
internal_value=0 -1.14774 -1.47067 -1.23515 -0.983636 -1.48219 -1.46102 -1.44954 -1.48884 -1.27003 -1.25968 -1.46636
internal_count=59576 8101 51475 5289 2812 46603 11129 9172 35474 3708 3471 8719
shrinkage=0.0081


Tree=15
num_leaves=13
num_cat=0
split_feature=0 0 0 0 0 0 0 0 0 0 0 0
split_gain=177.521 26.5267 6.60491 3.01785 0.749254 0.692835 1.31287 0.858506 0.639766 0.828063 0.623062 0.669343
threshold=11.495050000000001 13.101250000000002 10.550950000000002 12.448950000000002 9.2129500000000011 9.856600000000002 9.6839500000000012 10.01355 11.261350000000002 11.176600000000002 18.284750000000006 18.820100000000004
decision_type=2 2 2 2 2 2 2 2 2 2 2 2
left_child=2 3 4 -2 -1 6 -6 -7 9 -4 -3 -12
right_child=1 10 8 -5 5 7 -8 -9 -10 -11 11 -13
leaf_value=-0.0078195859137907397 -0.010758585814642381 -0.012030729838415844 -0.0094682006226117273 -0.011363942130736777 -0.0084396587188233629 -0.0073344962673413056 -0.0098324696511900306 -0.0083858884653659118 -0.0090253840112818062 -0.010541392905752159 -0.012537221393885909 -0.012048246993363846
leaf_count=696 4270 42521 1427 4444 890 262 223 938 703 219 1377 1606
internal_value=0 -1.46779 -1.08517 -1.36632 -1.02302 -1.04038 -1.07638 -1.00695 -1.1649 -1.18653 -1.48724 -1.51531
internal_count=59576 54218 5358 8714 3009 2313 1113 1200 2349 1646 45504 2983
shrinkage=0.0081


Tree=16
num_leaves=13
num_cat=0
split_feature=0 0 0 0 0 0 0 0 0 0 0 0
split_gain=175.453 26.245 6.52 2.98243 0.739017 0.681238 1.29445 0.846433 0.630571 0.817486 0.615356 0.659807
threshold=11.495050000000001 13.101250000000002 10.550950000000002 12.448950000000002 9.2129500000000011 9.856600000000002 9.6839500000000012 10.01355 11.261350000000002 11.176600000000002 18.284750000000006 18.820100000000004
decision_type=2 2 2 2 2 2 2 2 2 2 2 2
left_child=2 3 4 -2 -1 6 -6 -7 9 -4 -3 -12
right_child=1 10 8 -5 5 7 -8 -9 -10 -11 11 -13
leaf_value=-0.007760159556580699 -0.010681546637242868 -0.011947384525413055 -0.0093983243877265275 -0.011283636832215898 -0.0083757548975575951 -0.0072788528229477244 -0.0097591956048282188 -0.0083231068026096925 -0.0089586503575776206 -0.010465091726812226 -0.012450789595207607 -0.011965018367915973
leaf_count=696 4270 42521 1427 4444 890 262 223 938 703 219 1377 1606
internal_value=0 -1.45758 -1.07707 -1.3566 -1.0153 -1.03255 -1.06825 -0.999385 -1.15631 -1.17779 -1.47694 -1.50485
internal_count=59576 54218 5358 8714 3009 2313 1113 1200 2349 1646 45504 2983
shrinkage=0.0081


Tree=17
num_leaves=13
num_cat=0
split_feature=0 0 0 0 0 0 0 0 0 0 0 0
split_gain=173.451 25.9737 6.43723 2.9482 0.729028 0.669959 1.27653 0.834645 0.621633 0.807218 0.607954 0.650641
threshold=11.495050000000001 13.101250000000002 10.550950000000002 12.448950000000002 9.2129500000000011 9.856600000000002 9.6839500000000012 10.01355 11.261350000000002 11.176600000000002 18.284750000000006 18.820100000000004
decision_type=2 2 2 2 2 2 2 2 2 2 2 2
left_child=2 3 4 -2 -1 6 -6 -7 9 -4 -3 -12
right_child=1 10 8 -5 5 7 -8 -9 -10 -11 11 -13
leaf_value=-0.0077013886751283022 -0.010605591690363424 -0.011865363695659249 -0.0093293262673664959 -0.011204528978850508 -0.0083125952647748781 -0.0072237957871944666 -0.0096868833581005859 -0.0082610439381461537 -0.0088927209212864844 -0.010389846113260886 -0.012365806304237186 -0.01188311471039735
leaf_count=696 4270 42521 1427 4444 890 262 223 938 703 219 1377 1606
internal_value=0 -1.44753 -1.06906 -1.34703 -1.00768 -1.0248 -1.06022 -0.99191 -1.14783 -1.16917 -1.46681 -1.49457
internal_count=59576 54218 5358 8714 3009 2313 1113 1200 2349 1646 45504 2983
shrinkage=0.0081


Tree=18
num_leaves=13
num_cat=0
split_feature=0 0 0 0 0 0 0 0 0 0 0 0
split_gain=171.511 25.7123 6.35653 2.91512 0.719279 0.658984 1.25908 0.823134 0.612945 0.797247 0.600837 0.64183
threshold=11.495050000000001 13.101250000000002 10.550950000000002 12.448950000000002 9.2129500000000011 9.856600000000002 9.6839500000000012 10.01355 11.261350000000002 11.176600000000002 18.284750000000006 18.820100000000004
decision_type=2 2 2 2 2 2 2 2 2 2 2 2
left_child=2 3 4 -2 -1 6 -6 -7 9 -4 -3 -12
right_child=1 10 8 -5 5 7 -8 -9 -10 -11 11 -13
leaf_value=-0.0076432590049064957 -0.010530693402259176 -0.0117846317383917 -0.0092611859569867328 -0.011126586932758881 -0.0082501625784354958 -0.0071693124604755454 -0.0096155092640450024 -0.0081996844929253746 -0.0088275770283604213 -0.01031563045300243 -0.012282230892079582 -0.011802498824359133
leaf_count=696 4270 42521 1427 4444 890 262 223 938 703 219 1377 1606
internal_value=0 -1.43763 -1.06115 -1.33759 -1.00013 -1.01715 -1.05229 -0.984517 -1.13946 -1.16066 -1.45683 -1.48445
internal_count=59576 54218 5358 8714 3009 2313 1113 1200 2349 1646 45504 2983
shrinkage=0.0081


Tree=19
num_leaves=13
num_cat=0
split_feature=0 0 0 0 0 0 0 0 0 0 0 0
split_gain=169.632 25.4605 6.27783 2.88314 0.70976 0.648301 1.2421 0.811886 0.604496 0.787561 0.593993 0.633355
threshold=11.495050000000001 13.101250000000002 10.550950000000002 12.448950000000002 9.2129500000000011 9.856600000000002 9.6839500000000012 10.01355 11.261350000000002 11.176600000000002 18.284750000000006 18.820100000000004
decision_type=2 2 2 2 2 2 2 2 2 2 2 2
left_child=2 3 4 -2 -1 6 -6 -7 9 -4 -3 -12
right_child=1 10 8 -5 5 7 -8 -9 -10 -11 11 -13
leaf_value=-0.0075857583566992281 -0.010456824983727487 -0.011705153656944781 -0.0091938837975995159 -0.011049779911468726 -0.0081884412525638477 -0.0071153940413539165 -0.0095450512291434583 -0.0081390130879093695 -0.0087632019979471745 -0.010242418984902172 -0.01220002395668369 -0.011723136497569757
leaf_count=696 4270 42521 1427 4444 890 262 223 938 703 219 1377 1606
internal_value=0 -1.42789 -1.05333 -1.32828 -0.992674 -1.00959 -1.04445 -0.977207 -1.13119 -1.15225 -1.44701 -1.47449
internal_count=59576 54218 5358 8714 3009 2313 1113 1200 2349 1646 45504 2983
shrinkage=0.0081


Tree=20
num_leaves=13
num_cat=0
split_feature=0 0 0 0 0 0 0 0 0 0 0 0
split_gain=128.616 17.6647 11.9191 2.11299 2.0683 1.78787 1.52372 3.67822 1.6609 1.46305 1.08147 1.48072
threshold=11.565300000000002 13.038450000000003 9.6839500000000012 9.117300000000002 10.550950000000002 11.986850000000002 16.09965 15.549050000000003 16.550950000000004 11.695800000000002 13.545250000000001 13.363250000000003
decision_type=2 2 2 2 2 2 2 2 2 2 2 2
left_child=2 5 3 -1 -4 9 7 10 -8 -2 11 -3
right_child=1 6 4 -5 -6 -7 8 -9 -10 -11 -12 -13
leaf_value=-0.0091754711669268466 -0.01100884094200197 -0.011547154113232412 -0.0088161158457261812 -0.0074663803262025258 -0.0096016968325530732 -0.010861150612203128 -0.01115314935955637 -0.01202691870596399 -0.011534250701325814 -0.00994219608055299 -0.011601433548639477 -0.010883193804156806
leaf_count=221 485 2423 1324 1418 2690 6351 3967 5347 13158 1155 19618 1419
internal_value=0 -1.41291 -1.09435 -0.95021 -1.15337 -1.32557 -1.42814 -1.43709 -1.41308 -1.26636 -1.42622 -1.3953
internal_count=59576 53923 5653 1639 4014 7991 45932 28807 17125 1640 23460 3842
shrinkage=0.0081


Tree=21
num_leaves=13
num_cat=0
split_feature=0 0 0 0 0 0 0 0 0 0 0 0
split_gain=127.312 17.5087 11.7711 2.08392 2.04467 1.76976 1.50626 3.63824 1.64135 1.44529 1.07324 1.07065
threshold=11.565300000000002 13.038450000000003 9.6839500000000012 9.117300000000002 10.550950000000002 11.986850000000002 16.09965 15.549050000000003 16.550950000000004 11.695800000000002 9.3559000000000019 13.545250000000001
decision_type=2 2 2 2 2 2 2 2 2 2 2 2
left_child=2 5 3 -1 -4 9 7 11 -8 -2 -5 -3
right_child=1 6 4 10 -6 -7 8 -9 -10 -11 -12 -13
leaf_value=-0.0091084485387781938 -0.01093329838940298 -0.011226323324689992 -0.0087518540423306423 -0.0070824547475075942 -0.0095332738541671885 -0.010786987418154629 -0.011078519945014997 -0.011947982419529097 -0.011457641994020598 -0.0098725126196429376 -0.0080203702550998845 -0.011524513514668074
leaf_count=221 485 3842 1324 922 2690 6351 3967 5347 13158 1155 496 19618
internal_value=0 -1.40348 -1.0864 -0.943122 -1.14509 -1.31648 -1.41866 -1.42757 -1.40368 -1.25754 -0.914876 -1.41675
internal_count=59576 53923 5653 1639 4014 7991 45932 28807 17125 1640 1418 23460
shrinkage=0.0081


Tree=22
num_leaves=13
num_cat=0
split_feature=0 0 0 0 0 0 0 0 0 0 0 0
split_gain=126.048 17.3582 11.6266 2.05554 2.02165 1.75221 1.48943 3.59976 1.62251 1.42808 1.06022 1.46471
threshold=11.565300000000002 13.038450000000003 9.6839500000000012 9.117300000000002 10.550950000000002 11.986850000000002 16.09965 15.549050000000003 16.550950000000004 11.695800000000002 13.545250000000001 13.363250000000003
decision_type=2 2 2 2 2 2 2 2 2 2 2 2
left_child=2 5 3 -1 -4 9 7 10 -8 -2 11 -3
right_child=1 6 4 -5 -6 -7 8 -9 -10 -11 -12 -13
leaf_value=-0.0090422379944656087 -0.010858826030141938 -0.011396023065227447 -0.008688340761074614 -0.0073552062356304054 -0.0094657007162380347 -0.010713855711927713 -0.01100495386195754 -0.011870281683543923 -0.011382171214215595 -0.0098037180185765894 -0.011448744237879832 -0.010734717289376496
leaf_count=221 485 2423 1324 1418 2690 6351 3967 5347 13158 1155 19618 1419
internal_value=0 -1.3942 -1.07855 -0.936109 -1.1369 -1.30752 -1.40933 -1.41819 -1.39442 -1.24883 -1.40742 -1.37676
internal_count=59576 53923 5653 1639 4014 7991 45932 28807 17125 1640 23460 3842
shrinkage=0.0081


Tree=23
num_leaves=13
num_cat=0
split_feature=0 0 0 0 0 0 0 0 0 0 0 0
split_gain=124.823 17.2131 11.4856 2.02785 1.99922 1.73521 1.47322 3.56274 1.60433 1.4114 1.05897 1.05095
threshold=11.565300000000002 13.038450000000003 9.6839500000000012 9.117300000000002 10.550950000000002 11.986850000000002 16.09965 15.549050000000003 16.550950000000004 11.695800000000002 9.3559000000000019 14.028050000000002
decision_type=2 2 2 2 2 2 2 2 2 2 2 2
left_child=2 5 3 -1 -4 9 7 11 -8 -2 -5 -3
right_child=1 6 4 10 -6 -7 8 -9 -10 -11 -12 -13
leaf_value=-0.008976820037019809 -0.010785396550221161 -0.011174326221643952 -0.0086255604859018387 -0.0069744330188327005 -0.0093989576273327234 -0.010641728858379726 -0.010932423924967702 -0.011793784234278916 -0.011307808690321549 -0.0097357898428843941 -0.0079067153872174473 -0.011404904706633859
leaf_count=221 485 8063 1324 922 2690 6351 3967 5347 13158 1155 496 15397
internal_value=0 -1.38505 -1.07079 -0.929171 -1.12882 -1.29868 -1.40013 -1.40895 -1.38529 -1.24024 -0.901295 -1.39823
internal_count=59576 53923 5653 1639 4014 7991 45932 28807 17125 1640 1418 23460
shrinkage=0.0081


Tree=24
num_leaves=13
num_cat=0
split_feature=0 0 0 0 0 0 0 0 0 0 0 0
split_gain=123.634 17.0731 11.3479 2.0008 1.97736 1.71873 1.45759 3.5271 1.58677 1.39523 1.04575 1.44986
threshold=11.565300000000002 13.038450000000003 9.6839500000000012 9.117300000000002 10.550950000000002 11.986850000000002 16.09965 15.549050000000003 16.550950000000004 11.695800000000002 13.545250000000001 13.363250000000003
decision_type=2 2 2 2 2 2 2 2 2 2 2 2
left_child=2 5 3 -1 -4 9 7 10 -8 -2 11 -3
right_child=1 6 4 -5 -6 -7 8 -9 -10 -11 -12 -13
leaf_value=-0.0089121777770747364 -0.010712984512075242 -0.011248656351720647 -0.0085634969933603908 -0.0072463333787682396 -0.0093330257681410699 -0.010570583094527911 -0.010860905031090353 -0.011718458575380732 -0.011234525077547769 -0.0096687088562125763 -0.011300658820305811 -0.010589699536656356
leaf_count=221 485 2423 1324 1418 2690 6351 3967 5347 13158 1155 19618 1419
internal_value=0 -1.37603 -1.06312 -0.922306 -1.12084 -1.28995 -1.39106 -1.39984 -1.37629 -1.23176 -1.38917 -1.35868
internal_count=59576 53923 5653 1639 4014 7991 45932 28807 17125 1640 23460 3842
shrinkage=0.0081


Tree=25
num_leaves=13
num_cat=0
split_feature=0 0 0 0 0 0 0 0 0 0 0 0
split_gain=162.845 24.0763 11.2 3.57279 1.58251 1.57841 1.17115 1.15973 1.05439 0.987891 0.843569 3.15648
threshold=12.186550000000002 10.01355 13.516700000000002 10.990750000000002 16.025150000000004 12.676650000000002 13.545250000000001 12.640450000000001 9.267450000000002 15.830550000000002 11.261350000000002 11.420150000000001
decision_type=2 2 2 2 2 2 2 2 2 2 2 2
left_child=1 8 5 -3 6 7 -4 -2 -1 -8 -5 -12
right_child=2 3 4 10 -6 -7 9 -9 -10 -11 11 -13
leaf_value=-0.0067609267582399218 -0.010380294953697994 -0.0085801852136969739 -0.012450847839800199 -0.0099658148731711846 -0.011118165272764206 -0.01074814377051915 -0.011279868571948666 -0.0091851512428581476 -0.0074882745926938311 -0.011668309037604295 -0.0081352975527579398 -0.0095368800493154035
leaf_count=958 2625 1863 244 679 17636 6026 22709 237 1179 1908 499 3013
internal_value=0 -1.06754 -1.3736 -1.13262 -1.38727 -1.30836 -1.39767 -1.26929 -0.88421 -1.39629 -1.16533 -1.15273
internal_count=59576 8191 51385 6054 42497 8888 24861 2862 2137 24617 4191 3512
shrinkage=0.0081


Tree=26
num_leaves=13
num_cat=0
split_feature=0 0 0 0 0 0 0 0 0 0 0 0
split_gain=161.308 23.7981 11.1063 3.53665 1.56701 1.56351 1.15799 1.14631 1.04014 0.978403 0.830938 3.12141
threshold=12.186550000000002 10.01355 13.516700000000002 10.990750000000002 16.025150000000004 12.676650000000002 13.545250000000001 12.640450000000001 9.267450000000002 15.830550000000002 11.261350000000002 11.420150000000001
decision_type=2 2 2 2 2 2 2 2 2 2 2 2
left_child=1 8 5 -3 6 7 -4 -2 -1 -8 -5 -12
right_child=2 3 4 10 -6 -7 9 -9 -10 -11 11 -13
leaf_value=-0.0067108138177396325 -0.010311745689378517 -0.0085194155199688759 -0.012373719223733769 -0.0098975263640408359 -0.011047147752628404 -0.010678231118996906 -0.011208203326558881 -0.0091227445934097418 -0.0074334964425600454 -0.011595127342053153 -0.0080774685756420505 -0.0094719672731379996
leaf_count=958 2625 1863 244 679 17636 6026 22709 237 1179 1908 499 3013
internal_value=0 -1.06003 -1.36481 -1.12478 -1.37845 -1.2998 -1.38881 -1.26089 -0.877704 -1.38743 -1.15735 -1.14484
internal_count=59576 8191 51385 6054 42497 8888 24861 2862 2137 24617 4191 3512
shrinkage=0.0081


Tree=27
num_leaves=13
num_cat=0
split_feature=0 0 0 0 0 0 0 0 0 0 0 0
split_gain=159.816 23.5262 11.0158 3.50139 1.55207 1.54908 1.14533 1.13329 1.0262 0.969268 0.820708 0.818673
threshold=12.186550000000002 10.01355 13.516700000000002 10.990750000000002 16.025150000000004 12.676650000000002 13.545250000000001 12.640450000000001 9.267450000000002 15.830550000000002 15.902950000000002 11.261350000000002
decision_type=2 2 2 2 2 2 2 2 2 2 2 2
left_child=1 8 5 -3 6 7 -4 -2 -1 -8 -11 -5
right_child=2 3 4 11 -6 -7 9 -9 -10 10 -12 -13
leaf_value=-0.0066611870077634737 -0.010244084156603514 -0.0084593199750881958 -0.012297847216340255 -0.0098300979695727965 -0.010977120432480688 -0.010609257565581134 -0.011137556215360528 -0.0090610524852590899 -0.0073792799232838989 -0.011959685591683632 -0.011257211097717625 -0.0092099824459373602
leaf_count=958 2625 1863 244 679 17636 6026 22709 237 1179 722 1186 3512
internal_value=0 -1.0526 -1.35615 -1.11703 -1.36974 -1.29135 -1.38006 -1.2526 -0.871262 -1.37869 -1.4226 -1.14946
internal_count=59576 8191 51385 6054 42497 8888 24861 2862 2137 24617 1908 4191
shrinkage=0.0081


Tree=28
num_leaves=13
num_cat=0
split_feature=0 0 0 0 0 0 0 0 0 0 0 0
split_gain=158.368 23.2601 10.9284 3.46684 1.53766 1.5351 1.13315 1.12064 1.01255 0.960475 0.812283 0.806824
threshold=12.186550000000002 10.01355 13.516700000000002 10.990750000000002 16.025150000000004 12.676650000000002 13.545250000000001 12.640450000000001 9.267450000000002 15.830550000000002 15.902950000000002 11.261350000000002
decision_type=2 2 2 2 2 2 2 2 2 2 2 2
left_child=1 8 5 -3 6 7 -4 -2 -1 -8 -11 -5
right_child=2 3 4 11 -6 -7 9 -9 -10 10 -12 -13
leaf_value=-0.0066120390809234009 -0.010177288437468526 -0.0083998839388571053 -0.012223198681861551 -0.0097635100978875327 -0.01090805887509007 -0.010541200121098578 -0.011067900930430896 -0.0090000602487052741 -0.007325613645469427 -0.011886849990113954 -0.011187301789554148 -0.0091474892635532105
leaf_count=958 2625 1863 244 679 17636 6026 22709 237 1179 722 1186 3512
internal_value=0 -1.04525 -1.34761 -1.10937 -1.36116 -1.28302 -1.37144 -1.24441 -0.864884 -1.37008 -1.41383 -1.14166
internal_count=59576 8191 51385 6054 42497 8888 24861 2862 2137 24617 1908 4191
shrinkage=0.0081


Tree=29
num_leaves=13
num_cat=0
split_feature=0 0 0 0 0 0 0 0 0 0 0 0
split_gain=156.962 22.9998 10.8441 3.43311 1.52376 1.52156 1.12142 1.10835 0.999171 0.952008 0.804174 0.795313
threshold=12.186550000000002 10.01355 13.516700000000002 10.990750000000002 16.025150000000004 12.676650000000002 13.545250000000001 12.640450000000001 9.267450000000002 15.830550000000002 15.902950000000002 11.261350000000002
decision_type=2 2 2 2 2 2 2 2 2 2 2 2
left_child=1 8 5 -3 6 7 -4 -2 -1 -8 -11 -5
right_child=2 3 4 11 -6 -7 9 -9 -10 10 -12 -13
leaf_value=-0.0065633613018995273 -0.010111337889679923 -0.0083410932472438824 -0.012149740098127868 -0.0096977414639368466 -0.010839939068960677 -0.010474035967762207 -0.010999212526462273 -0.0089397515423990104 -0.0072724876582394371 -0.011815128033243225 -0.011118375227699283 -0.0090857130092292585
leaf_count=958 2625 1863 244 679 17636 6026 22709 237 1179 722 1186 3512
internal_value=0 -1.03799 -1.33919 -1.1018 -1.3527 -1.27479 -1.36295 -1.23632 -0.85857 -1.36159 -1.40518 -1.13396
internal_count=59576 8191 51385 6054 42497 8888 24861 2862 2137 24617 1908 4191
shrinkage=0.0081


Tree=30
num_leaves=13
num_cat=0
split_feature=0 0 0 0 0 0 0 0 0 0 0 0
split_gain=187.797 18.5388 9.40317 1.23473 1.19236 1.8765 1.02306 1.54256 1.43201 2.6611 2.35688 0.983431
threshold=11.340650000000002 12.676650000000002 10.550950000000002 11.084500000000002 12.601450000000002 12.489750000000003 18.080200000000005 18.284750000000006 14.598650000000001 14.552950000000001 14.689650000000002 11.261350000000002
decision_type=2 2 2 2 2 2 2 2 2 2 2 2
left_child=2 4 -1 -4 5 -2 8 -8 9 -3 -10 -5
right_child=1 6 3 11 -6 -7 7 -9 10 -11 -12 -13
leaf_value=-0.0068401805948003656 -0.0098538771662540266 -0.010792849105937703 -0.0079883642506440242 -0.0092848381843987811 -0.0091266266720827702 -0.01075919976229448 -0.0098981167274417563 -0.010756936292809769 -0.01175054997174131 -0.0095246551956308118 -0.010922609758921611 -0.007987935911746501
leaf_count=3012 4913 15657 1163 474 495 707 696 3059 965 462 27739 234
internal_value=0 -1.32728 -0.914069 -1.0267 -1.22216 -1.23055 -1.34059 -1.30836 -1.34329 -1.32797 -1.35191 -1.09328
internal_count=59576 54693 4883 1871 6115 5620 48578 3755 44823 16119 28704 708
shrinkage=0.0081


Tree=31
num_leaves=13
num_cat=0
split_feature=0 0 0 0 0 0 0 0 0 0 0 0
split_gain=186.052 18.4146 9.29424 1.22017 1.1776 1.85946 1.01168 1.5268 1.42214 2.63153 2.33385 0.972212
threshold=11.340650000000002 12.676650000000002 10.550950000000002 11.084500000000002 12.601450000000002 12.489750000000003 18.080200000000005 18.284750000000006 14.598650000000001 14.552950000000001 14.689650000000002 11.261350000000002
decision_type=2 2 2 2 2 2 2 2 2 2 2 2
left_child=2 4 -1 -4 5 -2 8 -8 9 -3 -10 -5
right_child=1 6 3 11 -6 -7 7 -9 10 -11 -12 -13
leaf_value=-0.0067906399750295495 -0.0097897066531930765 -0.010726221555795876 -0.0079328083157224893 -0.0092225710596468349 -0.0090665934470809968 -0.010691722148805665 -0.0098356194819543448 -0.010690818815754297 -0.011680545065792861 -0.0094639938269119196 -0.010855776576825375 -0.0079322975891554879
leaf_count=3012 4913 15657 1163 474 495 707 696 3059 965 462 27739 234
internal_value=0 -1.31908 -0.907571 -1.01962 -1.21423 -1.22258 -1.33236 -1.30028 -1.33505 -1.31976 -1.34364 -1.08585
internal_count=59576 54693 4883 1871 6115 5620 48578 3755 44823 16119 28704 708
shrinkage=0.0081


Tree=32
num_leaves=13
num_cat=0
split_feature=0 0 0 0 0 0 0 0 0 0 0 0
split_gain=184.353 18.2944 9.18752 1.20594 1.16327 1.84293 1.00067 1.51153 1.41263 2.60287 2.31166 0.961263
threshold=11.340650000000002 12.676650000000002 10.550950000000002 11.084500000000002 12.601450000000002 12.489750000000003 18.080200000000005 18.284750000000006 14.598650000000001 14.552950000000001 14.689650000000002 11.261350000000002
decision_type=2 2 2 2 2 2 2 2 2 2 2 2
left_child=2 4 -1 -4 5 -2 8 -8 9 -3 -10 -5
right_child=1 6 3 11 -6 -7 7 -9 10 -11 -12 -13
leaf_value=-0.0067415700848837464 -0.0097263100699818243 -0.010660474969444791 -0.0078778200216005866 -0.0091610181979832599 -0.0090072264041245239 -0.010625138206130381 -0.0097738655354012091 -0.010625570685748363 -0.011611577876404896 -0.0094040241409342386 -0.010789838926095885 -0.0078772284984705929
leaf_count=3012 4913 15657 1163 474 495 707 696 3059 965 462 27739 234
internal_value=0 -1.31098 -0.901137 -1.01262 -1.2064 -1.2147 -1.32424 -1.2923 -1.32691 -1.31167 -1.33549 -1.07851
internal_count=59576 54693 4883 1871 6115 5620 48578 3755 44823 16119 28704 708
shrinkage=0.0081


Tree=33
num_leaves=13
num_cat=0
split_feature=0 0 0 0 0 0 0 0 0 0 0 0
split_gain=182.697 18.1783 9.08294 1.19205 1.14934 1.82691 0.99002 1.49674 1.40347 2.57509 2.29026 0.950573
threshold=11.340650000000002 12.676650000000002 10.550950000000002 11.084500000000002 12.601450000000002 12.489750000000003 18.080200000000005 18.284750000000006 14.598650000000001 14.552950000000001 14.689650000000002 11.261350000000002
decision_type=2 2 2 2 2 2 2 2 2 2 2 2
left_child=2 4 -1 -4 5 -2 8 -8 9 -3 -10 -5
right_child=1 6 3 11 -6 -7 7 -9 10 -11 -12 -13
leaf_value=-0.0066929627513025872 -0.009663668570370423 -0.01059558733644711 -0.0078233882941794557 -0.0091001647411207941 -0.0089485116352012607 -0.010559426117388323 -0.0097128392525646524 -0.010561169097151898 -0.011543622698858298 -0.0093447308359953137 -0.010724774764746852 -0.0078227181588763246
leaf_count=3012 4913 15657 1163 474 495 707 696 3059 965 462 27739 234
internal_value=0 -1.303 -0.894766 -1.00569 -1.19865 -1.20691 -1.31622 -1.28442 -1.31889 -1.30367 -1.32744 -1.07124
internal_count=59576 54693 4883 1871 6115 5620 48578 3755 44823 16119 28704 708
shrinkage=0.0081


Tree=34
num_leaves=13
num_cat=0
split_feature=0 0 0 0 0 0 0 0 0 0 0 0
split_gain=181.083 18.0659 8.98042 1.17848 1.13579 1.81136 0.979717 1.4824 1.39463 2.54815 2.26964 0.940135
threshold=11.340650000000002 12.676650000000002 10.550950000000002 11.084500000000002 12.601450000000002 12.489750000000003 18.080200000000005 18.284750000000006 14.598650000000001 14.552950000000001 14.689650000000002 11.261350000000002
decision_type=2 2 2 2 2 2 2 2 2 2 2 2
left_child=2 4 -1 -4 5 -2 8 -8 9 -3 -10 -5
right_child=1 6 3 11 -6 -7 7 -9 10 -11 -12 -13
leaf_value=-0.0066448101558801856 -0.0096017651753279084 -0.010531538092729735 -0.0077695020309854054 -0.0090399943422415831 -0.0088904342663832549 -0.01049456471129361 -0.0096525214774535878 -0.010497594631182106 -0.011476653235680824 -0.0092860977157685973 -0.010660563184658807 -0.0077687544808409835
leaf_count=3012 4913 15657 1163 474 495 707 696 3059 965 462 27739 234
internal_value=0 -1.29511 -0.888456 -0.998833 -1.191 -1.19922 -1.30831 -1.27664 -1.31097 -1.29578 -1.3195 -1.06406
internal_count=59576 54693 4883 1871 6115 5620 48578 3755 44823 16119 28704 708
shrinkage=0.0081


Tree=35
num_leaves=13
num_cat=0
split_feature=0 0 0 0 0 0 0 0 0 0 0 0
split_gain=152.26 24.1793 9.80227 2.95805 2.26284 2.00358 1.69054 1.39715 1.67991 1.65372 0.481741 0.812122
threshold=11.627750000000001 13.007750000000001 9.856600000000002 11.176600000000002 9.117300000000002 13.486650000000003 9.3559000000000019 12.088250000000002 12.911650000000002 12.812050000000001 14.250450000000003 13.601750000000001
decision_type=2 2 2 2 2 2 2 2 2 2 2 2
left_child=2 7 4 -4 -1 -3 -6 -2 9 -9 11 -7
right_child=1 5 3 -5 6 10 -8 8 -10 -11 -12 -13
leaf_value=-0.008212665266932203 -0.0091723986266529119 -0.010195821984314518 -0.0077957918326941895 -0.0087225078378316973 -0.006066539473123478 -0.010923355149353204 -0.0071096145067007337 -0.0096767134193255968 -0.0089194158186794419 -0.010554397956977771 -0.010630270717340708 -0.010404213136350491
leaf_count=237 1878 3524 2555 1462 984 962 719 4198 674 680 35899 5804
internal_value=0 -1.28807 -0.946637 -1.00394 -0.828967 -1.30553 -0.803268 -1.1803 -1.19658 -1.20975 -1.3094 -1.29358
internal_count=59576 53619 5957 4017 1940 46189 1703 7430 5552 4878 42665 6766
shrinkage=0.0081


Tree=36
num_leaves=13
num_cat=0
split_feature=0 0 0 0 0 0 0 0 0 0 0 0
split_gain=151.039 24.0165 9.69815 2.92938 2.23379 1.98877 1.66869 1.38772 1.66096 1.63784 0.477795 0.804276
threshold=11.627750000000001 13.007750000000001 9.856600000000002 11.176600000000002 9.117300000000002 13.486650000000003 9.3559000000000019 12.088250000000002 12.911650000000002 12.812050000000001 14.250450000000003 13.601750000000001
decision_type=2 2 2 2 2 2 2 2 2 2 2 2
left_child=2 7 4 -4 -1 -3 -6 -2 9 -9 11 -7
right_child=1 5 3 -5 6 10 -8 8 -10 -11 -12 -13
leaf_value=-0.0081556967166866723 -0.009113332573443279 -0.010134296385145829 -0.007742232768368486 -0.0086651014149923961 -0.0060222971249775459 -0.010859471863368371 -0.0070590840979578504 -0.009616323470160712 -0.0088627412839013507 -0.010490675497179996 -0.010567579867821166 -0.010342263850399821
leaf_count=237 1878 3524 2555 1462 984 962 719 4198 674 680 35899 5804
internal_value=0 -1.28039 -0.940104 -0.997146 -0.823015 -1.29781 -0.797473 -1.17289 -1.18912 -1.20223 -1.30167 -1.2859
internal_count=59576 53619 5957 4017 1940 46189 1703 7430 5552 4878 42665 6766
shrinkage=0.0081


Tree=37
num_leaves=13
num_cat=0
split_feature=0 0 0 0 0 0 0 0 0 0 0 0
split_gain=149.849 23.8588 9.59597 2.9013 2.20533 1.97446 1.64726 1.37853 1.64881 0.542865 1.51392 0.843616
threshold=11.627750000000001 13.007750000000001 9.856600000000002 11.176600000000002 9.117300000000002 13.486650000000003 9.3559000000000019 12.088250000000002 12.975350000000002 12.778300000000002 12.911650000000002 12.943750000000001
decision_type=2 2 2 2 2 2 2 2 2 2 2 2
left_child=2 7 4 -4 -1 -3 -6 -2 9 -9 -11 -12
right_child=1 5 3 -5 6 -7 -8 8 -10 10 11 -13
leaf_value=-0.0080993231314663745 -0.0090549150426541408 -0.010073514487599258 -0.0076892023390492991 -0.0086083010600146292 -0.0059784494741430697 -0.010481675765724152 -0.0070090364644521275 -0.0095338216843654459 -0.0082065417197053001 -0.010299551872508928 -0.0084180825597351371 -0.0098639012612393284
leaf_count=237 1878 3524 2555 1462 984 42665 719 3959 232 919 227 215
internal_value=0 -1.2728 -0.933635 -0.990422 -0.817118 -1.29018 -0.791731 -1.16555 -1.18176 -1.1891 -1.22429 -1.12609
internal_count=59576 53619 5957 4017 1940 46189 1703 7430 5552 5320 1361 442
shrinkage=0.0081


Tree=38
num_leaves=13
num_cat=0
split_feature=0 0 0 0 0 0 0 0 0 0 0 0
split_gain=148.689 23.7059 9.49568 2.87381 2.17745 1.96061 1.62622 1.36958 1.63071 0.538233 1.49891 0.834718
threshold=11.627750000000001 13.007750000000001 9.856600000000002 11.176600000000002 9.117300000000002 13.486650000000003 9.3559000000000019 12.088250000000002 12.975350000000002 12.778300000000002 12.911650000000002 12.943750000000001
decision_type=2 2 2 2 2 2 2 2 2 2 2 2
left_child=2 7 4 -4 -1 -3 -6 -2 9 -9 -11 -12
right_child=1 5 3 -5 6 -7 -8 8 -10 10 11 -13
leaf_value=-0.0080435326000396594 -0.0089971319022373389 -0.010013459173991107 -0.0076366904524144026 -0.0085520948177029658 -0.0059349902952941123 -0.01042062504430722 -0.0069594611907910367 -0.0094748825067576606 -0.0081539089425249137 -0.010237893784801708 -0.0083643084958801833 -0.0098038279590718768
leaf_count=237 1878 3524 2555 1462 984 42665 719 3959 232 919 227 215
internal_value=0 -1.26531 -0.927229 -0.983766 -0.811275 -1.28265 -0.786041 -1.1583 -1.17447 -1.18178 -1.21686 -1.11906
internal_count=59576 53619 5957 4017 1940 46189 1703 7430 5552 5320 1361 442
shrinkage=0.0081


Tree=39
num_leaves=13
num_cat=0
split_feature=0 0 0 0 0 0 0 0 0 0 0 0
split_gain=147.557 23.5578 9.39721 2.84687 2.15014 1.94721 1.60558 1.36086 1.61308 0.533738 1.48433 0.82605
threshold=11.627750000000001 13.007750000000001 9.856600000000002 11.176600000000002 9.117300000000002 13.486650000000003 9.3559000000000019 12.088250000000002 12.975350000000002 12.778300000000002 12.911650000000002 12.943750000000001
decision_type=2 2 2 2 2 2 2 2 2 2 2 2
left_child=2 7 4 -4 -1 -3 -6 -2 9 -9 -11 -12
right_child=1 5 3 -5 6 -7 -8 8 -10 10 11 -13
leaf_value=-0.0079883141058887316 -0.0089399701280725632 -0.0099541131825226 -0.0075846878923497571 -0.0084964700122916372 -0.0058919135502244297 -0.010360330534533186 -0.0069103511547119233 -0.0094166030674496838 -0.0081017846386333154 -0.010176989031565191 -0.0083110660377667782 -0.0097444523439865136
leaf_count=237 1878 3524 2555 1462 984 42665 719 3959 232 919 227 215
internal_value=0 -1.2579 -0.920885 -0.977176 -0.805487 -1.27522 -0.780403 -1.15114 -1.16727 -1.17455 -1.20952 -1.11211
internal_count=59576 53619 5957 4017 1940 46189 1703 7430 5552 5320 1361 442
shrinkage=0.0081


Tree=40
num_leaves=13
num_cat=0
split_feature=0 0 0 0 0 0 0 0 0 0 0 0
split_gain=128.969 24.3341 5.77985 2.26387 1.19858 1.04694 0.870416 1.17422 0.798038 1.02999 0.836515 0.81186
threshold=11.420150000000001 13.164950000000001 10.01355 9.117300000000002 12.232750000000001 13.363250000000003 12.186550000000002 12.137750000000002 14.053800000000001 14.736850000000002 14.001150000000001 14.759250000000002
decision_type=2 2 2 2 2 2 2 2 2 2 2 2
left_child=2 4 3 -1 6 -3 7 -2 10 -10 -7 -11
right_child=1 5 -4 -5 -6 8 -8 -9 9 11 -12 -13
leaf_value=-0.0081608023777300798 -0.0090220479340633319 -0.010673610836344894 -0.0078142269154750539 -0.0065037091381117485 -0.009437446750303724 -0.010094115880208159 -0.0080933161949277507 -0.010198765036973992 -0.010428841541790457 -0.0092279126887360539 -0.0093586381578199904 -0.010210318860589575
leaf_count=252 2768 1424 3099 1863 6063 5543 245 254 6828 235 464 30538
internal_value=0 -1.24309 -0.908657 -0.827246 -1.14804 -1.26295 -1.11654 -1.12601 -1.26116 -1.26467 -1.23917 -1.25961
internal_count=59576 54362 5214 2115 9330 45032 3267 3022 43608 37601 6007 30773
shrinkage=0.0081


Tree=41
num_leaves=13
num_cat=0
split_feature=0 0 0 0 0 0 0 0 0 0 0 0
split_gain=128.037 24.1929 5.72196 2.23613 1.19344 1.03555 0.859753 1.16356 0.792368 1.02111 0.828688 0.804225
threshold=11.420150000000001 13.164950000000001 10.01355 9.117300000000002 12.232750000000001 13.363250000000003 12.186550000000002 12.137750000000002 14.053800000000001 14.736850000000002 14.001150000000001 14.759250000000002
decision_type=2 2 2 2 2 2 2 2 2 2 2 2
left_child=2 4 3 -1 6 -3 7 -2 10 -10 -7 -11
right_child=1 5 -4 -5 -6 8 -8 -9 9 11 -12 -13
leaf_value=-0.0081054456148273151 -0.0089654686641540051 -0.010613102067817735 -0.0077619252245602153 -0.0064574812984864805 -0.0093804249303405356 -0.010035783958657514 -0.0080417832066190346 -0.010138077881278603 -0.010369635946761047 -0.0091729619284511652 -0.0093029602567069984 -0.010151791290098938
leaf_count=252 2768 1424 3099 1863 6063 5543 245 254 6828 235 464 30538
internal_value=0 -1.23588 -0.902436 -0.821398 -1.14102 -1.25571 -1.10955 -1.11898 -1.25393 -1.25744 -1.232 -1.25238
internal_count=59576 54362 5214 2115 9330 45032 3267 3022 43608 37601 6007 30773
shrinkage=0.0081


Tree=42
num_leaves=13
num_cat=0
split_feature=0 0 0 0 0 0 0 0 0 0 0 0
split_gain=127.126 24.0559 5.66507 2.20894 1.18843 1.02452 0.849356 1.15318 0.786876 1.01252 0.821089 0.796811
threshold=11.420150000000001 13.164950000000001 10.01355 9.117300000000002 12.232750000000001 13.363250000000003 12.186550000000002 12.137750000000002 14.053800000000001 14.736850000000002 14.001150000000001 14.759250000000002
decision_type=2 2 2 2 2 2 2 2 2 2 2 2
left_child=2 4 3 -1 6 -3 7 -2 10 -10 -7 -11
right_child=1 5 -4 -5 -6 8 -8 -9 9 11 -12 -13
leaf_value=-0.0080506519644439403 -0.0089094863598944366 -0.010553354739754165 -0.0077101267167693169 -0.0064116681369809922 -0.0093240238998701444 -0.0099781329913725299 -0.0079907374526517229 -0.010078119621253065 -0.01031115112455889 -0.0091185860023070293 -0.0092478748420940209 -0.010093955867165697
leaf_count=252 2768 1424 3099 1863 6063 5543 245 254 6828 235 464 30538
internal_value=0 -1.22876 -0.896273 -0.815603 -1.13407 -1.24856 -1.10265 -1.11202 -1.24678 -1.25028 -1.2249 -1.24525
internal_count=59576 54362 5214 2115 9330 45032 3267 3022 43608 37601 6007 30773
shrinkage=0.0081


Tree=43
num_leaves=13
num_cat=0
split_feature=0 0 0 0 0 0 0 0 0 0 0 0
split_gain=126.236 23.923 5.60914 2.18229 1.18354 1.01383 0.839217 1.14308 0.781553 1.0042 0.813704 0.789609
threshold=11.420150000000001 13.164950000000001 10.01355 9.117300000000002 12.232750000000001 13.363250000000003 12.186550000000002 12.137750000000002 14.053800000000001 14.736850000000002 14.001150000000001 14.759250000000002
decision_type=2 2 2 2 2 2 2 2 2 2 2 2
left_child=2 4 3 -1 6 -3 7 -2 10 -10 -7 -11
right_child=1 5 -4 -5 -6 8 -8 -9 9 11 -12 -13
leaf_value=-0.0079964094400418288 -0.0088540888738002695 -0.010494353762214657 -0.0076588216392143253 -0.0063662624577799061 -0.0092682299980358651 -0.0099211475542159335 -0.0079401698378768655 -0.010018873393748145 -0.0102533696930552 -0.0090647728599104731 -0.0091933706412030466 -0.010036796822616328
leaf_count=252 2768 1424 3099 1863 6063 5543 245 254 6828 235 464 30538
internal_value=0 -1.22172 -0.890168 -0.80986 -1.1272 -1.24149 -1.09581 -1.10514 -1.23972 -1.24321 -1.21789 -1.23819
internal_count=59576 54362 5214 2115 9330 45032 3267 3022 43608 37601 6007 30773
shrinkage=0.0081


Tree=44
num_leaves=13
num_cat=0
split_feature=0 0 0 0 0 0 0 0 0 0 0 0
split_gain=125.367 23.794 5.55415 2.15616 1.17875 1.00348 0.829324 1.13325 0.7764 0.996142 0.80653 0.782612
threshold=11.420150000000001 13.164950000000001 10.01355 9.117300000000002 12.232750000000001 13.363250000000003 12.186550000000002 12.137750000000002 14.053800000000001 14.736850000000002 14.001150000000001 14.759250000000002
decision_type=2 2 2 2 2 2 2 2 2 2 2 2
left_child=2 4 3 -1 6 -3 7 -2 10 -10 -7 -11
right_child=1 5 -4 -5 -6 8 -8 -9 9 11 -12 -13
leaf_value=-0.0079427076130687228 -0.0087992631338315291 -0.010436080376292848 -0.0076080009018275061 -0.0063212585964931697 -0.0092130297684117207 -0.0098648118549186925 -0.0078900714614138032 -0.0099603220346869865 -0.010196276102581968 -0.0090115102719491927 -0.0091394334265802075 -0.0099802987503844458
leaf_count=252 2768 1424 3099 1863 6063 5543 245 254 6828 235 464 30538
internal_value=0 -1.21476 -0.884119 -0.804169 -1.1204 -1.23451 -1.08904 -1.09833 -1.23274 -1.23623 -1.21096 -1.23122
internal_count=59576 54362 5214 2115 9330 45032 3267 3022 43608 37601 6007 30773
shrinkage=0.0081


Tree=45
num_leaves=13
num_cat=0
split_feature=0 0 0 0 0 0 0 0 0 0 0 0
split_gain=158.131 21.0633 9.91427 3.28743 1.5156 1.47052 1.01037 1.26487 1.8668 0.929621 1.38539 1.57282
threshold=12.407250000000001 11.495050000000001 13.038450000000003 10.150450000000001 14.250450000000003 13.918650000000001 12.232750000000001 11.936950000000001 11.695800000000002 16.333850000000002 15.643150000000002 15.667650000000002
decision_type=2 2 2 2 2 2 2 2 2 2 2 2
left_child=1 3 -2 -1 5 -4 7 8 -3 10 -6 -12
right_child=2 6 4 -5 9 -7 -8 -9 -10 -11 11 -13
leaf_value=-0.0064695161097142123 -0.0091515445971560635 -0.0089909346839465668 -0.0099495808761657853 -0.0072843119413037605 -0.010027967384698362 -0.0095102191492182006 -0.008028876298772445 -0.0090264605115613818 -0.0078697127379075017 -0.0099478735991344915 -0.011686402542228708 -0.010272739248156948
leaf_count=2380 4212 716 7027 3093 14236 3067 930 1392 960 14981 229 6353
internal_value=0 -0.936938 -1.22539 -0.855274 -1.23423 -1.21187 -1.05066 -1.0686 -1.03066 -1.24055 -1.24949 -1.27431
internal_count=59576 9471 50105 5473 45893 10094 3998 3068 1676 35799 20818 6582
shrinkage=0.0081


Tree=46
num_leaves=13
num_cat=0
split_feature=0 0 0 0 0 0 0 0 0 0 0 0
split_gain=157.067 20.8865 9.86008 3.25825 1.50601 1.45642 0.997693 1.25322 1.84792 0.923694 1.37435 1.56078
threshold=12.407250000000001 11.495050000000001 13.038450000000003 10.150450000000001 14.250450000000003 13.918650000000001 12.232750000000001 11.936950000000001 11.695800000000002 16.333850000000002 15.643150000000002 15.667650000000002
decision_type=2 2 2 2 2 2 2 2 2 2 2 2
left_child=1 3 -2 -1 5 -4 7 8 -3 10 -6 -12
right_child=2 6 4 -5 9 -7 -8 -9 -10 -11 11 -13
leaf_value=-0.0064242774039672068 -0.0090974416550885315 -0.0089363587826943539 -0.0098939833984992443 -0.0072359633763405644 -0.009972512434758567 -0.0094561962483643656 -0.0079790652290997691 -0.0089719890674194586 -0.0078197489687295303 -0.0098924952080145408 -0.01162699240012096 -0.010216628494001579
leaf_count=2380 4212 716 7027 3093 14236 3067 930 1392 960 14981 229 6353
internal_value=0 -0.930823 -1.21855 -0.849465 -1.22739 -1.20507 -1.0442 -1.06203 -1.02424 -1.23369 -1.24261 -1.26736
internal_count=59576 9471 50105 5473 45893 10094 3998 3068 1676 35799 20818 6582
shrinkage=0.0081


Tree=47
num_leaves=13
num_cat=0
split_feature=0 0 0 0 0 0 0 0 0 0 0 0
split_gain=156.028 20.7127 9.80748 3.22949 1.49671 1.44272 0.985329 1.24182 1.82948 0.917959 1.36365 1.54919
threshold=12.407250000000001 11.495050000000001 13.038450000000003 10.150450000000001 14.250450000000003 13.918650000000001 12.232750000000001 11.936950000000001 11.695800000000002 16.333850000000002 15.643150000000002 15.667650000000002
decision_type=2 2 2 2 2 2 2 2 2 2 2 2
left_child=1 3 -2 -1 5 -4 7 8 -3 10 -6 -12
right_child=2 6 4 -5 9 -7 -8 -9 -10 -11 11 -13
leaf_value=-0.0063794339387468349 -0.0090438958206310836 -0.0088823427227275285 -0.0098390111618782902 -0.0071880471999364419 -0.0099176856162095685 -0.0094027459477156669 -0.0079297082890476302 -0.0089180761850564342 -0.0077702424639877364 -0.0098377379730092349 -0.011568439619702863 -0.010161174183295289
leaf_count=2380 4212 716 7027 3093 14236 3067 930 1392 960 14981 229 6353
internal_value=0 -0.924764 -1.21179 -0.843706 -1.22061 -1.19834 -1.03779 -1.05554 -1.01788 -1.2269 -1.23582 -1.2605
internal_count=59576 9471 50105 5473 45893 10094 3998 3068 1676 35799 20818 6582
shrinkage=0.0081


Tree=48
num_leaves=13
num_cat=0
split_feature=0 0 0 0 0 0 0 0 0 0 0 0
split_gain=155.012 20.5419 9.75642 3.20113 1.4877 1.42942 0.973261 1.23068 1.81144 0.912402 1.35329 1.53802
threshold=12.407250000000001 11.495050000000001 13.038450000000003 10.150450000000001 14.250450000000003 13.918650000000001 12.232750000000001 11.936950000000001 11.695800000000002 16.333850000000002 15.643150000000002 15.667650000000002
decision_type=2 2 2 2 2 2 2 2 2 2 2 2
left_child=1 3 -2 -1 5 -4 7 8 -3 10 -6 -12
right_child=2 6 4 -5 9 -7 -8 -9 -10 -11 11 -13
leaf_value=-0.0063349793235307024 -0.0089908946491378851 -0.0088288743021401692 -0.0097846496223353632 -0.007140555654382077 -0.0098634722072916542 -0.0093498544987937037 -0.0078807978805393968 -0.0088647105285771435 -0.0077211838120708537 -0.0097835881714643056 -0.01151072277129383 -0.010106361701866948
leaf_count=2380 4212 716 7027 3093 14236 3067 930 1392 960 14981 229 6353
internal_value=0 -0.91876 -1.20511 -0.837998 -1.21392 -1.19168 -1.03145 -1.0491 -1.01158 -1.2202 -1.22909 -1.25372
internal_count=59576 9471 50105 5473 45893 10094 3998 3068 1676 35799 20818 6582
shrinkage=0.0081


Tree=49
num_leaves=13
num_cat=0
split_feature=0 0 0 0 0 0 0 0 0 0 0 0
split_gain=154.019 20.374 9.70684 3.17317 1.47897 1.41649 0.961484 1.21979 1.7938 0.912821 1.14561 1.13948
threshold=12.407250000000001 11.495050000000001 13.038450000000003 10.150450000000001 14.250450000000003 13.918650000000001 12.232750000000001 11.936950000000001 11.695800000000002 14.053800000000001 14.028050000000002 14.131450000000003
decision_type=2 2 2 2 2 2 2 2 2 2 2 2
left_child=1 3 -2 -1 5 -4 7 8 -3 10 -7 -11
right_child=2 6 4 -5 -6 9 -8 -9 -10 11 -12 -13
leaf_value=-0.0062909078334712322 -0.0089384270234704657 -0.0087759422778567273 -0.0097308853993936864 -0.0070934817553604422 -0.009829880564728076 -0.0091921011919060894 -0.0078323245505696401 -0.0088118802387370139 -0.0076725665904148425 -0.010041624503063715 -0.007877805702503439 -0.0091966215895999213
leaf_count=2380 4212 716 7027 3093 35799 928 930 1392 960 739 235 1165
internal_value=0 -0.912809 -1.19849 -0.83234 -1.2073 -1.1851 -1.02517 -1.04273 -1.00534 -1.14784 -1.10202 -1.17588
internal_count=59576 9471 50105 5473 45893 10094 3998 3068 1676 3067 1163 1904
shrinkage=0.0081


Tree=50
num_leaves=13
num_cat=0
split_feature=0 0 0 0 0 0 0 0 0 0 0 0
split_gain=112.329 13.3749 7.69642 1.63246 1.77737 1.10989 0.877685 6.42894 1.33435 1.27819 1.26587 0.857599
threshold=11.936950000000001 10.668650000000001 13.038450000000003 9.6839500000000012 9.3559000000000019 9.856600000000002 17.038050000000002 17.210750000000001 17.004650000000002 18.080200000000005 18.143250000000005 14.318350000000002
decision_type=2 2 2 2 2 2 2 2 2 2 2 2
left_child=1 3 -2 4 -1 -5 8 -8 11 -9 -11 -4
right_child=2 -3 6 5 -6 -7 7 9 -10 10 -12 -13
leaf_value=-0.0065262476712852555 -0.0090301584903684541 -0.0080064232957780691 -0.0095468588435256331 -0.0080076971266423193 -0.0053089334628465806 -0.0067542077416202139 -0.0083297027990769795 -0.0098578758068254991 -0.011074542180588738 -0.0082861924470944339 -0.0095193397782064541 -0.0097262978028401312
leaf_count=1165 6585 3777 10736 223 452 1414 1171 4453 194 253 3560 25593
internal_value=0 -0.904868 -1.18094 -0.809464 -0.763723 -0.855028 -1.19052 -1.17263 -1.19514 -1.19308 -1.16511 -1.19422
internal_count=59576 7031 52545 3254 1617 1637 45960 9437 36523 8266 3813 36329
shrinkage=0.0081


Tree=51
num_leaves=13
num_cat=0
split_feature=0 0 0 0 0 0 0 0 0 0 0 0
split_gain=111.687 13.2579 7.67592 1.61624 1.75433 1.09564 0.870934 6.3748 1.32388 1.26785 1.25538 0.853463
threshold=11.936950000000001 10.668650000000001 13.038450000000003 9.6839500000000012 9.3559000000000019 9.856600000000002 17.038050000000002 17.210750000000001 17.004650000000002 18.080200000000005 18.143250000000005 14.318350000000002
decision_type=2 2 2 2 2 2 2 2 2 2 2 2
left_child=1 3 -2 4 -1 -5 8 -8 11 -9 -11 -4
right_child=2 -3 6 5 -6 -7 7 9 -10 10 -12 -13
leaf_value=-0.0064811426810739521 -0.0089779869556816157 -0.0079563986967137248 -0.0094946654569147328 -0.0079552359253125121 -0.0052711145377402936 -0.0067088685205521489 -0.0082814235151104244 -0.0098050194591501084 -0.011018851809315012 -0.0082379575099883855 -0.0094674072827515623 -0.0096739097660103607
leaf_count=1165 6585 3777 10736 223 452 1414 1171 4453 194 253 3560 25593
internal_value=0 -0.898968 -1.17448 -0.803935 -0.758399 -0.849307 -1.18407 -1.16622 -1.18868 -1.18661 -1.15873 -1.18776
internal_count=59576 7031 52545 3254 1617 1637 45960 9437 36523 8266 3813 36329
shrinkage=0.0081


Tree=52
num_leaves=13
num_cat=0
split_feature=0 0 0 0 0 0 0 0 0 0 0 0
split_gain=111.058 13.1427 7.65609 1.60025 1.7317 1.08168 0.864367 6.32203 1.31376 1.2578 1.24516 0.849456
threshold=11.936950000000001 10.668650000000001 13.038450000000003 9.6839500000000012 9.3559000000000019 9.856600000000002 17.038050000000002 17.210750000000001 17.004650000000002 18.080200000000005 18.143250000000005 14.318350000000002
decision_type=2 2 2 2 2 2 2 2 2 2 2 2
left_child=1 3 -2 4 -1 -5 8 -8 11 -9 -11 -4
right_child=2 -3 6 5 -6 -7 7 9 -10 10 -12 -13
leaf_value=-0.0064364273625116576 -0.0089263341628268451 -0.0079068329692572152 -0.0094430155547584639 -0.0079032791170174435 -0.0052335998868596944 -0.0066639157410070963 -0.0082335756610117054 -0.0097527361681000336 -0.010963889459594435 -0.0081901538748054472 -0.009416012305864252 -0.009622079418192226
leaf_count=1165 6585 3777 10736 223 452 1414 1171 4453 194 253 3560 25593
internal_value=0 -0.89312 -1.1681 -0.798453 -0.75312 -0.843636 -1.17768 -1.15988 -1.18228 -1.18022 -1.15241 -1.18137
internal_count=59576 7031 52545 3254 1617 1637 45960 9437 36523 8266 3813 36329
shrinkage=0.0081


Tree=53
num_leaves=13
num_cat=0
split_feature=0 0 0 0 0 0 0 0 0 0 0 0
split_gain=110.443 13.0293 7.6369 1.5845 1.70947 1.06801 0.857977 6.27059 1.30396 1.24804 1.23519 0.845571
threshold=11.936950000000001 10.668650000000001 13.038450000000003 9.6839500000000012 9.3559000000000019 9.856600000000002 17.038050000000002 17.210750000000001 17.004650000000002 18.080200000000005 18.143250000000005 14.318350000000002
decision_type=2 2 2 2 2 2 2 2 2 2 2 2
left_child=1 3 -2 4 -1 -5 8 -8 11 -9 -11 -4
right_child=2 -3 6 5 -6 -7 7 9 -10 10 -12 -13
leaf_value=-0.006392095976935388 -0.0088751889638517632 -0.0078577169753040049 -0.0093918977422393721 -0.0078518183803086197 -0.0051963838482201484 -0.0066193428286746908 -0.0081861504749475202 -0.0097010141284307131 -0.010909635907959578 -0.0081427697585094751 -0.009365143734855445 -0.0095707947501784043
leaf_count=1165 6585 3777 10736 223 452 1414 1171 4453 194 253 3560 25593
internal_value=0 -0.887324 -1.16178 -0.793018 -0.747886 -0.838014 -1.17136 -1.15361 -1.17596 -1.17389 -1.14615 -1.17504
internal_count=59576 7031 52545 3254 1617 1637 45960 9437 36523 8266 3813 36329
shrinkage=0.0081


Tree=54
num_leaves=13
num_cat=0
split_feature=0 0 0 0 0 0 0 0 0 0 0 0
split_gain=109.839 12.9176 7.61833 1.56897 1.68762 1.05462 0.851751 6.22044 1.29448 1.23855 1.22546 0.841805
threshold=11.936950000000001 10.668650000000001 13.038450000000003 9.6839500000000012 9.3559000000000019 9.856600000000002 17.038050000000002 17.210750000000001 17.004650000000002 18.080200000000005 18.143250000000005 14.318350000000002
decision_type=2 2 2 2 2 2 2 2 2 2 2 2
left_child=1 3 -2 4 -1 -5 8 -8 11 -9 -11 -4
right_child=2 -3 6 5 -6 -7 7 9 -10 10 -12 -13
leaf_value=-0.0063481424865375682 -0.0088245408573427546 -0.0078090423158393872 -0.0093413003892382357 -0.007800843695254688 -0.0051594640864156185 -0.0065751443054372551 -0.0081391401992051797 -0.0096498414300521338 -0.010856076428426002 -0.0080957999078248074 -0.0093147905111516088 -0.0095200437181527306
leaf_count=1165 6585 3777 10736 223 452 1414 1171 4453 194 253 3560 25593
internal_value=0 -0.881578 -1.15552 -0.787629 -0.742696 -0.83244 -1.16511 -1.1474 -1.16969 -1.16763 -1.13996 -1.16878
internal_count=59576 7031 52545 3254 1617 1637 45960 9437 36523 8266 3813 36329
shrinkage=0.0081


Tree=55
num_leaves=13
num_cat=0
split_feature=0 0 0 0 0 0 0 0 0 0 0 0
split_gain=133.467 26.4234 9.15993 4.52884 1.83598 3.25773 1.85257 1.74968 1.33394 1.43676 1.21684 0.821737
threshold=12.365400000000003 10.150450000000001 13.038450000000003 11.420150000000001 16.691450000000007 16.661500000000004 17.326700000000002 13.007750000000001 17.284850000000002 16.719150000000003 11.261350000000002 17.363750000000007
decision_type=2 2 2 2 2 2 2 2 2 2 2 2
left_child=1 -1 7 10 5 -4 8 -2 9 -6 -3 -8
right_child=2 3 4 -5 6 -7 11 -9 -10 -11 -12 -13
leaf_value=-0.005692567814331635 -0.0087491506161981765 -0.0073820796064785737 -0.0095238150918490454 -0.008099711898591851 -0.007747421984344186 -0.011550599190671064 -0.010455228150336997 -0.0072772545020638275 -0.007816325739712306 -0.0091631612186254263 -0.0064644049812400423 -0.009422639787154366
leaf_count=2339 4153 2277 33891 4017 218 230 229 244 252 3909 488 7329
internal_value=0 -0.889319 -1.16087 -0.955267 -1.16964 -1.17747 -1.14728 -1.07009 -1.113 -1.12203 -0.891419 -1.16715
internal_count=59576 9121 50455 6782 46058 34121 11937 4397 4379 4127 2765 7558
shrinkage=0.0081


Tree=56
num_leaves=13
num_cat=0
split_feature=0 0 0 0 0 0 0 0 0 0 0 0
split_gain=132.717 26.1842 9.12157 4.50116 1.82296 3.235 1.83877 1.7329 1.3225 1.42454 1.20251 0.815784
threshold=12.365400000000003 10.150450000000001 13.038450000000003 11.420150000000001 16.691450000000007 16.661500000000004 17.326700000000002 13.007750000000001 17.284850000000002 16.719150000000003 11.261350000000002 17.363750000000007
decision_type=2 2 2 2 2 2 2 2 2 2 2 2
left_child=1 -1 7 10 5 -4 8 -2 9 -6 -3 -8
right_child=2 3 4 -5 6 -7 11 -9 -10 -11 -12 -13
leaf_value=-0.0056529954179329383 -0.0086997321370536757 -0.0073350125154407796 -0.0094738787141000532 -0.0080515857725411109 -0.0077026235339999506 -0.011497087311471133 -0.010403362857206075 -0.0072333733370122501 -0.0077713141727976266 -0.0091139847168771951 -0.0064220357818179285 -0.0093729063541892043
leaf_count=2339 4153 2277 33891 4017 218 230 229 244 252 3909 488 7329
internal_value=0 -0.883674 -1.15472 -0.949408 -1.16349 -1.1713 -1.14117 -1.06402 -1.10698 -1.11598 -0.885708 -1.161
internal_count=59576 9121 50455 6782 46058 34121 11937 4397 4379 4127 2765 7558
shrinkage=0.0081


Tree=57
num_leaves=13
num_cat=0
split_feature=0 0 0 0 0 0 0 0 0 0 0 0
split_gain=131.981 25.9485 9.08422 4.47386 1.81028 3.21306 1.82533 1.71648 1.31133 1.4126 1.18845 0.810014
threshold=12.365400000000003 10.150450000000001 13.038450000000003 11.420150000000001 16.691450000000007 16.661500000000004 17.326700000000002 13.007750000000001 17.284850000000002 16.719150000000003 11.261350000000002 17.363750000000007
decision_type=2 2 2 2 2 2 2 2 2 2 2 2
left_child=1 -1 7 10 5 -4 8 -2 9 -6 -3 -8
right_child=2 3 4 -5 6 -7 11 -9 -10 -11 -12 -13
leaf_value=-0.005613739558342214 -0.0086507758087870246 -0.007288350788690617 -0.0094244489026642092 -0.0080038844292202541 -0.0076581880683335816 -0.011444330297055074 -0.010352105855381617 -0.0071898405173088653 -0.0077266707456003546 -0.0090652837184361217 -0.0063800045815724056 -0.0093236703779297769
leaf_count=2339 4153 2277 33891 4017 218 230 229 244 252 3909 488 7329
internal_value=0 -0.878077 -1.14863 -0.9436 -1.1574 -1.16519 -1.13513 -1.05801 -1.10101 -1.10999 -0.880045 -1.15491
internal_count=59576 9121 50455 6782 46058 34121 11937 4397 4379 4127 2765 7558
shrinkage=0.0081


Tree=58
num_leaves=13
num_cat=0
split_feature=0 0 0 0 0 0 0 0 0 0 0 0
split_gain=131.26 25.7164 9.04785 4.44693 1.79795 3.19187 1.81224 1.70041 1.30041 1.40094 1.17465 0.804417
threshold=12.365400000000003 10.150450000000001 13.038450000000003 11.420150000000001 16.691450000000007 16.661500000000004 17.326700000000002 13.007750000000001 17.284850000000002 16.719150000000003 11.261350000000002 17.363750000000007
decision_type=2 2 2 2 2 2 2 2 2 2 2 2
left_child=1 -1 7 10 5 -4 8 -2 9 -6 -3 -8
right_child=2 3 4 -5 6 -7 11 -9 -10 -11 -12 -13
leaf_value=-0.0055747960187401656 -0.0086022719816620848 -0.0072420880606926287 -0.0093755146042381055 -0.0079566003425455729 -0.0076141102710028923 -0.011392309358816735 -0.010301440429898154 -0.0071466493217420893 -0.0076823880615943651 -0.0090170470565648746 -0.0063383055711494418 -0.0092749213528474529
leaf_count=2339 4153 2277 33891 4017 218 230 229 244 252 3909 488 7329
internal_value=0 -0.872527 -1.14261 -0.937841 -1.15137 -1.15915 -1.12914 -1.05205 -1.09511 -1.10406 -0.874429 -1.14889
internal_count=59576 9121 50455 6782 46058 34121 11937 4397 4379 4127 2765 7558
shrinkage=0.0081


Tree=59
num_leaves=13
num_cat=0
split_feature=0 0 0 0 0 0 0 0 0 0 0 0
split_gain=130.552 25.4875 9.01244 4.42035 1.78595 3.17141 1.79948 1.68467 1.28973 1.38953 1.16112 0.804439
threshold=12.365400000000003 10.150450000000001 13.038450000000003 11.420150000000001 16.691450000000007 16.661500000000004 17.326700000000002 13.007750000000001 17.284850000000002 16.719150000000003 11.261350000000002 13.516700000000002
decision_type=2 2 2 2 2 2 2 2 2 2 2 2
left_child=1 -1 7 10 5 11 8 -2 9 -6 -3 -4
right_child=2 3 4 -5 6 -7 -8 -9 -10 -11 -12 -13
leaf_value=-0.0055361604698788997 -0.0085542110107934659 -0.0071962170665194744 -0.0090868777619545291 -0.0079097248690475457 -0.0075703828716912648 -0.01134100886961259 -0.0092576463889840789 -0.0071037952253827155 -0.0076384603876432297 -0.0089692661585814622 -0.0062969336433269258 -0.0093558715280963635
leaf_count=2339 4153 2277 3617 4017 218 230 7558 244 252 3909 488 30274
internal_value=0 -0.867023 -1.13664 -0.932132 -1.1454 -1.15316 -1.12322 -1.04615 -1.08925 -1.09819 -0.868861 -1.15149
internal_count=59576 9121 50455 6782 46058 34121 11937 4397 4379 4127 2765 33891
shrinkage=0.0081


Tree=60
num_leaves=13
num_cat=0
split_feature=0 0 0 0 0 0 0 0 0 0 0 0
split_gain=119.001 15.8041 7.30428 1.59632 1.42514 0.887641 0.869381 1.53414 0.797376 0.747634 1.12636 0.890319
threshold=11.495050000000001 12.943750000000001 10.150450000000001 16.279450000000001 16.305050000000005 10.292400000000002 11.695800000000002 11.565300000000002 12.407250000000001 18.356050000000003 18.080200000000005 17.910750000000004
decision_type=2 2 2 2 2 2 2 2 2 2 2 2
left_child=2 6 -1 -3 -5 -4 7 -2 -8 10 11 -6
right_child=1 3 5 4 9 -7 8 -9 -10 -11 -12 -13
leaf_value=-0.0057866296727935133 -0.0078571334690167929 -0.009295252067855744 -0.0079980475101277676 -0.0077498124136548881 -0.0090537172349170383 -0.0069470655217751913 -0.0081401322694919544 -0.0094821571004088355 -0.0085073373677352678 -0.0093594121480151081 -0.0084683895792640185 -0.0096792405015136002
leaf_count=2284 249 31377 243 231 10748 2816 3302 494 3492 2720 911 709
internal_value=0 -1.12435 -0.801675 -1.13894 -1.12128 -0.868044 -1.03561 -1.1033 -1.02816 -1.1238 -1.11684 -1.12252
internal_count=59576 54233 5343 46696 15319 3059 7537 743 6794 15088 12368 11457
shrinkage=0.0081


Tree=61
num_leaves=13
num_cat=0
split_feature=0 0 0 0 0 0 0 0 0 0 0 0
split_gain=118.355 15.7601 7.23718 1.58559 1.41389 0.876782 0.85965 1.52132 0.794222 0.742482 1.1183 0.884142
threshold=11.495050000000001 12.943750000000001 10.150450000000001 16.279450000000001 16.305050000000005 10.292400000000002 11.695800000000002 11.565300000000002 12.407250000000001 18.356050000000003 18.080200000000005 17.910750000000004
decision_type=2 2 2 2 2 2 2 2 2 2 2 2
left_child=2 6 -1 -3 -5 -4 7 -2 -8 10 11 -6
right_child=1 3 5 4 9 -7 8 -9 -10 -11 -12 -13
leaf_value=-0.0057469581945225785 -0.0078108303115995547 -0.0092476761780725825 -0.0079485576801644007 -0.0077062658985701292 -0.0090066037149567294 -0.0069030279667633004 -0.0080932215000713102 -0.0094309794113409898 -0.0084601489290635368 -0.0093116960001725507 -0.0084225859857217939 -0.0096309211099199418
leaf_count=2284 249 31377 243 231 10748 2816 3302 494 3492 2720 911 709
internal_value=0 -1.11849 -0.79642 -1.13308 -1.11546 -0.862551 -1.02977 -1.09716 -1.02235 -1.11797 -1.11102 -1.11669
internal_count=59576 54233 5343 46696 15319 3059 7537 743 6794 15088 12368 11457
shrinkage=0.0081


Tree=62
num_leaves=13
num_cat=0
split_feature=0 0 0 0 0 0 0 0 0 0 0 0
split_gain=117.721 15.7172 7.17099 1.57515 1.40288 0.866149 0.850162 1.50881 0.791119 0.737471 1.11043 0.878136
threshold=11.495050000000001 12.943750000000001 10.150450000000001 16.279450000000001 16.305050000000005 10.292400000000002 11.695800000000002 11.565300000000002 12.407250000000001 18.356050000000003 18.080200000000005 17.910750000000004
decision_type=2 2 2 2 2 2 2 2 2 2 2 2
left_child=2 6 -1 -3 -5 -4 7 -2 -8 10 11 -6
right_child=1 3 5 4 9 -7 8 -9 -10 -11 -12 -13
leaf_value=-0.0057075996316712169 -0.0077649176367462274 -0.0092005573544954589 -0.007899516547572618 -0.0076630627180811995 -0.0089599268399966972 -0.0068593458185182031 -0.0080467150455164928 -0.0093803256256842372 -0.0084133767704443353 -0.009264443230770773 -0.0083771753483683521 -0.0095830939599810851
leaf_count=2284 249 31377 243 231 10748 2816 3302 494 3492 2720 911 709
internal_value=0 -1.11268 -0.791207 -1.12728 -1.10969 -0.857104 -1.02398 -1.09108 -1.01659 -1.1122 -1.10526 -1.11092
internal_count=59576 54233 5343 46696 15319 3059 7537 743 6794 15088 12368 11457
shrinkage=0.0081


Tree=63
num_leaves=13
num_cat=0
split_feature=0 0 0 0 0 0 0 0 0 0 0 0
split_gain=117.096 15.6754 7.10569 1.56497 1.39213 0.855734 0.840907 1.49658 0.788068 0.732587 1.10276 0.872292
threshold=11.495050000000001 12.943750000000001 10.150450000000001 16.279450000000001 16.305050000000005 10.292400000000002 11.695800000000002 11.565300000000002 12.407250000000001 18.356050000000003 18.080200000000005 17.910750000000004
decision_type=2 2 2 2 2 2 2 2 2 2 2 2
left_child=2 6 -1 -3 -5 -4 7 -2 -8 10 11 -6
right_child=1 3 5 4 9 -7 8 -9 -10 -11 -12 -13
leaf_value=-0.0056685503880566541 -0.0077193885934427392 -0.0091538853288252453 -0.0078509154040905527 -0.0076201957348882229 -0.008913677955343563 -0.0068160139832529948 -0.0080006050747014907 -0.0093301839349460569 -0.0083670140691458304 -0.0092176426856375778 -0.0083321506983762492 -0.0095357481911278429
leaf_count=2284 249 31377 243 231 10748 2816 3302 494 3492 2720 911 709
internal_value=0 -1.10693 -0.786035 -1.12153 -1.10397 -0.851701 -1.01823 -1.08506 -1.01088 -1.10647 -1.09955 -1.1052
internal_count=59576 54233 5343 46696 15319 3059 7537 743 6794 15088 12368 11457
shrinkage=0.0081


Tree=64
num_leaves=13
num_cat=0
split_feature=0 0 0 0 0 0 0 0 0 0 0 0
split_gain=116.482 15.6346 7.04124 1.55506 1.38161 0.845532 0.831876 1.48463 0.785066 0.730615 0.791047 0.727828
threshold=11.495050000000001 12.943750000000001 10.150450000000001 16.279450000000001 16.305050000000005 10.292400000000002 11.695800000000002 11.565300000000002 12.407250000000001 9.1697500000000023 9.2129500000000011 18.356050000000003
decision_type=2 2 2 2 2 2 2 2 2 2 2 2
left_child=2 6 9 -3 -5 -4 7 -2 -8 -1 -11 -6
right_child=1 3 5 4 11 -7 8 -9 -10 10 -12 -13
leaf_value=-0.0062309922260182218 -0.0076742351315479884 -0.0091076511643336296 -0.0078027477229659506 -0.007577659287468631 -0.0088605503432064251 -0.0067730265634259306 -0.0079548842542306319 -0.0092805436504787304 -0.0083210522137569 -0.0045421469910559868 -0.0056094185947217897 -0.0091712851896492108
leaf_count=449 249 31377 243 231 12368 2816 3302 494 3492 217 1618 2720
internal_value=0 -1.10123 -0.780905 -1.11584 -1.09831 -0.846341 -1.01254 -1.0791 -1.00522 -0.695038 -0.676875 -1.1008
internal_count=59576 54233 5343 46696 15319 3059 7537 743 6794 2284 1835 15088
shrinkage=0.0081


Tree=65
num_leaves=13
num_cat=0
split_feature=0 0 0 0 0 0 0 0 0 0 0 0
split_gain=138.312 20.9484 13.4917 2.05921 2.5922 1.85277 1.61525 1.84324 1.59424 1.82079 1.31694 1.03949
threshold=11.495050000000001 12.710650000000001 10.421650000000001 9.6839500000000012 9.117300000000002 13.069750000000001 12.407250000000001 12.365400000000003 9.1697500000000023 9.3559000000000019 10.292400000000002 12.877000000000001
decision_type=2 2 2 2 2 2 2 2 2 2 2 2
left_child=2 6 3 4 -1 11 7 -2 -6 -10 -5 -3
right_child=1 5 -4 10 8 -7 -8 -9 9 -11 -12 -13
leaf_value=-0.0065292726368641899 -0.0077870479638786011 -0.008911857442916022 -0.0069183027426402265 -0.0060394464651210983 -0.0033478492935597056 -0.008991537826663688 -0.0083058522474341208 -0.0062307329413496823 -0.005377689305249257 -0.0040356612835621471 -0.0046214797619425919 -0.0082114574381332711
leaf_count=225 3784 1094 2616 981 233 45733 1848 235 712 459 226 1430
internal_value=0 -1.09222 -0.746014 -0.648251 -0.600809 -1.10695 -0.973744 -0.950193 -0.568169 -0.59901 -0.712998 -1.05127
internal_count=59576 54124 5452 2836 1629 48257 5867 4019 1404 1171 1207 2524
shrinkage=0.0081


Tree=66
num_leaves=13
num_cat=0
split_feature=0 0 0 0 0 0 0 0 0 0 0 0
split_gain=137.527 20.8715 13.3573 2.03634 2.56116 1.85059 1.60552 1.82475 1.57307 1.79703 1.30044 1.03081
threshold=11.495050000000001 12.710650000000001 10.421650000000001 9.6839500000000012 9.117300000000002 13.069750000000001 12.407250000000001 12.365400000000003 9.1697500000000023 9.3559000000000019 10.292400000000002 12.877000000000001
decision_type=2 2 2 2 2 2 2 2 2 2 2 2
left_child=2 6 3 4 -1 11 7 -2 -6 -10 -5 -3
right_child=1 5 -4 10 8 -7 -8 -9 9 -11 -12 -13
leaf_value=-0.0064865409040075509 -0.0077424350187346542 -0.0088651463489247354 -0.0068752222527098412 -0.0059994345931671097 -0.0033231937950750912 -0.0089462819458315385 -0.0082605075516010984 -0.0061924142115726555 -0.0053405284108804579 -0.0040066063282852907 -0.0045895055259351017 -0.0081667105288453969
leaf_count=225 3784 1094 2616 981 233 45733 1848 235 712 459 226 1430
internal_value=0 -1.08663 -0.741117 -0.643799 -0.5966 -1.10136 -0.968231 -0.944726 -0.564147 -0.594803 -0.708235 -1.04564
internal_count=59576 54124 5452 2836 1629 48257 5867 4019 1404 1171 1207 2524
shrinkage=0.0081


Tree=67
num_leaves=13
num_cat=0
split_feature=0 0 0 0 0 0 0 0 0 0 0 0
split_gain=136.754 20.7961 13.2248 2.01377 2.53059 1.84848 1.59595 1.80658 1.55223 1.77364 1.2842 1.02232
threshold=11.495050000000001 12.710650000000001 10.421650000000001 9.6839500000000012 9.117300000000002 13.069750000000001 12.407250000000001 12.365400000000003 9.1697500000000023 9.3559000000000019 10.292400000000002 12.877000000000001
decision_type=2 2 2 2 2 2 2 2 2 2 2 2
left_child=2 6 3 4 -1 11 7 -2 -6 -10 -5 -3
right_child=1 5 -4 10 8 -7 -8 -9 9 -11 -12 -13
leaf_value=-0.0064441515283255903 -0.0076981826544181417 -0.008818859887038422 -0.0068324803174111028 -0.0059597305918391357 -0.003298718254226746 -0.0089014316498003017 -0.0082155442146543411 -0.0061543640924141925 -0.0053036524982712453 -0.0039777655052269717 -0.004557760929487422 -0.0081223336170377081
leaf_count=225 3784 1094 2616 981 233 45733 1848 235 712 459 226 1430
internal_value=0 -1.08109 -0.736258 -0.63938 -0.592422 -1.09582 -0.962763 -0.939303 -0.560154 -0.590628 -0.703509 -1.04005
internal_count=59576 54124 5452 2836 1629 48257 5867 4019 1404 1171 1207 2524
shrinkage=0.0081


Tree=68
num_leaves=13
num_cat=0
split_feature=0 0 0 0 0 0 0 0 0 0 0 0
split_gain=135.992 20.7222 13.0941 1.9915 2.50047 1.84644 1.58654 1.78874 1.53169 1.7506 1.26822 1.01402
threshold=11.495050000000001 12.710650000000001 10.421650000000001 9.6839500000000012 9.117300000000002 13.069750000000001 12.407250000000001 12.365400000000003 9.1697500000000023 9.3559000000000019 10.292400000000002 12.877000000000001
decision_type=2 2 2 2 2 2 2 2 2 2 2 2
left_child=2 6 3 4 -1 11 7 -2 -6 -10 -5 -3
right_child=1 5 -4 10 8 -7 -8 -9 9 -11 -12 -13
leaf_value=-0.0064020999048345871 -0.007654284598782304 -0.0087729883239849975 -0.0067900711694314922 -0.0059203300348413335 -0.0032744229984854071 -0.0088569788259943265 -0.0081709554336007063 -0.0061165775915131664 -0.0052670583280096921 -0.0039491359751940647 -0.0045262428305098499 -0.0080783189102608278
leaf_count=225 3784 1094 2616 981 233 45733 1848 235 712 459 226 1430
internal_value=0 -1.0756 -0.731436 -0.634995 -0.588275 -1.09033 -0.957339 -0.933922 -0.556192 -0.586484 -0.698818 -1.03452
internal_count=59576 54124 5452 2836 1629 48257 5867 4019 1404 1171 1207 2524
shrinkage=0.0081


Tree=69
num_leaves=13
num_cat=0
split_feature=0 0 0 0 0 0 0 0 0 0 0 0
split_gain=135.241 20.6498 12.965 1.96951 2.4708 1.84445 1.57728 1.77121 1.51146 1.72792 1.25249 1.00591
threshold=11.495050000000001 12.710650000000001 10.421650000000001 9.6839500000000012 9.117300000000002 13.069750000000001 12.407250000000001 12.365400000000003 9.1697500000000023 9.3559000000000019 10.292400000000002 12.877000000000001
decision_type=2 2 2 2 2 2 2 2 2 2 2 2
left_child=2 6 3 4 -1 11 7 -2 -6 -10 -5 -3
right_child=1 5 -4 10 8 -7 -8 -9 9 -11 -12 -13
leaf_value=-0.006360378954554686 -0.0076107343761806666 -0.0087275245889139944 -0.0067479901071326297 -0.0058812289764278072 -0.0032503047242743409 -0.0088129153335332628 -0.0081267334351986294 -0.0060790528844896731 -0.0052307422137132251 -0.0039207150783434914 -0.0044949482963455743 -0.0080346600086840126
leaf_count=225 3784 1094 2616 981 233 45733 1848 235 712 459 226 1430
internal_value=0 -1.07015 -0.72665 -0.630642 -0.58416 -1.08488 -0.951958 -0.928585 -0.552258 -0.582371 -0.694162 -1.02903
internal_count=59576 54124 5452 2836 1629 48257 5867 4019 1404 1171 1207 2524
shrinkage=0.0081


Tree=70
num_leaves=13
num_cat=0
split_feature=0 0 0 0 0 0 0 0 0 0 0 0
split_gain=101.303 9.24046 7.17732 2.18024 1.60564 2.74487 1.57115 1.47982 1.36708 2.68445 1.41072 1.38805
threshold=11.821650000000002 13.164950000000001 10.990750000000002 9.267450000000002 12.676650000000002 12.710650000000001 16.124050000000004 18.711550000000006 14.226650000000001 14.552950000000001 13.735150000000003 14.575450000000002
decision_type=2 2 2 2 2 2 2 2 2 2 2 2
left_child=2 4 3 -1 -2 -6 8 -8 10 -10 -3 -11
right_child=1 6 -4 -5 5 -7 7 -9 9 11 -12 -13
leaf_value=-0.0052306183328515608 -0.0082817298748170017 -0.0088205610802328353 -0.0070892505640501339 -0.0061525446837787223 -0.0059832455299333826 -0.0079198804789612741 -0.0085132352941995112 -0.0090304776199994653 -0.0093230754858986079 -0.0074689145750268839 -0.0083864691867162559 -0.0087933191758371946
leaf_count=932 4516 4565 2507 3075 232 3267 14989 1877 3220 242 4448 15706
internal_value=0 -1.06243 -0.786669 -0.732821 -0.996145 -0.961836 -1.07446 -1.05811 -1.08426 -1.09452 -1.06252 -1.08311
internal_count=59576 53062 6514 4007 8015 3499 45047 16866 28181 19168 9013 15948
shrinkage=0.0081


Tree=71
num_leaves=13
num_cat=0
split_feature=0 0 0 0 0 0 0 0 0 0 0 0
split_gain=100.85 9.22623 7.12462 2.15836 1.58652 2.72172 1.56254 1.47087 1.36106 2.66687 1.4006 1.37861
threshold=11.821650000000002 13.164950000000001 10.990750000000002 9.267450000000002 12.676650000000002 12.710650000000001 16.124050000000004 18.711550000000006 14.226650000000001 14.552950000000001 13.735150000000003 14.575450000000002
decision_type=2 2 2 2 2 2 2 2 2 2 2 2
left_child=2 4 3 -1 -2 -6 8 -8 10 -10 -3 -11
right_child=1 6 -4 -5 5 -7 7 -9 9 11 -12 -13
leaf_value=-0.0051947146424042917 -0.0082371754956024803 -0.0087769850575110994 -0.0070470632787606744 -0.0061126118126726891 -0.0059468279285079745 -0.0078772705886906696 -0.0084703052679906791 -0.0089868190216800866 -0.0092790365454372206 -0.0074284540421086769 -0.0083437837367848072 -0.0087501332592309009
leaf_count=932 4516 4565 2507 3075 232 3267 14989 1877 3220 242 4448 15706
internal_value=0 -1.05709 -0.781681 -0.728 -0.990766 -0.956616 -1.06913 -1.0528 -1.07892 -1.08917 -1.05719 -1.07778
internal_count=59576 53062 6514 4007 8015 3499 45047 16866 28181 19168 9013 15948
shrinkage=0.0081


Tree=72
num_leaves=13
num_cat=0
split_feature=0 0 0 0 0 0 0 0 0 0 0 0
split_gain=100.401 9.21229 7.07247 2.13676 1.56783 2.69893 1.55415 1.46213 1.3552 2.64974 1.39077 1.36938
threshold=11.821650000000002 13.164950000000001 10.990750000000002 9.267450000000002 12.676650000000002 12.710650000000001 16.124050000000004 18.711550000000006 14.226650000000001 14.552950000000001 13.894350000000001 14.575450000000002
decision_type=2 2 2 2 2 2 2 2 2 2 2 2
left_child=2 4 3 -1 -2 -6 8 -8 10 -10 -3 -11
right_child=1 6 -4 -5 5 -7 7 -9 9 11 -12 -13
leaf_value=-0.0051590790580110166 -0.0081929890128856122 -0.0086747417576857853 -0.0070051956992390014 -0.0060729803275854756 -0.0059106519328911743 -0.0078349897409517259 -0.0084277252352498097 -0.0089435440001228942 -0.0092354044435667988 -0.0073882838410770559 -0.0082176164876439084 -0.0087073133329543372
leaf_count=932 4516 5971 2507 3075 232 3267 14989 1877 3220 242 3042 15706
internal_value=0 -1.05179 -0.77673 -0.723215 -0.985429 -0.951436 -1.06384 -1.04753 -1.07362 -1.08387 -1.05191 -1.0725
internal_count=59576 53062 6514 4007 8015 3499 45047 16866 28181 19168 9013 15948
shrinkage=0.0081


Tree=73
num_leaves=13
num_cat=0
split_feature=0 0 0 0 0 0 0 0 0 0 0 0
split_gain=99.959 9.19861 7.02083 2.11543 1.54956 2.67652 1.54595 1.45359 1.34947 2.63306 1.38486 1.36033
threshold=11.821650000000002 13.164950000000001 10.990750000000002 9.267450000000002 12.676650000000002 12.710650000000001 16.124050000000004 18.711550000000006 14.226650000000001 14.552950000000001 13.735150000000003 14.575450000000002
decision_type=2 2 2 2 2 2 2 2 2 2 2 2
left_child=2 4 3 -1 -2 -6 8 -8 10 -10 -3 -11
right_child=1 6 -4 -5 5 -7 7 -9 9 11 -12 -13
leaf_value=-0.005123708719802696 -0.0081491634518533508 -0.0086912320552340813 -0.0069636424510446833 -0.0060336461807582505 -0.0058747147649680651 -0.0077930322355233171 -0.0083854885223014746 -0.0089006456807792372 -0.0091921703368332136 -0.0073483980434990159 -0.0082591273344955283 -0.0086648511992256892
leaf_count=932 4516 4565 2507 3075 232 3267 14989 1877 3220 242 4448 15706
internal_value=0 -1.04653 -0.771816 -0.718467 -0.980135 -0.946295 -1.0586 -1.04231 -1.06837 -1.07861 -1.04667 -1.06726
internal_count=59576 53062 6514 4007 8015 3499 45047 16866 28181 19168 9013 15948
shrinkage=0.0081


Tree=74
num_leaves=13
num_cat=0
split_feature=0 0 0 0 0 0 0 0 0 0 0 0
split_gain=99.5219 9.18517 6.9697 2.09437 1.53794 1.53169 2.65445 1.44525 1.34388 2.6168 1.37569 1.35147
threshold=11.821650000000002 13.164950000000001 10.990750000000002 9.267450000000002 16.124050000000004 12.676650000000002 12.710650000000001 18.711550000000006 14.226650000000001 14.552950000000001 13.894350000000001 14.575450000000002
decision_type=2 2 2 2 2 2 2 2 2 2 2 2
left_child=2 5 3 -1 8 -2 -7 -6 10 -10 -3 -11
right_child=1 4 -4 -5 7 6 -8 -9 9 11 -12 -13
leaf_value=-0.0050886006981197074 -0.0081056921345671051 -0.0085898605235471548 -0.0069223982695580622 -0.0059946050916188471 -0.0083435886563888711 -0.0058390133193618621 -0.007751391965774625 -0.008858115846731747 -0.0091493261791473577 -0.0073087922846325187 -0.0081338141927532054 -0.0086227405372438937
leaf_count=932 4516 5971 2507 3075 14989 232 3267 1877 3220 242 3042 15706
internal_value=0 -1.04132 -0.766939 -0.713753 -1.0534 -0.974882 -0.941192 -1.03712 -1.06316 -1.0734 -1.04147 -1.06206
internal_count=59576 53062 6514 4007 45047 8015 3499 16866 28181 19168 9013 15948
shrinkage=0.0081


Tree=75
num_leaves=13
num_cat=0
split_feature=0 0 0 0 0 0 0 0 0 0 0 0
split_gain=97.4232 12.8323 7.25901 1.33402 1.11712 1.33241 0.926794 1.8026 1.27865 1.64971 1.08972 1.30803
threshold=11.986850000000002 10.421650000000001 13.200550000000002 13.266450000000003 19.467400000000001 19.252250000000004 14.053800000000001 13.867750000000003 15.667650000000002 15.620050000000001 13.976150000000002 13.918650000000001
decision_type=2 2 2 2 2 2 2 2 2 2 2 2
left_child=1 -1 -2 -4 5 6 7 -5 9 -8 11 -9
right_child=2 -3 3 4 -6 -7 8 10 -10 -11 -12 -13
leaf_value=-0.0054062729544934766 -0.0079037035183912863 -0.0068677491871807521 -0.0093904077882719372 -0.0084556402366191205 -0.0077825381811372765 -0.0098441300801882965 -0.008598245995700431 -0.0080624334949771 -0.008419305360529275 -0.0096963102685528289 -0.0083231642947814294 -0.0067896895413360686
leaf_count=2798 7607 4419 490 4941 706 220 15966 489 20316 432 694 498
internal_value=0 -0.776408 -1.03675 -1.04733 -1.04609 -1.04747 -1.04662 -1.02312 -1.05087 -1.06507 -0.962114 -0.916015
internal_count=59576 7217 52359 44752 44262 43556 43336 6622 36714 16398 1681 987
shrinkage=0.0081


Tree=76
num_leaves=13
num_cat=0
split_feature=0 0 0 0 0 0 0 0 0 0 0 0
split_gain=97.0155 12.7308 7.24886 1.32516 1.10941 1.32478 0.922275 1.79069 1.27217 1.64077 1.0814 1.29808
threshold=11.986850000000002 10.421650000000001 13.200550000000002 13.266450000000003 19.467400000000001 19.252250000000004 14.053800000000001 13.867750000000003 15.667650000000002 15.620050000000001 13.976150000000002 13.918650000000001
decision_type=2 2 2 2 2 2 2 2 2 2 2 2
left_child=1 -1 -2 -4 5 6 7 -5 9 -8 11 -9
right_child=2 -3 3 4 -6 -7 8 10 -10 -11 -12 -13
leaf_value=-0.0053700398412985335 -0.0078618444895382882 -0.0068269687357356036 -0.0093475644129948736 -0.0084141149986384882 -0.0077424938098303656 -0.0098013550391973063 -0.0085567341026704623 -0.0080216570006023582 -0.0083779464895085004 -0.0096538562050605316 -0.0082816751016736995 -0.0067519834966097529
leaf_count=2798 7607 4419 490 4941 706 220 15966 489 20316 432 694 498
internal_value=0 -0.771563 -1.03162 -1.04222 -1.04098 -1.04235 -1.04151 -1.01803 -1.04575 -1.05994 -0.957136 -0.911153
internal_count=59576 7217 52359 44752 44262 43556 43336 6622 36714 16398 1681 987
shrinkage=0.0081


Tree=77
num_leaves=13
num_cat=0
split_feature=0 0 0 0 0 0 0 0 0 0 0 0
split_gain=96.6123 12.6304 7.23887 1.31652 1.10186 1.31736 0.917845 1.77902 1.26584 1.63207 1.07325 1.2883
threshold=11.986850000000002 10.421650000000001 13.200550000000002 13.266450000000003 19.467400000000001 19.252250000000004 14.053800000000001 13.867750000000003 15.667650000000002 15.620050000000001 13.976150000000002 13.918650000000001
decision_type=2 2 2 2 2 2 2 2 2 2 2 2
left_child=1 -1 -2 -4 5 6 7 -5 9 -8 11 -9
right_child=2 -3 3 4 -6 -7 8 10 -10 -11 -12 -13
leaf_value=-0.0053340715567065039 -0.0078203022053357166 -0.0067864855845600281 -0.0093051166671150719 -0.008372917472995945 -0.0077027353461993726 -0.0097590084438141569 -0.0085155550042585789 -0.0079811832387387226 -0.0083369107935065221 -0.0096118126844848984 -0.0082405083053305392 -0.0067145235687306355
leaf_count=2798 7607 4419 490 4941 706 220 15966 489 20316 432 694 498
internal_value=0 -0.766753 -1.02654 -1.03714 -1.0359 -1.03728 -1.03643 -1.01298 -1.04067 -1.05486 -0.952193 -0.906325
internal_count=59576 7217 52359 44752 44262 43556 43336 6622 36714 16398 1681 987
shrinkage=0.0081


Tree=78
num_leaves=13
num_cat=0
split_feature=0 0 0 0 0 0 0 0 0 0 0 0
split_gain=96.2133 12.531 7.22904 1.3081 1.09447 1.31013 0.913506 1.76757 1.25965 1.62361 1.06821 1.06525
threshold=11.986850000000002 10.421650000000001 13.200550000000002 13.266450000000003 19.467400000000001 19.252250000000004 14.053800000000001 13.867750000000003 15.667650000000002 15.620050000000001 13.545250000000001 13.976150000000002
decision_type=2 2 2 2 2 2 2 2 2 2 2 2
left_child=1 -1 -2 -4 5 6 7 10 9 -8 -5 -9
right_child=2 -3 3 4 -6 -7 8 11 -10 -11 -12 -13
leaf_value=-0.005298364558648177 -0.0077790713519737421 -0.0067462955330655017 -0.0092630556842794344 -0.0080334865214995443 -0.0076632590104745695 -0.0097170808355826182 -0.0084747020807576009 -0.0073023871880890153 -0.0082961923223058912 -0.0095701730101103132 -0.0085555715810020083 -0.0081996571034346124
leaf_count=2798 7607 4419 490 2113 706 220 15966 987 20316 432 2828 694
internal_value=0 -0.761977 -1.02149 -1.03211 -1.03087 -1.03224 -1.0314 -1.00796 -1.03564 -1.04981 -1.02865 -0.947287
internal_count=59576 7217 52359 44752 44262 43556 43336 6622 36714 16398 4941 1681
shrinkage=0.0081


Tree=79
num_leaves=13
num_cat=0
split_feature=0 0 0 0 0 0 0 0 0 0 0 0
split_gain=95.8185 12.4326 7.21936 1.30031 1.09591 1.29778 0.783689 1.08488 1.27889 0.992463 0.745175 1.91144
threshold=11.986850000000002 10.421650000000001 13.200550000000002 13.234350000000001 19.467400000000001 19.252250000000004 10.150450000000001 9.3559000000000019 9.6839500000000012 9.267450000000002 14.053800000000001 13.867750000000003
decision_type=2 2 2 2 2 2 2 2 2 2 2 2
left_child=1 6 -2 -4 5 10 7 9 -9 -1 11 -5
right_child=2 -3 3 4 -6 -7 -8 8 -10 -11 -12 -13
leaf_value=-0.0052584364406190274 -0.0077381460273477642 -0.0067063938547522964 -0.0095658203422851716 -0.0083159867668092663 -0.0076240590449437361 -0.0096755617442759369 -0.0059121788781916441 -0.0041092674110608674 -0.005235893501553914 -0.0064805211850972131 -0.0083481752032341615 -0.0076335531645742192
leaf_count=930 7607 4419 258 5173 706 220 449 474 711 234 36714 1681
internal_value=0 -0.757236 -1.01648 -1.02711 -1.02622 -1.02759 -0.649743 -0.634678 -0.590385 -0.67951 -1.02675 -1.00596
internal_count=59576 7217 52359 44752 44494 43788 2798 2349 1185 1164 43568 6854
shrinkage=0.0081


Tree=80
num_leaves=13
num_cat=0
split_feature=0 0 0 0 0 0 0 0 0 0 0 0
split_gain=105.515 16.3305 3.25942 2.02359 1.17703 0.991342 1.12256 0.974374 0.847504 0.725347 1.27951 2.84859
threshold=11.695800000000002 13.200550000000002 9.3559000000000019 11.420150000000001 9.1697500000000023 12.232750000000001 12.186550000000002 9.856600000000002 12.943750000000001 18.820100000000004 19.467400000000001 19.737950000000001
decision_type=2 2 2 2 2 2 2 2 2 2 2 2
left_child=2 5 4 7 -1 6 -2 -4 -7 -3 -11 -12
right_child=1 9 3 -5 -6 8 -8 -9 -10 10 11 -13
leaf_value=-0.0056664920776257049 -0.0072798538093534048 -0.0082858775788182768 -0.0063931119731318051 -0.0067320438948731227 -0.0045829460905224152 -0.0077136864900637456 -0.005917057656863769 -0.0057014030078667809 -0.0072699939083916759 -0.0090953419712447494 -0.0065073240255054147 -0.008893715056764985
leaf_count=463 2090 43271 701 894 725 4449 200 3281 1874 929 234 465
internal_value=0 -1.0078 -0.714854 -0.73921 -0.617827 -0.92219 -0.884175 -0.719239 -0.936197 -1.02465 -1.0698 -0.999485
internal_count=59576 53512 6064 4876 1188 8613 2290 3982 6323 44899 1628 699
shrinkage=0.0081


Tree=81
num_leaves=13
num_cat=0
split_feature=0 0 0 0 0 0 0 0 0 0 0 0
split_gain=105.037 16.2866 3.23195 2.01101 1.16303 0.988581 1.11177 0.959445 0.838357 0.721231 1.27266 2.8288
threshold=11.695800000000002 13.200550000000002 9.3559000000000019 11.420150000000001 9.1697500000000023 12.232750000000001 12.186550000000002 9.856600000000002 12.943750000000001 18.820100000000004 19.467400000000001 19.737950000000001
decision_type=2 2 2 2 2 2 2 2 2 2 2 2
left_child=2 5 4 7 -1 6 -2 -4 -7 -3 -11 -12
right_child=1 9 3 -5 -6 8 -8 -9 -10 10 11 -13
leaf_value=-0.0056290931108380782 -0.0072395551395065157 -0.0082460044830769338 -0.0063521857312252078 -0.0066931907305531179 -0.0045512635117792005 -0.0076732303263378262 -0.0058818399887240721 -0.0056652077455099925 -0.007231318110425127 -0.0090547265229285103 -0.0064714163336344393 -0.0088529578126777947
leaf_count=463 2090 43271 701 894 725 4449 200 3281 1874 929 234 465
internal_value=0 -1.00287 -0.710306 -0.734587 -0.613631 -0.917258 -0.879248 -0.714666 -0.931266 -1.01972 -1.06483 -0.994592
internal_count=59576 53512 6064 4876 1188 8613 2290 3982 6323 44899 1628 699
shrinkage=0.0081


Tree=82
num_leaves=13
num_cat=0
split_feature=0 0 0 0 0 0 0 0 0 0 0 0
split_gain=104.563 16.2433 3.20474 1.99851 1.14924 0.985829 1.10115 0.944825 0.829394 0.717216 1.26596 2.80938
threshold=11.695800000000002 13.200550000000002 9.3559000000000019 11.420150000000001 9.1697500000000023 12.232750000000001 12.186550000000002 9.856600000000002 12.943750000000001 18.820100000000004 19.467400000000001 19.737950000000001
decision_type=2 2 2 2 2 2 2 2 2 2 2 2
left_child=2 5 4 7 -1 6 -2 -4 -7 -3 -11 -12
right_child=1 9 3 -5 -6 8 -8 -9 -10 10 11 -13
leaf_value=-0.0055919673892216139 -0.0071995427494784252 -0.008206428626152288 -0.0063115717597860806 -0.006654603279597316 -0.0045198066191348384 -0.007633066099198056 -0.0058468446129711586 -0.0056292613727805729 -0.0071929026694312883 -0.0090144561488047729 -0.0064357288977709886 -0.0088125374182060102
leaf_count=463 2090 43271 701 894 725 4449 200 3281 1874 929 234 465
internal_value=0 -0.997972 -0.705791 -0.729997 -0.609465 -0.91236 -0.874357 -0.710125 -0.92637 -1.01483 -1.05989 -0.989735
internal_count=59576 53512 6064 4876 1188 8613 2290 3982 6323 44899 1628 699
shrinkage=0.0081


Tree=83
num_leaves=13
num_cat=0
split_feature=0 0 0 0 0 0 0 0 0 0 0 0
split_gain=104.094 16.2005 3.17776 1.98609 1.13564 0.983083 1.0907 0.9305 0.820611 0.713301 1.25942 2.79031
threshold=11.695800000000002 13.200550000000002 9.3559000000000019 11.420150000000001 9.1697500000000023 12.232750000000001 12.186550000000002 9.856600000000002 12.943750000000001 18.820100000000004 19.467400000000001 19.737950000000001
decision_type=2 2 2 2 2 2 2 2 2 2 2 2
left_child=2 5 4 7 -1 6 -2 -4 -7 -3 -11 -12
right_child=1 9 3 -5 -6 8 -8 -9 -10 10 11 -13
leaf_value=-0.0055551123991282036 -0.0071598119020756636 -0.0081671443062965882 -0.0062712643272764988 -0.0066162784394178855 -0.0044885733884270406 -0.0075931882938517986 -0.0058120690237025447 -0.0055935610903773952 -0.0071547427372347068 -0.0089745258045332843 -0.0064002578984073809 -0.0087724459074833561
leaf_count=463 2090 43271 701 894 725 4449 200 3281 1874 929 234 465
internal_value=0 -0.99311 -0.701307 -0.725439 -0.605329 -0.907496 -0.869499 -0.705616 -0.921508 -1.00998 -1.055 -0.984914
internal_count=59576 53512 6064 4876 1188 8613 2290 3982 6323 44899 1628 699
shrinkage=0.0081


Tree=84
num_leaves=13
num_cat=0
split_feature=0 0 0 0 0 0 0 0 0 0 0 0
split_gain=103.629 16.1583 3.15102 1.97374 1.12223 0.980344 1.08041 0.916469 0.812003 0.709482 1.25301 2.77159
threshold=11.695800000000002 13.200550000000002 9.3559000000000019 11.420150000000001 9.1697500000000023 12.232750000000001 12.186550000000002 9.856600000000002 12.943750000000001 18.820100000000004 19.467400000000001 19.737950000000001
decision_type=2 2 2 2 2 2 2 2 2 2 2 2
left_child=2 5 4 7 -1 6 -2 -4 -7 -3 -11 -12
right_child=1 9 3 -5 -6 8 -8 -9 -10 10 11 -13
leaf_value=-0.0055185242487862324 -0.0071203577232270545 -0.0081281460018542504 -0.0062312609254579791 -0.0065782110027244886 -0.004457560458602146 -0.0075535924872077494 -0.0057775109040673874 -0.0055581033184451643 -0.0071168341856903891 -0.0089349274627469038 -0.006365001193515709 -0.0087326774409935172
leaf_count=463 2090 43271 701 894 725 4449 200 3281 1874 929 234 465
internal_value=0 -0.988284 -0.696853 -0.720911 -0.601223 -0.902666 -0.864675 -0.701138 -0.91668 -1.00516 -1.05014 -0.980127
internal_count=59576 53512 6064 4876 1188 8613 2290 3982 6323 44899 1628 699
shrinkage=0.0081


end of trees

feature importances:
Column_0=1020

parameters:
[boosting: gbdt]
[objective: binary]
[metric: auc,none]
[tree_learner: serial]
[device_type: cpu]
[data: ]
[valid: ]
[num_iterations: 100]
[learning_rate: 0.0081]
[num_leaves: 13]
[num_threads: 8]
[max_depth: -1]
[min_data_in_leaf: 80]
[min_sum_hessian_in_leaf: 10]
[bagging_fraction: 0.331]
[bagging_freq: 5]
[bagging_seed: 29824]
[feature_fraction: 0.041]
[feature_fraction_seed: 21393]
[early_stopping_round: 0]
[max_delta_step: 0]
[lambda_l1: 0]
[lambda_l2: 0]
[min_gain_to_split: 0]
[drop_rate: 0.1]
[max_drop: 50]
[skip_drop: 0.5]
[xgboost_dart_mode: 0]
[uniform_drop: 0]
[drop_seed: 5998]
[top_rate: 0.2]
[other_rate: 0.1]
[min_data_per_group: 100]
[max_cat_threshold: 32]
[cat_l2: 10]
[cat_smooth: 10]
[max_cat_to_onehot: 4]
[top_k: 20]
[monotone_constraints: ]
[feature_contri: ]
[forcedsplits_filename: ]
[refit_decay_rate: 0.9]
[verbosity: 1]
[max_bin: 255]
[min_data_in_bin: 3]
[bin_construct_sample_cnt: 200000]
[histogram_pool_size: -1]
[data_random_seed: 12652]
[output_model: LightGBM_model.txt]
[snapshot_freq: -1]
[input_model: ]
[output_result: LightGBM_predict_result.txt]
[initscore_filename: ]
[valid_data_initscores: ]
[pre_partition: 0]
[enable_bundle: 1]
[max_conflict_rate: 0]
[is_enable_sparse: 1]
[sparse_threshold: 0.8]
[use_missing: 1]
[zero_as_missing: 0]
[two_round: 0]
[save_binary: 0]
[enable_load_from_binary_file: 1]
[header: 0]
[label_column: ]
[weight_column: ]
[group_column: ]
[ignore_column: ]
[categorical_feature: ]
[predict_raw_score: 0]
[predict_leaf_index: 0]
[predict_contrib: 0]
[num_iteration_predict: -1]
[pred_early_stop: 0]
[pred_early_stop_freq: 10]
[pred_early_stop_margin: 10]
[convert_model_language: ]
[convert_model: gbdt_prediction.cpp]
[num_class: 1]
[is_unbalance: 0]
[scale_pos_weight: 1]
[sigmoid: 1]
[boost_from_average: 0]
[reg_sqrt: 0]
[alpha: 0.9]
[fair_c: 1]
[poisson_max_delta_step: 0.7]
[tweedie_variance_power: 1.5]
[max_position: 20]
[label_gain: ]
[metric_freq: 1]
[is_provide_training_metric: 0]
[eval_at: ]
[num_machines: 1]
[local_listen_port: 12400]
[time_out: 120]
[machine_list_filename: ]
[machines: ]
[gpu_platform_id: -1]
[gpu_device_id: -1]
[gpu_use_dp: 0]

end of parameters

pandas_categorical:null
