tree
version=v2
num_class=1
num_tree_per_iteration=1
label_index=0
max_feature_idx=0
objective=binary sigmoid:1
feature_names=Column_0
feature_infos=[7.5865:23.132400000000001]
tree_sizes=1132 1129 1135 1127 1133 1131 1131 1128 1127 1130 1129 1126 1129 1132 1130 1126 1120 1121 1125 1120 1131 1130 1134 1134 1132 1128 1130 1128 1129 1132 1130 1137 1139 1134 1140 1134 1131 1133 1135 1139 1140 1141 1142

Tree=0
num_leaves=13
num_cat=0
split_feature=0 0 0 0 0 0 0 0 0 0 0 0
split_gain=195.168 22.1147 15.7149 3.00635 2.57432 2.1715 1.87861 2.19634 2.30698 2.13014 0.940915 1.01393
threshold=12.033450000000002 10.549250000000002 12.775450000000001 11.489050000000002 11.980450000000001 10.150450000000001 14.179350000000001 15.715050000000002 15.505050000000002 14.985750000000001 18.952150000000007 18.080500000000004
decision_type=2 2 2 2 2 2 2 2 2 2 2 2
left_child=1 5 -2 -3 -5 -1 -4 8 9 -8 11 -9
right_child=2 3 6 4 -6 -7 7 10 -10 -11 -12 -13
leaf_value=-0.0092062903920723822 -0.012364556962025316 -0.010834749034749033 -0.013208526789654867 -0.011878861360042172 -0.010133067729083664 -0.010226815642458099 -0.013679384465070834 -0.013352298986088185 -0.014088951841359772 -0.01326590742101396 -0.013745454545454545 -0.012994249471458772
leaf_count=2321 4266 2331 11329 1897 251 716 8188 16964 2118 5444 1386 2365
internal_value=0 -1.29803 -1.6428 -1.38736 -1.44134 -1.16628 -1.65318 -1.66017 -1.67797 -1.66843 -1.64663 -1.64302
internal_count=59576 7516 52060 4479 2148 3037 47794 36465 15750 13632 20715 19329
shrinkage=0.0081


Tree=1
num_leaves=13
num_cat=0
split_feature=0 0 0 0 0 0 0 0 0 0 0 0
split_gain=192.054 21.7608 15.4647 2.95832 2.53318 2.13672 1.84871 2.1614 2.2703 2.09626 0.932255 1.127
threshold=12.033450000000002 10.549250000000002 12.775450000000001 11.489050000000002 11.980450000000001 10.150450000000001 14.179350000000001 15.715050000000002 15.505050000000002 14.985750000000001 12.808450000000002 12.939250000000001
decision_type=2 2 2 2 2 2 2 2 2 2 2 2
left_child=1 5 -2 -3 -5 -1 10 8 9 -8 -4 -12
right_child=2 3 6 4 -6 -7 7 -9 -10 -11 11 -13
leaf_value=-0.0091319133877111013 -0.012264874022033849 -0.010747303183969412 -0.014068625869401479 -0.011783059432665432 -0.010051248414607814 -0.010144244596307046 -0.013569218200058767 -0.013230280558427321 -0.013975526924463678 -0.013159033946541129 -0.012540010787911567 -0.013129254804220274
leaf_count=2321 4266 2331 256 1897 251 716 8188 20715 2118 5444 930 10143
internal_value=0 -1.28755 -1.62956 -1.37617 -1.42971 -1.15686 -1.63986 -1.64679 -1.66445 -1.65499 -1.61754 -1.61479
internal_count=59576 7516 52060 4479 2148 3037 47794 36465 15750 13632 11329 11073
shrinkage=0.0081


Tree=2
num_leaves=13
num_cat=0
split_feature=0 0 0 0 0 0 0 0 0 0 0 0
split_gain=189.058 21.4184 15.2247 2.91198 2.49346 2.10298 1.82009 2.12798 2.23525 2.06384 0.926236 0.998088
threshold=12.033450000000002 10.549250000000002 12.775450000000001 11.489050000000002 11.980450000000001 10.150450000000001 14.179350000000001 15.715050000000002 15.505050000000002 14.985750000000001 18.952150000000007 18.080500000000004
decision_type=2 2 2 2 2 2 2 2 2 2 2 2
left_child=1 5 -2 -3 -5 -1 -4 8 9 -8 11 -9
right_child=2 3 6 4 -6 -7 7 10 -10 -11 -12 -13
leaf_value=-0.0090585161074539754 -0.012166913767148624 -0.010661182579478847 -0.012997671810696162 -0.011688844795137104 -0.0099705957302472139 -0.010062859510650578 -0.013461182668230934 -0.013139313004649596 -0.013864374463852927 -0.013054155683886799 -0.013529425591642002 -0.012784040326817483
leaf_count=2321 4266 2331 11329 1897 251 716 8188 16964 2118 5444 1386 2365
internal_value=0 -1.27723 -1.61658 -1.36515 -1.41828 -1.14757 -1.6268 -1.63368 -1.6512 -1.64181 -1.62035 -1.61677
internal_count=59576 7516 52060 4479 2148 3037 47794 36465 15750 13632 20715 19329
shrinkage=0.0081


Tree=3
num_leaves=13
num_cat=0
split_feature=0 0 0 0 0 0 0 0 0 0 0 0
split_gain=186.174 21.0868 14.9945 2.86725 2.4551 2.07023 1.7927 2.09599 2.20173 2.0328 0.918026 1.10976
threshold=12.033450000000002 10.549250000000002 12.775450000000001 11.489050000000002 11.980450000000001 10.150450000000001 14.179350000000001 15.715050000000002 15.505050000000002 14.985750000000001 12.808450000000002 12.939250000000001
decision_type=2 2 2 2 2 2 2 2 2 2 2 2
left_child=1 5 -2 -3 -5 -1 10 8 9 -8 -4 -12
right_child=2 3 6 4 -6 -7 7 -9 -10 -11 11 -13
leaf_value=-0.0089860769174491869 -0.01207062548339222 -0.010576350411747175 -0.013854435078346902 -0.011596171758894156 -0.0098910791845239921 -0.0099826306551548914 -0.013355212559062421 -0.013021383829381125 -0.013755422209089516 -0.012951213417604661 -0.012337275761016691 -0.012922091054887988
leaf_count=2321 4266 2331 256 1897 251 716 8188 20715 2118 5444 930 10143
internal_value=0 -1.26706 -1.60383 -1.3543 -1.40703 -1.1384 -1.61397 -1.6208 -1.6382 -1.62887 -1.59199 -1.58926
internal_count=59576 7516 52060 4479 2148 3037 47794 36465 15750 13632 11329 11073
shrinkage=0.0081


Tree=4
num_leaves=13
num_cat=0
split_feature=0 0 0 0 0 0 0 0 0 0 0 0
split_gain=183.397 20.7656 14.7737 2.82407 2.41804 2.03845 1.76645 2.06536 2.16968 2.00308 0.914793 0.912726
threshold=12.033450000000002 10.549250000000002 12.775450000000001 11.489050000000002 11.980450000000001 10.150450000000001 14.179350000000001 15.715050000000002 15.505050000000002 14.985750000000001 11.418450000000002 18.952150000000007
decision_type=2 2 2 2 2 2 2 2 2 2 2 2
left_child=1 5 -2 10 -5 -1 -4 8 9 -8 -3 -9
right_child=2 3 6 4 -6 -7 7 11 -10 -11 -12 -13
leaf_value=-0.0089145719026505858 -0.011975960338778161 -0.010596137953858387 -0.012794488720842495 -0.011504998028140664 -0.0098126719128259262 -0.0099035301093427733 -0.013251242914689449 -0.012891006850530528 -0.0136486006302361 -0.012850146188749419 -0.009495921772800911 -0.013321530081336477
leaf_count=2321 4266 2112 11329 1897 251 716 8188 19329 2118 5444 219 1386
internal_value=0 -1.25703 -1.59132 -1.34362 -1.39595 -1.12935 -1.60139 -1.60817 -1.62544 -1.61618 -1.2954 -1.59504
internal_count=59576 7516 52060 4479 2148 3037 47794 36465 15750 13632 2331 20715
shrinkage=0.0081


Tree=5
num_leaves=13
num_cat=0
split_feature=0 0 0 0 0 0 0 0 0 0 0 0
split_gain=215.34 25.3482 22.5984 3.40685 2.99797 1.41195 0.974058 2.90396 1.36242 1.17056 1.7899 0.851933
threshold=11.561750000000002 13.003750000000002 10.549250000000002 9.6853000000000034 12.485850000000001 12.971850000000002 13.454450000000001 13.393250000000002 13.485250000000002 16.101850000000002 16.051750000000002 9.5140000000000011
decision_type=2 2 2 2 2 2 2 2 2 2 2 2
left_child=2 4 3 11 -2 -6 7 -3 -8 10 -10 -1
right_child=1 6 -4 -5 5 -7 8 -9 9 -11 -12 -13
leaf_value=-0.0081295333592210882 -0.011586514660783016 -0.012800108997085488 -0.010522631041279817 -0.0090623292598073588 -0.012315961358339669 -0.011037391761950377 -0.014138646197876385 -0.01142941499209927 -0.012938986442027078 -0.012783527105045647 -0.013967028167369782 -0.0070647244514857981
leaf_count=1425 4293 2907 2654 1429 3240 244 230 472 25022 16978 453 229
internal_value=0 -1.57148 -1.16375 -1.04726 -1.46582 -1.50944 -1.58933 -1.55662 -1.59192 -1.59108 -1.59966 -0.985445
internal_count=59576 53839 5737 3083 7777 3484 46062 3379 42683 42453 25475 1654
shrinkage=0.0081


Tree=6
num_leaves=13
num_cat=0
split_feature=0 0 0 0 0 0 0 0 0 0 0 0
split_gain=212.239 24.9936 22.2594 3.35473 2.95555 1.3906 0.960264 2.86108 1.34232 1.15407 1.76355 0.838692
threshold=11.561750000000002 13.003750000000002 10.549250000000002 9.6853000000000034 12.485850000000001 12.971850000000002 13.454450000000001 13.393250000000002 13.485250000000002 16.101850000000002 16.051750000000002 9.5140000000000011
decision_type=2 2 2 2 2 2 2 2 2 2 2 2
left_child=2 4 3 11 -2 -6 7 -3 -8 10 -10 -1
right_child=1 6 -4 -5 5 -7 8 -9 9 -11 -12 -13
leaf_value=-0.0080653084228792787 -0.011497015051878249 -0.012702256655755712 -0.010440652467036857 -0.0089910595910279445 -0.012221386376854541 -0.010952268672642059 -0.014031300393680696 -0.011341439009457509 -0.012840242676222897 -0.012685840170479679 -0.013860947335600355 -0.0070087135935640709
leaf_count=1425 4293 2907 2654 1429 3240 244 230 472 25022 16978 453 229
internal_value=0 -1.55947 -1.15462 -1.039 -1.45453 -1.49784 -1.57719 -1.54471 -1.57976 -1.57894 -1.58746 -0.977656
internal_count=59576 53839 5737 3083 7777 3484 46062 3379 42683 42453 25475 1654
shrinkage=0.0081


Tree=7
num_leaves=13
num_cat=0
split_feature=0 0 0 0 0 0 0 0 0 0 0 0
split_gain=209.246 24.6529 21.9302 3.30397 2.9147 1.37004 0.947033 2.81985 1.32309 1.13828 1.73834 0.825772
threshold=11.561750000000002 13.003750000000002 10.549250000000002 9.6853000000000034 12.485850000000001 12.971850000000002 13.454450000000001 13.393250000000002 13.485250000000002 16.101850000000002 16.051750000000002 9.5140000000000011
decision_type=2 2 2 2 2 2 2 2 2 2 2 2
left_child=2 4 3 11 -2 -6 7 -3 -8 10 -10 -1
right_child=1 6 -4 -5 5 -7 8 -9 9 -11 -12 -13
leaf_value=-0.0080018397019356105 -0.011408932990468759 -0.01260613045337146 -0.01035985637285609 -0.0089206967920792673 -0.012128409475453038 -0.010868425600078703 -0.01392609466815941 -0.011254833226027411 -0.012743264273227551 -0.012589874079019125 -0.013756948941959163 -0.0069533093566674312
leaf_count=1425 4293 2907 2654 1429 3240 244 230 472 25022 16978 453 229
internal_value=0 -1.54766 -1.14562 -1.03084 -1.44342 -1.48644 -1.56527 -1.53301 -1.56782 -1.567 -1.57547 -0.969958
internal_count=59576 53839 5737 3083 7777 3484 46062 3379 42683 42453 25475 1654
shrinkage=0.0081


Tree=8
num_leaves=13
num_cat=0
split_feature=0 0 0 0 0 0 0 0 0 0 0 0
split_gain=206.356 24.3256 21.6104 3.25453 2.87536 1.35023 0.934328 2.78018 1.30469 1.12312 1.71421 0.81916
threshold=11.561750000000002 13.003750000000002 10.549250000000002 9.6853000000000034 12.485850000000001 12.971850000000002 13.454450000000001 13.393250000000002 13.485250000000002 16.101850000000002 16.051750000000002 12.445450000000001
decision_type=2 2 2 2 2 2 2 2 2 2 2 2
left_child=2 4 3 -1 11 -6 7 -3 -8 10 -10 -2
right_child=1 6 -4 -5 5 -7 8 -9 9 -11 -12 -13
leaf_value=-0.0077950242109911675 -0.01137552750824776 -0.012511680945491627 -0.010280211347079243 -0.0088512198847698863 -0.012036985543783693 -0.01078582809760156 -0.013822963913282114 -0.011169560816123875 -0.012647997886309889 -0.012495579555916391 -0.013654968274420927 -0.010380614833701408
leaf_count=1654 4063 2907 2654 1429 3240 244 230 472 25022 16978 453 230
internal_value=0 -1.53606 -1.13673 -1.02278 -1.43249 -1.47523 -1.55356 -1.5215 -1.5561 -1.55528 -1.56369 -1.39781
internal_count=59576 53839 5737 3083 7777 3484 46062 3379 42683 42453 25475 4293
shrinkage=0.0081


Tree=9
num_leaves=13
num_cat=0
split_feature=0 0 0 0 0 0 0 0 0 0 0 0
split_gain=203.565 24.0109 21.2995 3.20636 2.83747 1.33113 0.922123 2.74202 1.28707 1.10859 1.6911 0.813539
threshold=11.561750000000002 13.003750000000002 10.549250000000002 9.6853000000000034 12.485850000000001 12.971850000000002 13.454450000000001 13.393250000000002 13.485250000000002 16.101850000000002 16.051750000000002 9.5140000000000011
decision_type=2 2 2 2 2 2 2 2 2 2 2 2
left_child=2 4 3 11 -2 -6 7 -3 -8 10 -10 -1
right_child=1 6 -4 -5 5 -7 8 -9 9 -11 -12 -13
leaf_value=-0.007878234008599173 -0.01123686305105236 -0.012418860149887698 -0.010201688402628631 -0.0087826098585142495 -0.011947069732394714 -0.010704442820189473 -0.013721841656036427 -0.011085584302505681 -0.012554394124102886 -0.012402907601371237 -0.013554944331752619 -0.0068372389656785309
leaf_count=1425 4293 2907 2654 1429 3240 244 230 472 25022 16978 453 229
internal_value=0 -1.52466 -1.12795 -1.01482 -1.42173 -1.4642 -1.54205 -1.51019 -1.54457 -1.54376 -1.55212 -0.954826
internal_count=59576 53839 5737 3083 7777 3484 46062 3379 42683 42453 25475 1654
shrinkage=0.0081


Tree=10
num_leaves=13
num_cat=0
split_feature=0 0 0 0 0 0 0 0 0 0 0 0
split_gain=158.486 17.0015 11.1244 4.35641 3.18173 2.86762 2.23682 1.92206 1.80383 2.32408 2.06042 1.54724
threshold=11.929750000000002 11.084750000000001 13.035250000000001 9.6853000000000034 9.356600000000002 20.169850000000004 12.402200000000002 9.2694500000000009 16.000000000000004 15.482250000000002 15.099150000000002 18.286150000000003
decision_type=2 2 2 2 2 2 2 2 2 2 2 2
left_child=1 3 6 4 7 8 -2 -1 9 10 -4 -10
right_child=2 -3 5 -5 -6 -7 -8 -9 11 -11 -12 -13
leaf_value=-0.0085709307651872721 -0.01130313768591721 -0.010708445629521605 -0.012509630173039604 -0.0095010431168858819 -0.0073224323944364317 -0.010625448745827836 -0.011927813803882966 -0.010251300298233889 -0.012234199139591447 -0.012819588918733187 -0.012103646740988978 -0.012647173813629765
leaf_count=941 2354 2835 18698 2564 481 234 4209 221 15030 5167 3999 2843
internal_value=0 -1.20211 -1.52207 -1.12138 -1.04092 -1.53309 -1.4449 -1.09759 -1.53422 -1.5443 -1.53557 -1.5185
internal_count=59576 7042 52534 4207 1643 45971 6563 1162 45737 27864 22697 17873
shrinkage=0.0081


Tree=11
num_leaves=13
num_cat=0
split_feature=0 0 0 0 0 0 0 0 0 0 0 0
split_gain=156.471 16.772 10.992 4.29631 3.13421 2.82826 2.20855 1.8935 1.78069 2.29402 2.03289 1.53743
threshold=11.929750000000002 11.084750000000001 13.035250000000001 9.6853000000000034 9.356600000000002 20.169850000000004 12.402200000000002 9.2694500000000009 16.000000000000004 15.482250000000002 15.099150000000002 14.203450000000002
decision_type=2 2 2 2 2 2 2 2 2 2 2 2
left_child=1 3 6 4 7 8 -2 -1 9 10 11 -4
right_child=2 -3 5 -5 -6 -7 -8 -9 -10 -11 -12 -13
leaf_value=-0.0085047770378112123 -0.011219355543175977 -0.010628328416007532 -0.012274025610048176 -0.0094287127510380049 -0.0072654343208765617 -0.010546969776848981 -0.011840294123253464 -0.01017298722051407 -0.012210411907578735 -0.01272697282953706 -0.012015448516284558 -0.012568603280724873
leaf_count=941 2354 2835 9503 2564 481 234 4209 221 17873 5167 3999 9195
internal_value=0 -1.19299 -1.51099 -1.11279 -1.03287 -1.52195 -1.43426 -1.08914 -1.52308 -1.5331 -1.52442 -1.53319
internal_count=59576 7042 52534 4207 1643 45971 6563 1162 45737 27864 22697 18698
shrinkage=0.0081


Tree=12
num_leaves=13
num_cat=0
split_feature=0 0 0 0 0 0 0 0 0 0 0 0
split_gain=154.524 16.5491 10.8647 4.23777 3.08789 2.79033 2.1813 1.86575 1.75848 2.26515 2.00645 1.52774
threshold=11.929750000000002 11.084750000000001 13.035250000000001 9.6853000000000034 9.356600000000002 20.169850000000004 12.402200000000002 9.2694500000000009 16.000000000000004 15.482250000000002 15.099150000000002 18.286150000000003
decision_type=2 2 2 2 2 2 2 2 2 2 2 2
left_child=1 3 6 4 7 8 -2 -1 9 10 -4 -10
right_child=2 -3 5 -5 -6 -7 -8 -9 11 -11 -12 -13
leaf_value=-0.0084394154232197583 -0.01113684023337513 -0.010549360208311577 -0.012329658858105393 -0.009357316388016788 -0.0072090541992957443 -0.010469599696305947 -0.011754176733869857 -0.010095762917018684 -0.012057086172722283 -0.012635970733189452 -0.011928684879008559 -0.012467808532795209
leaf_count=941 2354 2835 18698 2564 481 234 4209 221 15030 5167 3999 2843
internal_value=0 -1.18399 -1.5001 -1.10431 -1.02493 -1.51101 -1.42379 -1.08079 -1.51212 -1.52209 -1.51346 -1.49659
internal_count=59576 7042 52534 4207 1643 45971 6563 1162 45737 27864 22697 17873
shrinkage=0.0081


Tree=13
num_leaves=13
num_cat=0
split_feature=0 0 0 0 0 0 0 0 0 0 0 0
split_gain=152.643 16.3327 10.7423 4.18074 3.04272 2.75377 2.15503 1.83877 1.73713 2.23746 1.98102 1.52234
threshold=11.929750000000002 11.084750000000001 13.035250000000001 9.6853000000000034 9.356600000000002 20.169850000000004 12.402200000000002 9.2694500000000009 16.000000000000004 15.482250000000002 15.099150000000002 14.203450000000002
decision_type=2 2 2 2 2 2 2 2 2 2 2 2
left_child=1 3 6 4 7 8 -2 -1 9 10 11 -4
right_child=2 -3 5 -5 -6 -7 -8 -9 -10 -11 -12 -13
leaf_value=-0.0083748292725351146 -0.011055558868910893 -0.010471510097903074 -0.012097660404584884 -0.0092868311985492853 -0.0071532792242220908 -0.010393308690887594 -0.011669423119417649 -0.010019597885658362 -0.012035865255739547 -0.012546536609602817 -0.011843316839281913 -0.012391068853944264
leaf_count=941 2354 2835 9503 2564 481 234 4209 221 17873 5167 3999 9195
internal_value=0 -1.17511 -1.48939 -1.09594 -1.01707 -1.50024 -1.41348 -1.07254 -1.50135 -1.51126 -1.50268 -1.51135
internal_count=59576 7042 52534 4207 1643 45971 6563 1162 45737 27864 22697 18698
shrinkage=0.0081


Tree=14
num_leaves=13
num_cat=0
split_feature=0 0 0 0 0 0 0 0 0 0 0 0
split_gain=150.825 16.1224 10.6245 4.12516 2.99866 2.71853 2.1297 1.81253 1.71665 2.21087 1.9566 1.50974
threshold=11.929750000000002 11.084750000000001 13.035250000000001 9.6853000000000034 9.356600000000002 20.169850000000004 12.402200000000002 9.2694500000000009 16.000000000000004 15.482250000000002 15.099150000000002 18.286150000000003
decision_type=2 2 2 2 2 2 2 2 2 2 2 2
left_child=1 3 6 4 7 8 -2 -1 9 10 -4 -10
right_child=2 -3 5 -5 -6 -7 -8 -9 11 -11 -12 -13
leaf_value=-0.0083110016114465689 -0.010975477360761692 -0.01039475133845312 -0.012155656871900448 -0.0092172361042611554 -0.0070980978433578031 -0.010318069252093786 -0.011585995852375547 -0.0099444671226330758 -0.011885706173308599 -0.012458625986466351 -0.011759304444267227 -0.012294414743029331
leaf_count=941 2354 2835 18698 2564 481 234 4209 221 15030 5167 3999 2843
internal_value=0 -1.16635 -1.47886 -1.08766 -1.00931 -1.48965 -1.40332 -1.06439 -1.49076 -1.50061 -1.49208 -1.4754
internal_count=59576 7042 52534 4207 1643 45971 6563 1162 45737 27864 22697 17873
shrinkage=0.0081


Tree=15
num_leaves=13
num_cat=0
split_feature=0 0 0 0 0 0 0 0 0 0 0 0
split_gain=158.502 15.9076 7.78425 4.01964 2.34835 1.44614 1.04791 0.916543 1.77431 0.877644 1.23261 0.784014
threshold=11.561750000000002 12.227550000000003 9.6853000000000034 13.574150000000001 10.781650000000001 16.230150000000005 16.28265 11.691250000000002 11.754050000000001 12.360750000000001 12.673350000000001 15.393750000000002
decision_type=2 2 2 2 2 2 2 2 2 2 2 2
left_child=2 7 -1 9 -4 11 -7 -2 -9 -3 -11 -5
right_child=1 3 4 5 -6 6 -8 8 -10 10 -12 -13
leaf_value=-0.0080459791640272726 -0.011319693769580679 -0.012176888878167003 -0.0089620772411173194 -0.012017656338379014 -0.0097509050874169771 -0.011108288184559442 -0.011903924086244582 -0.0092034897999529706 -0.010698648784039927 -0.011217513146844211 -0.01168688651720692 -0.012210396760721958
leaf_count=1605 495 705 1860 17844 2144 451 15600 233 2105 1919 6475 8140
internal_value=0 -1.46544 -1.11122 -1.47356 -1.15855 -1.48185 -1.46686 -1.31904 -1.30242 -1.43529 -1.42957 -1.49111
internal_count=59576 53967 5609 51134 4004 42035 16051 2833 2338 9099 8394 25984
shrinkage=0.0081


Tree=16
num_leaves=13
num_cat=0
split_feature=0 0 0 0 0 0 0 0 0 0 0 0
split_gain=156.67 15.7343 7.68416 3.97873 2.3192 1.43056 1.03461 0.90412 1.75066 0.864144 1.22093 0.774953
threshold=11.561750000000002 12.227550000000003 9.6853000000000034 13.574150000000001 10.781650000000001 16.230150000000005 16.28265 11.691250000000002 11.754050000000001 12.360750000000001 12.707600000000001 15.393750000000002
decision_type=2 2 2 2 2 2 2 2 2 2 2 2
left_child=2 7 -1 9 -4 11 -7 -2 -9 -3 -11 -5
right_child=1 3 4 5 -6 6 -8 8 -10 10 -12 -13
leaf_value=-0.0079849948961822261 -0.011239081501964386 -0.012091498084257685 -0.0088953511656222357 -0.011934461400920554 -0.0096795474696547701 -0.011030235121357188 -0.011821232429142899 -0.0091362200838241286 -0.01062198391786982 -0.011164932127148079 -0.011613989011595447 -0.012126199747865276
leaf_count=1605 495 705 1860 17844 2144 451 15600 233 2105 2159 6235 8140
internal_value=0 -1.45525 -1.10296 -1.46333 -1.15 -1.47159 -1.45667 -1.30958 -1.29307 -1.42524 -1.41956 -1.48081
internal_count=59576 53967 5609 51134 4004 42035 16051 2833 2338 9099 8394 25984
shrinkage=0.0081


Tree=17
num_leaves=13
num_cat=0
split_feature=0 0 0 0 0 0 0 0 0 0 0 0
split_gain=154.896 15.5673 7.5866 3.93938 2.29083 1.41559 1.02179 0.89211 1.72773 0.856829 0.766243 1.34392
threshold=11.561750000000002 12.227550000000003 9.6853000000000034 13.574150000000001 10.781650000000001 16.230150000000005 16.28265 11.691250000000002 11.754050000000001 12.273950000000001 15.393750000000002 15.437350000000002
decision_type=2 2 2 2 2 2 2 2 2 2 2 2
left_child=2 7 -1 9 -4 10 -7 -2 -9 -3 -5 -12
right_child=1 3 4 5 -6 6 -8 8 -10 -11 11 -13
leaf_value=-0.0079246942648859165 -0.011159670690604907 -0.012449596654789093 -0.0088294280127656447 -0.011852586803411946 -0.0096091074595969772 -0.010953312478085012 -0.01173983827191726 -0.0090697663823329396 -0.010546392539626599 -0.011438871528854717 -0.0128918934836867 -0.011991698629376272
leaf_count=1605 495 228 1860 17844 2144 451 15600 233 2105 8871 467 7673
internal_value=0 -1.44522 -1.09479 -1.45327 -1.14156 -1.46148 -1.44663 -1.30025 -1.28385 -1.41534 -1.47066 -1.48684
internal_count=59576 53967 5609 51134 4004 42035 16051 2833 2338 9099 25984 8140
shrinkage=0.0081


Tree=18
num_leaves=13
num_cat=0
split_feature=0 0 0 0 0 0 0 0 0 0 0 0
split_gain=153.179 15.4061 7.49147 3.90159 2.26321 1.40119 1.00943 0.88049 1.70548 0.845094 0.757867 1.32684
threshold=11.561750000000002 12.227550000000003 9.6853000000000034 13.574150000000001 10.781650000000001 16.230150000000005 16.28265 11.691250000000002 11.754050000000001 12.273950000000001 15.393750000000002 15.437350000000002
decision_type=2 2 2 2 2 2 2 2 2 2 2 2
left_child=2 7 -1 9 -4 10 -7 -2 -9 -3 -5 -12
right_child=1 3 4 5 -6 6 -8 8 -10 -11 11 -13
leaf_value=-0.0078650644581949574 -0.011081426850056388 -0.012364464600153354 -0.0087642910693190614 -0.011771996645721483 -0.0095395624584782169 -0.010877489032295721 -0.011659707155242685 -0.0090041127092790798 -0.010471845512466703 -0.011360049249355623 -0.012805570559218042 -0.011910485805194361
leaf_count=1605 495 228 1860 17844 2144 451 15600 233 2105 8871 467 7673
internal_value=0 -1.43534 -1.08673 -1.44336 -1.13323 -1.45154 -1.43676 -1.29106 -1.27475 -1.40559 -1.46067 -1.47677
internal_count=59576 53967 5609 51134 4004 42035 16051 2833 2338 9099 25984 8140
shrinkage=0.0081


Tree=19
num_leaves=13
num_cat=0
split_feature=0 0 0 0 0 0 0 0 0 0 0 0
split_gain=151.516 15.2506 7.39869 3.86524 2.23631 1.38733 0.997509 0.869249 1.68388 0.836739 1.21766 0.762026
threshold=11.561750000000002 12.227550000000003 9.6853000000000034 13.574150000000001 10.781650000000001 16.230150000000005 16.28265 11.691250000000002 11.754050000000001 12.360750000000001 12.707600000000001 12.842150000000002
decision_type=2 2 2 2 2 2 2 2 2 2 2 2
left_child=2 7 -1 9 -4 -5 -7 -2 -9 -3 -11 -12
right_child=1 3 4 5 -6 6 -8 8 -10 10 11 -13
leaf_value=-0.007806090829832241 -0.011004322311296453 -0.0118467485797364 -0.008699922296632575 -0.011751847090857113 -0.0094708920023035634 -0.010802739154201988 -0.011580804875337565 -0.0089392394618963318 -0.010398318088327946 -0.010928480003525934 -0.011798203969056446 -0.01130041046218647
leaf_count=1605 495 705 1860 25984 2144 451 15600 233 2105 2159 968 5267
internal_value=0 -1.42562 -1.07876 -1.4336 -1.12499 -1.44175 -1.42703 -1.28199 -1.26578 -1.39598 -1.39038 -1.40466
internal_count=59576 53967 5609 51134 4004 42035 16051 2833 2338 9099 8394 6235
shrinkage=0.0081


Tree=20
num_leaves=13
num_cat=0
split_feature=0 0 0 0 0 0 0 0 0 0 0 0
split_gain=152.393 20.6706 18.4946 5.05968 2.66223 1.29458 3.66703 0.791794 0.658642 1.42997 1.24871 1.01524
threshold=11.980450000000001 13.035250000000001 9.6853000000000034 9.356600000000002 10.420750000000002 9.2133500000000019 9.168350000000002 11.815650000000002 14.251650000000001 14.484850000000002 14.179350000000001 14.531600000000003
decision_type=2 2 2 2 2 2 2 2 2 2 2 2
left_child=2 -2 3 5 -4 6 -1 -6 10 -10 -3 -11
right_child=1 8 4 -5 7 -7 -8 -9 9 11 -12 -13
leaf_value=-0.008402225048816863 -0.01061322954953588 -0.011535235821956407 -0.0087425641040752844 -0.0060236761600150329 -0.0095040765836113626 -0.0086992806277064842 -0.0059444461130691633 -0.010103544361903336 -0.012029970218838452 -0.010840769418122094 -0.010824941536768554 -0.011618230267431157
leaf_count=488 6416 9354 1231 468 3706 456 239 695 2284 454 710 33075
internal_value=0 -1.41733 -1.10694 -0.920229 -1.16187 -0.990135 -0.93756 -1.18501 -1.43233 -1.43637 -1.41792 -1.43305
internal_count=59576 52293 7283 1651 5632 1183 727 4401 45877 35813 10064 33529
shrinkage=0.0081


Tree=21
num_leaves=13
num_cat=0
split_feature=0 0 0 0 0 0 0 0 0 0 0 0
split_gain=150.818 20.4611 18.2668 4.98844 2.63348 1.27673 3.61474 0.7835 0.651758 1.41455 1.23312 1.00287
threshold=11.980450000000001 13.035250000000001 9.6853000000000034 9.356600000000002 10.420750000000002 9.2133500000000019 9.168350000000002 11.815650000000002 14.251650000000001 14.484850000000002 14.179350000000001 14.531600000000003
decision_type=2 2 2 2 2 2 2 2 2 2 2 2
left_child=2 -2 3 5 -4 6 -1 -6 10 -10 -3 -11
right_child=1 8 4 -5 7 -7 -8 -9 9 11 -12 -13
leaf_value=-0.0083401728962577068 -0.010540680111105623 -0.011458552347186879 -0.0086788543888528993 -0.0059778021831880775 -0.0094365527958142938 -0.0086354139028145208 -0.0058992802259419923 -0.01003320684679207 -0.011951055222442091 -0.010767970124535169 -0.010752214888022448 -0.011541218317223205
leaf_count=488 6416 9354 1231 468 3706 456 239 695 2284 454 710 33075
internal_value=0 -1.40789 -1.09897 -0.913356 -1.15359 -0.982797 -0.93057 -1.17662 -1.42283 -1.42686 -1.40849 -1.42355
internal_count=59576 52293 7283 1651 5632 1183 727 4401 45877 35813 10064 33529
shrinkage=0.0081


Tree=22
num_leaves=13
num_cat=0
split_feature=0 0 0 0 0 0 0 0 0 0 0 0
split_gain=149.291 20.259 18.0444 4.91876 2.60546 1.25929 3.56361 0.775436 0.645134 1.39972 1.21807 0.990941
threshold=11.980450000000001 13.035250000000001 9.6853000000000034 9.356600000000002 10.420750000000002 9.2133500000000019 9.168350000000002 11.815650000000002 14.251650000000001 14.484850000000002 14.179350000000001 14.531600000000003
decision_type=2 2 2 2 2 2 2 2 2 2 2 2
left_child=2 -2 3 5 -4 6 -1 -6 10 -10 -3 -11
right_child=1 8 4 -5 7 -7 -8 -9 9 11 -12 -13
leaf_value=-0.0082788231589645423 -0.010469112377822713 -0.011383007833438995 -0.0086158818768092144 -0.0059323612501646977 -0.0093698578680582144 -0.0085722870284371394 -0.0058545376281923731 -0.0099637778650766024 -0.011873377351471847 -0.010696173608381763 -0.010680488393636566 -0.011465360750461638
leaf_count=488 6416 9354 1231 468 3706 456 239 695 2284 454 710 33075
internal_value=0 -1.3986 -1.09109 -0.906555 -1.14541 -0.975539 -0.923655 -1.16833 -1.41347 -1.41748 -1.39919 -1.41419
internal_count=59576 52293 7283 1651 5632 1183 727 4401 45877 35813 10064 33529
shrinkage=0.0081


Tree=23
num_leaves=13
num_cat=0
split_feature=0 0 0 0 0 0 0 0 0 0 0 0
split_gain=147.811 20.0639 17.8272 4.85058 2.57813 1.24226 3.51359 0.767592 0.638748 1.38546 1.20354 0.979423
threshold=11.980450000000001 13.035250000000001 9.6853000000000034 9.356600000000002 10.420750000000002 9.2133500000000019 9.168350000000002 11.815650000000002 14.251650000000001 14.484850000000002 14.179350000000001 14.531600000000003
decision_type=2 2 2 2 2 2 2 2 2 2 2 2
left_child=2 -2 3 5 -4 6 -1 -6 10 -10 -3 -11
right_child=1 8 4 -5 7 -7 -8 -9 9 11 -12 -13
leaf_value=-0.0082181601125857571 -0.010398502184258203 -0.011308572818695285 -0.0085536303307494083 -0.0058873472093078456 -0.0093039715343105189 -0.0085098845617537916 -0.0058102104830579683 -0.0098952349599045839 -0.011796902570997169 -0.01062535439124556 -0.010609737255918225 -0.011390626212528104
leaf_count=488 6416 9354 1231 468 3706 456 239 695 2284 454 710 33075
internal_value=0 -1.38944 -1.0833 -0.899825 -1.13733 -0.968361 -0.916813 -1.16015 -1.40425 -1.40825 -1.39003 -1.40497
internal_count=59576 52293 7283 1651 5632 1183 727 4401 45877 35813 10064 33529
shrinkage=0.0081


Tree=24
num_leaves=13
num_cat=0
split_feature=0 0 0 0 0 0 0 0 0 0 0 0
split_gain=146.375 19.8756 17.615 4.78386 2.55149 1.22562 3.46467 0.759961 0.632594 1.37173 1.18951 0.968304
threshold=11.980450000000001 13.035250000000001 9.6853000000000034 9.356600000000002 10.420750000000002 9.2133500000000019 9.168350000000002 11.815650000000002 14.251650000000001 14.484850000000002 14.179350000000001 14.531600000000003
decision_type=2 2 2 2 2 2 2 2 2 2 2 2
left_child=2 -2 3 5 -4 6 -1 -6 10 -10 -3 -11
right_child=1 8 4 -5 7 -7 -8 -9 9 11 -12 -13
leaf_value=-0.0081581703521680891 -0.010328826031106112 -0.011235219046138391 -0.0084920839121615469 -0.0058427527455396783 -0.0092388766404261548 -0.0084481912557082504 -0.0057662930057087673 -0.0098275586601305857 -0.01172159939213752 -0.010555488562215925 -0.010539935712192342 -0.011316986648657155
leaf_count=488 6416 9354 1231 468 3706 456 239 695 2284 454 710 33075
internal_value=0 -1.38041 -1.0756 -0.893165 -1.12934 -0.96126 -0.910043 -1.15206 -1.39517 -1.39915 -1.38101 -1.39589
internal_count=59576 52293 7283 1651 5632 1183 727 4401 45877 35813 10064 33529
shrinkage=0.0081


Tree=25
num_leaves=13
num_cat=0
split_feature=0 0 0 0 0 0 0 0 0 0 0 0
split_gain=167.076 19.5498 16.4155 1.94063 1.79748 2.16731 1.16588 1.0356 1.3122 0.94348 2.88173 0.907368
threshold=11.754050000000001 10.150450000000001 12.775450000000001 10.549250000000002 12.318550000000002 12.741250000000003 11.815650000000002 10.670000000000002 11.489050000000002 9.2694500000000009 9.5140000000000011 17.807150000000004
decision_type=2 2 2 2 2 2 2 2 2 2 2 2
left_child=1 9 4 -3 6 -6 -2 -5 -9 -1 -11 -4
right_child=2 3 11 7 5 -7 -8 8 -10 10 -12 -13
leaf_value=-0.0074965325054529297 -0.010984644967599242 -0.0081743154257839304 -0.011158033520759565 -0.010157871052161087 -0.010657488348964041 -0.0090011463275089885 -0.0098086207580236669 -0.008825105383490614 -0.0095601442727567855 -0.0058036878205592361 -0.0073538375670222532 -0.01139425194088455
leaf_count=919 249 671 43066 245 2537 231 2362 2074 943 482 936 4861
internal_value=0 -1.02087 -1.36858 -1.10775 -1.26279 -1.29868 -1.2248 -1.12809 -1.11784 -0.875322 -0.842784 -1.38049
internal_count=59576 6270 53306 3933 5379 2768 2611 3262 3017 2337 1418 47927
shrinkage=0.0081


Tree=26
num_leaves=13
num_cat=0
split_feature=0 0 0 0 0 0 0 0 0 0 0 0
split_gain=165.458 19.3171 16.2774 1.91913 1.77989 2.14149 1.15111 1.0245 1.56539 0.929983 2.84214 0.89698
threshold=11.754050000000001 10.150450000000001 12.775450000000001 10.549250000000002 12.318550000000002 12.741250000000003 11.815650000000002 10.781650000000001 11.489050000000002 9.2694500000000009 9.5140000000000011 17.807150000000004
decision_type=2 2 2 2 2 2 2 2 2 2 2 2
left_child=1 9 4 -3 6 -6 -2 -5 -9 -1 -11 -4
right_child=2 3 11 7 5 -7 -8 8 -10 10 -12 -13
leaf_value=-0.0074416541698406275 -0.010912006809823257 -0.0081158643849853582 -0.011086858170761769 -0.0097674183397945136 -0.010587609652954971 -0.0089400626310710725 -0.0097425925004471295 -0.0086754140858259082 -0.009494912770732649 -0.005760145778823454 -0.0073001243927012316 -0.011321926589099257
leaf_count=919 249 671 43066 484 2537 231 2362 1835 943 482 936 4861
internal_value=0 -1.01361 -1.35982 -1.10003 -1.2544 -1.29014 -1.21657 -1.12027 -1.10534 -0.868888 -0.836571 -1.37169
internal_count=59576 6270 53306 3933 5379 2768 2611 3262 2778 2337 1418 47927
shrinkage=0.0081


Tree=27
num_leaves=13
num_cat=0
split_feature=0 0 0 0 0 0 0 0 0 0 0 0
split_gain=163.885 19.0895 16.144 1.89813 1.76282 2.11643 1.13679 1.01249 1.28498 0.916775 2.80334 0.887367
threshold=11.754050000000001 10.150450000000001 12.775450000000001 10.549250000000002 12.318550000000002 12.741250000000003 11.815650000000002 10.670000000000002 11.489050000000002 9.2694500000000009 9.5140000000000011 10.290750000000001
decision_type=2 2 2 2 2 2 2 2 2 2 2 2
left_child=1 9 4 11 6 -6 -2 -5 -9 -1 -11 -3
right_child=2 3 -4 7 5 -7 -8 8 -10 10 -12 -13
leaf_value=-0.0073873384173568325 -0.010840379559127099 -0.0088638527669011122 -0.011040411809044692 -0.010021768588824965 -0.010518662575481882 -0.0088796622186164357 -0.0096773722973108687 -0.008702182105285736 -0.0094304636883291385 -0.0057169991167868939 -0.0072469532033032635 -0.0076207669273330378
leaf_count=919 249 236 47927 245 2537 231 2362 2074 943 482 936 435
internal_value=0 -1.00643 -1.35117 -1.0924 -1.24611 -1.28171 -1.20844 -1.11254 -1.1024 -0.862517 -0.830419 -0.99482
internal_count=59576 6270 53306 3933 5379 2768 2611 3262 3017 2337 1418 671
shrinkage=0.0081


Tree=28
num_leaves=13
num_cat=0
split_feature=0 0 0 0 0 0 0 0 0 0 0 0
split_gain=162.357 18.8669 16.0149 1.87764 1.74627 2.0921 1.12291 1.00331 1.53363 0.90385 2.76532 0.888315
threshold=11.754050000000001 10.150450000000001 12.775450000000001 10.549250000000002 12.318550000000002 12.741250000000003 11.815650000000002 10.781650000000001 11.489050000000002 9.2694500000000009 9.5140000000000011 17.807150000000004
decision_type=2 2 2 2 2 2 2 2 2 2 2 2
left_child=1 9 4 -3 6 -6 -2 -5 -9 -1 -11 -4
right_child=2 3 11 7 5 -7 -8 8 -10 10 -12 -13
leaf_value=-0.0073335755107123831 -0.01076973667507641 -0.0080008280569852045 -0.010947325419001307 -0.0096365981148532637 -0.010450624663993741 -0.0088199317081338879 -0.0096129413097559482 -0.0085546016002464691 -0.0093667795426528744 -0.005674241735800555 -0.007194314572191534 -0.011181680818421903
leaf_count=919 249 671 43066 484 2537 231 2362 1835 943 482 936 4861
internal_value=0 -0.999324 -1.34265 -1.08486 -1.23793 -1.2734 -1.20041 -1.1049 -1.09011 -0.856209 -0.824327 -1.35446
internal_count=59576 6270 53306 3933 5379 2768 2611 3262 2778 2337 1418 47927
shrinkage=0.0081


Tree=29
num_leaves=13
num_cat=0
split_feature=0 0 0 0 0 0 0 0 0 0 0 0
split_gain=160.871 18.6491 15.8902 1.85762 1.73021 2.06847 1.10945 0.990577 1.25909 0.891197 2.72804 0.878755
threshold=11.754050000000001 10.150450000000001 12.775450000000001 10.549250000000002 12.318550000000002 12.741250000000003 11.815650000000002 10.670000000000002 11.489050000000002 9.2694500000000009 9.5140000000000011 17.807150000000004
decision_type=2 2 2 2 2 2 2 2 2 2 2 2
left_child=1 9 4 -3 6 -6 -2 -5 -9 -1 -11 -4
right_child=2 3 11 7 5 -7 -8 8 -10 10 -12 -13
leaf_value=-0.0072803539888627216 -0.010700055113418559 -0.0079442188285073611 -0.010879069304969626 -0.0098890606470583512 -0.0103834733432584 -0.008760856287803211 -0.009549281578361303 -0.0085819867602673384 -0.0093038424623832616 -0.0056318682717497043 -0.0071421970721853674 -0.011112382391812477
leaf_count=919 249 671 43066 245 2537 231 2362 2074 943 482 936 4861
internal_value=0 -0.992295 -1.33425 -1.0774 -1.22985 -1.26518 -1.19248 -1.09735 -1.08731 -0.849962 -0.818292 -1.34602
internal_count=59576 6270 53306 3933 5379 2768 2611 3262 3017 2337 1418 47927
shrinkage=0.0081


Tree=30
num_leaves=13
num_cat=0
split_feature=0 0 0 0 0 0 0 0 0 0 0 0
split_gain=110.01 15.9269 12.2436 1.57724 3.23636 1.74179 0.624072 0.572134 0.695528 0.599906 0.518062 0.725794
threshold=11.754050000000001 13.035250000000001 10.990550000000001 9.6853000000000034 9.8563000000000027 10.011550000000002 9.1160500000000013 11.261550000000002 11.084750000000001 11.341750000000001 10.549250000000002 10.670000000000002
decision_type=2 2 2 2 2 2 2 2 2 2 2 2
left_child=2 -2 3 6 -5 -6 -1 8 -4 -9 -7 -12
right_child=1 -3 7 4 5 10 -8 9 -10 -11 11 -13
leaf_value=-0.0082796795690249381 -0.010019404816945437 -0.010848529471889662 -0.0090690522768874134 -0.01004001131631598 -0.0066558167602593201 -0.0078588733893860171 -0.0073705914906336345 -0.0084338558039484153 -0.010143780446026471 -0.0093416959162404695 -0.0092102150515977112 -0.0081473394963251129
leaf_count=235 7242 46059 247 222 240 912 1396 227 466 1398 228 704
internal_value=0 -1.32536 -1.04252 -0.97399 -1.00803 -0.98331 -0.926105 -1.1586 -1.20633 -1.13762 -1.0044 -1.03794
internal_count=59576 53301 6275 3937 2306 2084 1631 2338 713 1625 1844 932
shrinkage=0.0081


Tree=31
num_leaves=13
num_cat=0
split_feature=0 0 0 0 0 0 0 0 0 0 0 0
split_gain=109.124 15.8103 12.115 1.56213 3.19359 1.72034 0.616157 0.564399 0.687642 0.593205 0.518857 1.32602
threshold=11.754050000000001 13.035250000000001 10.990550000000001 9.6853000000000034 9.8563000000000027 10.011550000000002 9.1160500000000013 11.261550000000002 11.084750000000001 11.341750000000001 14.251650000000001 14.623450000000002
decision_type=2 2 2 2 2 2 2 2 2 2 2 2
left_child=2 -2 3 6 -5 -6 -1 8 -4 -9 -3 -12
right_child=1 10 7 4 5 -7 -8 9 -10 -11 11 -13
leaf_value=-0.0082210900854268708 -0.0099551761745775812 -0.010676624399520614 -0.0090075874226249342 -0.0099719300297559516 -0.0066076865663627672 -0.0080790174642706158 -0.0073173308049280716 -0.0083761103491838129 -0.010076949328399032 -0.0092794455733284601 -0.011104231094430204 -0.010776994220455211
leaf_count=235 7242 9952 247 222 240 1844 1396 227 466 1398 3757 32350
internal_value=0 -1.31718 -1.03531 -0.967107 -1.001 -0.976438 -0.919432 -1.15086 -1.1983 -1.13001 -1.33111 -1.33469
internal_count=59576 53301 6275 3937 2306 2084 1631 2338 713 1625 46059 36107
shrinkage=0.0081


Tree=32
num_leaves=13
num_cat=0
split_feature=0 0 0 0 0 0 0 0 0 0 0 0
split_gain=108.263 15.6975 11.9894 1.54725 3.15196 1.69931 0.608418 0.556884 0.679973 0.586672 0.514836 0.718012
threshold=11.754050000000001 13.035250000000001 10.990550000000001 9.6853000000000034 9.8563000000000027 10.011550000000002 9.1160500000000013 11.261550000000002 11.084750000000001 11.341750000000001 10.549250000000002 10.670000000000002
decision_type=2 2 2 2 2 2 2 2 2 2 2 2
left_child=2 -2 3 6 -5 -6 -1 8 -4 -9 -7 -12
right_child=1 -3 7 4 5 10 -8 9 -10 -11 11 -13
leaf_value=-0.0081631310367018661 -0.0098917304347985995 -0.010716305730111696 -0.0089468170176440105 -0.0099047076489176336 -0.0065600050815254485 -0.0077468181273859186 -0.0072646020995590444 -0.008318975966365166 -0.010010958486447145 -0.0092179113595731998 -0.0090938161590996026 -0.0080353119682386332
leaf_count=235 7242 46059 247 222 240 912 1396 227 466 1398 228 704
internal_value=0 -1.30911 -1.02817 -0.960294 -0.994048 -0.969634 -0.912828 -1.14321 -1.19037 -1.12249 -0.990492 -1.02397
internal_count=59576 53301 6275 3937 2306 2084 1631 2338 713 1625 1844 932
shrinkage=0.0081


Tree=33
num_leaves=13
num_cat=0
split_feature=0 0 0 0 0 0 0 0 0 0 0 0
split_gain=107.424 15.5884 11.8665 1.53271 3.11135 1.67875 0.600845 0.549579 0.672517 0.5803 0.516647 1.31873
threshold=11.754050000000001 13.035250000000001 10.990550000000001 9.6853000000000034 9.8563000000000027 10.011550000000002 9.1160500000000013 11.261550000000002 11.084750000000001 11.341750000000001 14.251650000000001 14.623450000000002
decision_type=2 2 2 2 2 2 2 2 2 2 2 2
left_child=2 -2 3 6 -5 -6 -1 8 -4 -9 -3 -12
right_child=1 10 7 4 5 -7 -8 9 -10 -11 11 -13
leaf_value=-0.0081057860941637413 -0.0098290495191892639 -0.01054615992210578 -0.008886723972410953 -0.0098383249927172598 -0.0065127627716188245 -0.0079675480046301171 -0.0072123952195202101 -0.00826243905420594 -0.0099457876377685179 -0.0091570769296037153 -0.010973556672509533 -0.010646540925450983
leaf_count=235 7242 9952 247 222 240 1844 1396 227 466 1398 3757 32350
internal_value=0 -1.30114 -1.0211 -0.953552 -0.987169 -0.962901 -0.906289 -1.13565 -1.18254 -1.11505 -1.315 -1.31859
internal_count=59576 53301 6275 3937 2306 2084 1631 2338 713 1625 46059 36107
shrinkage=0.0081


Tree=34
num_leaves=13
num_cat=0
split_feature=0 0 0 0 0 0 0 0 0 0 0 0
split_gain=106.609 15.4829 11.7465 1.51839 3.07181 1.65857 0.594272 0.542477 0.665262 0.574082 0.512545 1.30756
threshold=11.754050000000001 13.035250000000001 10.990550000000001 9.6853000000000034 9.8563000000000027 10.011550000000002 9.356600000000002 11.261550000000002 11.084750000000001 11.341750000000001 14.251650000000001 14.623450000000002
decision_type=2 2 2 2 2 2 2 2 2 2 2 2
left_child=2 -2 3 6 -5 -6 -1 8 -4 -9 -3 -12
right_child=1 10 7 4 5 -7 -8 9 -10 -11 11 -13
leaf_value=-0.0074917770277807784 -0.0097671153659128398 -0.010482505403426899 -0.0088272944271675265 -0.0097727612747911044 -0.0064659556696409883 -0.0079126593377411378 -0.0068096699738146868 -0.0082064887750031932 -0.0098814167036157165 -0.0090969265669551668 -0.010908583753848242 -0.010582600962175375
leaf_count=1146 7242 9952 247 222 240 1844 485 227 466 1398 3757 32350
internal_value=0 -1.29328 -1.01411 -0.946876 -0.980359 -0.956235 -0.899815 -1.12818 -1.1748 -1.10769 -1.3071 -1.31068
internal_count=59576 53301 6275 3937 2306 2084 1631 2338 713 1625 46059 36107
shrinkage=0.0081


Tree=35
num_leaves=13
num_cat=0
split_feature=0 0 0 0 0 0 0 0 0 0 0 0
split_gain=154.185 18.4087 8.75222 1.83975 1.89951 1.5837 1.22623 1.39832 1.19159 1.50427 2.4602 1.16476
threshold=11.754050000000001 12.775450000000001 10.420750000000002 12.445450000000001 11.871550000000001 11.489050000000002 11.261550000000002 10.990550000000001 13.543550000000002 16.256550000000001 15.505050000000002 12.808450000000002
decision_type=2 2 2 2 2 2 2 2 2 2 2 2
left_child=2 3 -1 4 -2 6 7 -4 11 10 -10 -3
right_child=1 8 5 -5 -6 -7 -8 -9 9 -11 -12 -13
leaf_value=-0.0069981243607878342 -0.010154839014777659 -0.011388970449160199 -0.0078871906114541968 -0.0098431316592382957 -0.0090541125482919791 -0.008792497578738517 -0.0074390817010839003 -0.0088129944843718163 -0.010487090426879299 -0.010380072385923282 -0.010846336909447104 -0.010205637796645819
leaf_count=2831 502 237 1182 2131 2805 956 732 702 19172 15641 7182 5503
internal_value=0 -1.28071 -0.947724 -1.16848 -1.13845 -1.01467 -0.988894 -1.01625 -1.29358 -1.29736 -1.30679 -1.26599
internal_count=59576 53173 6403 5438 3307 3572 2616 1884 47735 41995 26354 5740
shrinkage=0.0081


Tree=36
num_leaves=13
num_cat=0
split_feature=0 0 0 0 0 0 0 0 0 0 0 0
split_gain=152.932 18.2806 8.66486 1.82346 1.87778 1.56815 1.21068 1.38317 1.18419 1.4922 2.43854 1.15278
threshold=11.754050000000001 12.775450000000001 10.420750000000002 12.445450000000001 11.871550000000001 11.489050000000002 11.261550000000002 10.990550000000001 13.543550000000002 16.256550000000001 15.505050000000002 12.808450000000002
decision_type=2 2 2 2 2 2 2 2 2 2 2 2
left_child=2 3 -1 4 -2 6 7 -4 11 10 -10 -3
right_child=1 8 5 -5 -6 -7 -8 -9 9 -11 -12 -13
leaf_value=-0.0069484675871226784 -0.010091648409885988 -0.011322672521235089 -0.0078334758366777908 -0.0097822220729099386 -0.0089962181677003174 -0.0087350989160295944 -0.0073882233782875577 -0.0087549083975735839 -0.01042493210308346 -0.010318188086516598 -0.010782995242243394 -0.010144103159666412
leaf_count=2831 502 237 1182 2131 2805 956 732 702 19172 15641 7182 5503
internal_value=0 -1.27306 -0.94121 -1.16112 -1.1312 -1.00788 -0.98221 -1.00941 -1.2859 -1.28967 -1.29907 -1.25837
internal_count=59576 53173 6403 5438 3307 3572 2616 1884 47735 41995 26354 5740
shrinkage=0.0081


Tree=37
num_leaves=13
num_cat=0
split_feature=0 0 0 0 0 0 0 0 0 0 0 0
split_gain=151.71 18.1565 8.57915 1.8076 1.85666 1.55294 1.19548 1.36835 1.17704 1.48052 2.4176 1.14119
threshold=11.754050000000001 12.775450000000001 10.420750000000002 12.445450000000001 11.871550000000001 11.489050000000002 11.261550000000002 10.990550000000001 13.543550000000002 16.256550000000001 15.505050000000002 12.808450000000002
decision_type=2 2 2 2 2 2 2 2 2 2 2 2
left_child=2 3 -1 4 -2 6 7 -4 11 10 -10 -3
right_child=1 8 5 -5 -6 -7 -8 -9 9 -11 -12 -13
leaf_value=-0.0068992776872316862 -0.010029229575449172 -0.01125730711194323 -0.0077802920191164899 -0.0097220231982190399 -0.0089389466449897592 -0.0086783078143513829 -0.0073378448886250031 -0.0086974431890847765 -0.010363549766632774 -0.010257067094029423 -0.010720479684681396 -0.010083313422755796
leaf_count=2831 502 237 1182 2131 2805 956 732 702 19172 15641 7182 5503
internal_value=0 -1.26551 -0.934758 -1.15384 -1.12403 -1.00115 -0.975593 -1.00264 -1.27832 -1.28208 -1.29145 -1.25084
internal_count=59576 53173 6403 5438 3307 3572 2616 1884 47735 41995 26354 5740
shrinkage=0.0081


Tree=38
num_leaves=13
num_cat=0
split_feature=0 0 0 0 0 0 0 0 0 0 0 0
split_gain=150.518 18.036 8.49503 1.79216 1.83611 1.53804 1.18062 1.35385 1.17014 1.46923 2.39736 1.12998
threshold=11.754050000000001 12.775450000000001 10.420750000000002 12.445450000000001 11.871550000000001 11.489050000000002 11.261550000000002 10.990550000000001 13.543550000000002 16.256550000000001 15.505050000000002 12.808450000000002
decision_type=2 2 2 2 2 2 2 2 2 2 2 2
left_child=2 3 -1 4 -2 6 7 -4 11 10 -10 -3
right_child=1 8 5 -5 -6 -7 -8 -9 9 -11 -12 -13
leaf_value=-0.0068505467674596608 -0.0099675634758332049 -0.011192850141753551 -0.0077276286833020498 -0.009662519768350487 -0.008882284777047984 -0.0086221111268617243 -0.0072879368791788999 -0.0086405858709299732 -0.010302925413178244 -0.010196691392078072 -0.010658771656326019 -0.010023250524623235
leaf_count=2831 502 237 1182 2131 2805 956 732 702 19172 15641 7182 5503
internal_value=0 -1.25804 -0.92837 -1.14665 -1.11693 -0.994491 -0.969041 -0.995941 -1.27083 -1.27459 -1.28393 -1.2434
internal_count=59576 53173 6403 5438 3307 3572 2616 1884 47735 41995 26354 5740
shrinkage=0.0081


Tree=39
num_leaves=13
num_cat=0
split_feature=0 0 0 0 0 0 0 0 0 0 0 0
split_gain=149.356 17.9192 8.41244 1.77713 1.81612 1.52346 1.16608 1.33968 1.16348 1.45831 2.3778 1.11914
threshold=11.754050000000001 12.775450000000001 10.420750000000002 12.445450000000001 11.871550000000001 11.489050000000002 11.261550000000002 10.990550000000001 13.543550000000002 16.256550000000001 15.505050000000002 12.808450000000002
decision_type=2 2 2 2 2 2 2 2 2 2 2 2
left_child=2 3 -1 4 -2 6 7 -4 11 10 -10 -3
right_child=1 8 5 -5 -6 -7 -8 -9 9 -11 -12 -13
leaf_value=-0.0068022668576321124 -0.0099066332975903879 -0.011129279045935274 -0.0076754760144413505 -0.0096036959175548695 -0.0088262193798142631 -0.0085664970309188068 -0.0072384918241216395 -0.0085843247239188215 -0.010243040821318362 -0.010137043403945768 -0.010597851394868464 -0.0099638976188024808
leaf_count=2831 502 237 1182 2131 2805 956 732 702 19172 15641 7182 5503
internal_value=0 -1.25067 -0.922042 -1.13953 -1.10992 -0.987897 -0.962553 -0.989307 -1.26343 -1.26718 -1.2765 -1.23605
internal_count=59576 53173 6403 5438 3307 3572 2616 1884 47735 41995 26354 5740
shrinkage=0.0081


Tree=40
num_leaves=13
num_cat=0
split_feature=0 0 0 0 0 0 0 0 0 0 0 0
split_gain=127.488 11.9962 9.18784 1.96867 1.43393 3.18771 0.828102 2.06456 0.763609 0.76031 0.700146 1.24244
threshold=11.754050000000001 13.035250000000001 10.150450000000001 11.489050000000002 12.485850000000001 12.707600000000001 14.251650000000001 14.920350000000001 11.815650000000002 10.884250000000002 14.132550000000002 14.028350000000001
decision_type=2 2 2 2 2 2 2 2 2 2 2 2
left_child=2 4 -1 9 8 -6 10 -8 -2 -4 11 -3
right_child=1 6 3 -5 5 -7 7 -9 -10 -11 -12 -13
leaf_value=-0.0068173217713593214 -0.010106099655527032 -0.010046344083385379 -0.0076334047208729454 -0.0087637344543156272 -0.010320980954296961 -0.0093255525398142011 -0.010495204335536155 -0.010172686599593942 -0.0091670932704263665 -0.0081486826896210313 -0.0096823187215769619 -0.010692146040324839
leaf_count=2330 256 7925 1445 964 1417 2366 6791 29002 3295 1682 1182 921
internal_value=0 -1.24642 -0.942961 -1.00127 -1.16958 -1.19738 -1.25881 -1.26344 -1.1401 -0.976549 -1.24231 -1.24859
internal_count=59576 53155 6421 4091 7334 3783 45821 35793 3551 3127 10028 8846
shrinkage=0.0081


Tree=41
num_leaves=13
num_cat=0
split_feature=0 0 0 0 0 0 0 0 0 0 0 0
split_gain=126.582 11.9337 9.09922 1.95108 1.42489 3.15479 0.822135 2.04843 0.755731 0.753357 0.69347 1.23164
threshold=11.754050000000001 13.035250000000001 10.150450000000001 11.489050000000002 12.485850000000001 12.707600000000001 14.251650000000001 14.920350000000001 11.815650000000002 10.884250000000002 14.132550000000002 14.028350000000001
decision_type=2 2 2 2 2 2 2 2 2 2 2 2
left_child=2 4 -1 9 8 -6 10 -8 -2 -4 11 -3
right_child=1 6 3 -5 5 -7 7 -9 -10 -11 -12 -13
leaf_value=-0.0067694463683707915 -0.010045644231429663 -0.0099881698003666929 -0.0075819451357631478 -0.0087080761433393876 -0.010260612089309503 -0.0092692535587990069 -0.010435872205817364 -0.010114225226838382 -0.0091105076886078083 -0.0080952330152652269 -0.0096255020975294144 -0.010631950568771387
leaf_count=2330 256 7925 1445 964 1417 2366 6791 29002 3295 1682 1182 921
internal_value=0 -1.23921 -0.936607 -0.994685 -1.1625 -1.19024 -1.25158 -1.2562 -1.13308 -0.970061 -1.23513 -1.24138
internal_count=59576 53155 6421 4091 7334 3783 45821 35793 3551 3127 10028 8846
shrinkage=0.0081


Tree=42
num_leaves=13
num_cat=0
split_feature=0 0 0 0 0 0 0 0 0 0 0 0
split_gain=125.698 11.8731 9.01219 1.93384 1.4161 3.12282 0.816356 2.03282 0.74807 0.746534 0.686993 1.22119
threshold=11.754050000000001 13.035250000000001 10.150450000000001 11.489050000000002 12.485850000000001 12.707600000000001 14.251650000000001 14.920350000000001 11.815650000000002 10.884250000000002 14.132550000000002 14.028350000000001
decision_type=2 2 2 2 2 2 2 2 2 2 2 2
left_child=2 4 -1 9 8 -6 10 -8 -2 -4 11 -3
right_child=1 6 3 -5 5 -7 7 -9 -10 -11 -12 -13
leaf_value=-0.0067220068933946863 -0.0099859079929505434 -0.0099306700982083242 -0.0075309745148677736 -0.0086529906411426782 -0.010200975592942259 -0.0092135576378824073 -0.010377267592979546 -0.01005645241132256 -0.0090545242883096084 -0.0080423077214640537 -0.0095693144876305581 -0.010572515743333514
leaf_count=2330 256 7925 1445 964 1417 2366 6791 29002 3295 1682 1182 921
internal_value=0 -1.23208 -0.930313 -0.988167 -1.15549 -1.18317 -1.24444 -1.24905 -1.12613 -0.963636 -1.22802 -1.23425
internal_count=59576 53155 6421 4091 7334 3783 45821 35793 3551 3127 10028 8846
shrinkage=0.0081


end of trees

feature importances:
Column_0=516

parameters:
[boosting: gbdt]
[objective: binary]
[metric: auc,none]
[tree_learner: serial]
[device_type: cpu]
[data: ]
[valid: ]
[num_iterations: 100]
[learning_rate: 0.0081]
[num_leaves: 13]
[num_threads: 8]
[max_depth: -1]
[min_data_in_leaf: 80]
[min_sum_hessian_in_leaf: 10]
[bagging_fraction: 0.331]
[bagging_freq: 5]
[bagging_seed: 29824]
[feature_fraction: 0.041]
[feature_fraction_seed: 21393]
[early_stopping_round: 0]
[max_delta_step: 0]
[lambda_l1: 0]
[lambda_l2: 0]
[min_gain_to_split: 0]
[drop_rate: 0.1]
[max_drop: 50]
[skip_drop: 0.5]
[xgboost_dart_mode: 0]
[uniform_drop: 0]
[drop_seed: 5998]
[top_rate: 0.2]
[other_rate: 0.1]
[min_data_per_group: 100]
[max_cat_threshold: 32]
[cat_l2: 10]
[cat_smooth: 10]
[max_cat_to_onehot: 4]
[top_k: 20]
[monotone_constraints: ]
[feature_contri: ]
[forcedsplits_filename: ]
[refit_decay_rate: 0.9]
[verbosity: 1]
[max_bin: 255]
[min_data_in_bin: 3]
[bin_construct_sample_cnt: 200000]
[histogram_pool_size: -1]
[data_random_seed: 12652]
[output_model: LightGBM_model.txt]
[snapshot_freq: -1]
[input_model: ]
[output_result: LightGBM_predict_result.txt]
[initscore_filename: ]
[valid_data_initscores: ]
[pre_partition: 0]
[enable_bundle: 1]
[max_conflict_rate: 0]
[is_enable_sparse: 1]
[sparse_threshold: 0.8]
[use_missing: 1]
[zero_as_missing: 0]
[two_round: 0]
[save_binary: 0]
[enable_load_from_binary_file: 1]
[header: 0]
[label_column: ]
[weight_column: ]
[group_column: ]
[ignore_column: ]
[categorical_feature: ]
[predict_raw_score: 0]
[predict_leaf_index: 0]
[predict_contrib: 0]
[num_iteration_predict: -1]
[pred_early_stop: 0]
[pred_early_stop_freq: 10]
[pred_early_stop_margin: 10]
[convert_model_language: ]
[convert_model: gbdt_prediction.cpp]
[num_class: 1]
[is_unbalance: 0]
[scale_pos_weight: 1]
[sigmoid: 1]
[boost_from_average: 0]
[reg_sqrt: 0]
[alpha: 0.9]
[fair_c: 1]
[poisson_max_delta_step: 0.7]
[tweedie_variance_power: 1.5]
[max_position: 20]
[label_gain: ]
[metric_freq: 1]
[is_provide_training_metric: 0]
[eval_at: ]
[num_machines: 1]
[local_listen_port: 12400]
[time_out: 120]
[machine_list_filename: ]
[machines: ]
[gpu_platform_id: -1]
[gpu_device_id: -1]
[gpu_use_dp: 0]

end of parameters

pandas_categorical:null
