tree
version=v2
num_class=1
num_tree_per_iteration=1
label_index=0
max_feature_idx=0
objective=binary sigmoid:1
feature_names=Column_0
feature_infos=[7.5937999999999999:23.132400000000001]
tree_sizes=1127 1123 1128 1122 1129 1128 1133 1129 1133 1128 1126 1129 1127 1130 1131 1131 1134 1132 1129 1134 1135 1138 1137 1138 1138 1123 1123 1127 1126 1128 1133 1130 1135 1135 1131 1137 1135 1140 1132 1135 1132 1134 1135 1139 1135 1137 1139 1140 1140 1140 1133 1139 1143 1144 1141 1144 1139 1146 1144 1146 1143 1143 1133 1143 1137 1140

Tree=0
num_leaves=13
num_cat=0
split_feature=0 0 0 0 0 0 0 0 0 0 0 0
split_gain=217.459 28.5056 15.9641 7.99676 3.93192 3.76193 1.66135 1.33276 1.20639 3.02016 0.938944 0.93218
threshold=11.490300000000001 12.878850000000002 9.1702500000000011 10.428650000000003 9.1184500000000011 12.322350000000002 11.418350000000002 12.813350000000002 14.058550000000002 13.924550000000002 14.987550000000002 13.657950000000001
decision_type=2 2 2 2 2 2 2 2 2 2 2 2
left_child=2 5 4 -4 -1 -2 -5 -7 9 11 -10 -3
right_child=1 8 3 6 -6 7 -8 -9 10 -11 -12 -13
leaf_value=-0.0084292682926829267 -0.011902317788327283 -0.013212374296914948 -0.0094179661016949162 -0.010858114507102884 -0.0054927038626609442 -0.012776399999999999 -0.0094555102040816321 -0.01184776119402985 -0.013557669902912621 -0.012448993288590603 -0.0133699275617132 -0.013594212765957446
leaf_count=246 3581 5867 2360 2323 233 3000 245 469 9270 1192 28438 2350
internal_value=0 -1.6335 -1.21287 -1.24675 -0.864301 -1.51489 -1.32399 -1.56183 -1.65125 -1.63099 -1.65631 -1.64464
internal_count=59574 54167 5407 4928 479 7050 2568 3469 47117 9409 37708 8217
shrinkage=0.0081


Tree=1
num_leaves=13
num_cat=0
split_feature=0 0 0 0 0 0 0 0 0 0 0 0
split_gain=213.988 28.0515 15.708 7.86874 3.86872 3.70194 1.63476 1.31151 1.18719 2.97206 0.926953 2.02327
threshold=11.490300000000001 12.878850000000002 9.1702500000000011 10.428650000000003 9.1184500000000011 12.322350000000002 11.418350000000002 12.813350000000002 14.058550000000002 13.924550000000002 11.176300000000001 11.261400000000002
decision_type=2 2 2 2 2 2 2 2 2 2 2 2
left_child=2 5 4 -4 -1 -2 10 -7 9 -3 -5 -12
right_child=1 8 3 6 -6 7 -8 -9 -10 -11 11 -13
leaf_value=-0.008361140299006458 -0.011806327995245421 -0.01321426010215598 -0.0093418881154164989 -0.010560341084845439 -0.0054482543382762642 -0.012673429877380489 -0.0093791307603190398 -0.011752207967223526 -0.013308012139396407 -0.012348636531769069 -0.012496967048271836 -0.010641310421227195
leaf_count=246 3581 8217 2360 1634 233 3000 245 469 37708 1192 233 456
internal_value=0 -1.62034 -1.20308 -1.23669 -0.857311 -1.50268 -1.3133 -1.54924 -1.63795 -1.61785 -1.32969 -1.39121
internal_count=59574 54167 5407 4928 479 7050 2568 3469 47117 9409 2323 689
shrinkage=0.0081


Tree=2
num_leaves=13
num_cat=0
split_feature=0 0 0 0 0 0 0 0 0 0 0 0
split_gain=210.644 27.616 15.459 7.74474 3.80699 3.64426 1.60902 1.29109 1.16879 2.92594 0.924298 0.917631
threshold=11.490300000000001 12.878850000000002 9.1702500000000011 10.428650000000003 9.1184500000000011 12.322350000000002 11.418350000000002 12.813350000000002 14.058550000000002 13.924550000000002 14.987550000000002 13.657950000000001
decision_type=2 2 2 2 2 2 2 2 2 2 2 2
left_child=2 5 4 -4 -1 -2 -5 -7 9 11 -10 -3
right_child=1 8 3 6 -6 7 -8 -9 10 -11 -12 -13
leaf_value=-0.0082938535862325108 -0.011711932224680277 -0.013000600469766029 -0.0092668314344889445 -0.010684180211120199 -0.0054042451655250843 -0.012572302804292229 -0.0093037790481630134 -0.011658233279084959 -0.01334247837662161 -0.012250025908801379 -0.013156189336322821 -0.013379481034294538
leaf_count=246 3581 5867 2360 2323 233 3000 245 469 9270 1192 28438 2350
internal_value=0 -1.60743 -1.19342 -1.22676 -0.850399 -1.49068 -1.30278 -1.53688 -1.6249 -1.60496 -1.62987 -1.61839
internal_count=59574 54167 5407 4928 479 7050 2568 3469 47117 9409 37708 8217
shrinkage=0.0081


Tree=3
num_leaves=13
num_cat=0
split_feature=0 0 0 0 0 0 0 0 0 0 0 0
split_gain=207.421 27.1981 15.2167 7.62457 3.74669 3.5888 1.58409 1.27146 1.15118 2.8817 0.912539 1.99187
threshold=11.490300000000001 12.878850000000002 9.1702500000000011 10.428650000000003 9.1184500000000011 12.322350000000002 11.418350000000002 12.813350000000002 14.058550000000002 13.924550000000002 11.176300000000001 11.261400000000002
decision_type=2 2 2 2 2 2 2 2 2 2 2 2
left_child=2 5 4 -4 -1 -2 10 -7 9 -3 -5 -12
right_child=1 8 3 6 -6 7 -8 -9 -10 -11 11 -13
leaf_value=-0.0082273903409264392 -0.011619084885179402 -0.013005605280366487 -0.0091927699662485967 -0.010390648270335492 -0.0053606692813731073 -0.012472964931476987 -0.0092294302442513364 -0.01156579279438336 -0.013097941787723159 -0.012153110254421976 -0.012312424306972308 -0.010470994177540469
leaf_count=246 3581 8217 2360 1634 233 3000 245 469 37708 1192 233 456
internal_value=0 -1.59475 -1.1839 -1.21698 -0.843564 -1.47887 -1.29241 -1.52473 -1.61209 -1.5923 -1.30854 -1.36959
internal_count=59574 54167 5407 4928 479 7050 2568 3469 47117 9409 2323 689
shrinkage=0.0081


Tree=4
num_leaves=13
num_cat=0
split_feature=0 0 0 0 0 0 0 0 0 0 0 0
split_gain=204.314 26.7969 14.9809 7.50808 3.68778 3.53544 1.55993 1.25257 1.13428 2.83924 0.910826 0.904234
threshold=11.490300000000001 12.878850000000002 9.1702500000000011 10.428650000000003 9.1184500000000011 12.322350000000002 11.418350000000002 12.813350000000002 14.058550000000002 13.924550000000002 14.987550000000002 13.657950000000001
decision_type=2 2 2 2 2 2 2 2 2 2 2 2
left_child=2 5 4 -4 -1 -2 -5 -7 9 11 -10 -3
right_child=1 8 3 6 -6 7 -8 -9 10 -11 -12 -13
leaf_value=-0.0081617322381593391 -0.011527740742869485 -0.012796556649454345 -0.0091196811083170664 -0.010515423839940696 -0.0053175197184389053 -0.012375361461426178 -0.0091560609472350878 -0.011474844080823166 -0.013135319822007635 -0.012057841401882525 -0.012950344453346783 -0.013172759861039565
leaf_count=246 3581 5867 2360 2323 233 3000 245 469 9270 1192 28438 2350
internal_value=0 -1.5823 -1.1745 -1.20733 -0.836804 -1.46727 -1.28219 -1.51279 -1.59952 -1.57987 -1.60442 -1.5931
internal_count=59574 54167 5407 4928 479 7050 2568 3469 47117 9409 37708 8217
shrinkage=0.0081


Tree=5
num_leaves=13
num_cat=0
split_feature=0 0 0 0 0 0 0 0 0 0 0 0
split_gain=166.945 28.1702 12.5117 2.56371 2.39732 1.80837 1.56064 1.44164 1.01149 0.956914 0.794173 1.06098
threshold=11.340250000000001 12.878850000000002 9.8633500000000023 11.085350000000002 13.429050000000002 12.084950000000001 15.928050000000001 11.261400000000002 14.108350000000002 12.813350000000002 12.779950000000001 12.746550000000001
decision_type=2 2 2 2 2 2 2 2 2 2 2 2
left_child=2 5 -1 -4 -3 -2 8 -5 -6 10 11 -7
right_child=1 4 3 7 6 9 -8 -9 -10 -11 -12 -13
leaf_value=-0.008535201590848196 -0.011478101185324248 -0.012481151014131877 -0.0099669316733182727 -0.011595073404902031 -0.012798890895239359 -0.012082409241890539 -0.012786873465347194 -0.010074141213420717 -0.013042662490206171 -0.011310188036113434 -0.01298104703811636 -0.010953457947120108
leaf_count=1833 2854 3954 2350 474 5900 3810 18722 250 18474 483 238 232
internal_value=0 -1.56976 -1.18454 -1.26255 -1.58804 -1.45688 -1.59237 -1.36665 -1.60292 -1.48074 -1.49027 -1.48366
internal_count=59574 54667 4907 3074 47050 7617 43096 724 24374 4763 4280 4042
shrinkage=0.0081


Tree=6
num_leaves=13
num_cat=0
split_feature=0 0 0 0 0 0 0 0 0 0 0 0
split_gain=164.557 27.7782 12.3247 2.52577 2.36269 1.78337 1.53773 1.42003 0.997457 0.943214 0.783795 0.864483
threshold=11.340250000000001 12.878850000000002 9.8633500000000023 11.085350000000002 13.429050000000002 12.084950000000001 15.928050000000001 11.261400000000002 14.108350000000002 12.813350000000002 20.170750000000002 18.357200000000002
decision_type=2 2 2 2 2 2 2 2 2 2 2 2
left_child=2 5 -1 -4 -3 -2 8 -5 -6 -7 11 -8
right_child=1 4 3 7 6 9 10 -9 -10 -11 -12 -13
leaf_value=-0.0084677933711746669 -0.011389253311534392 -0.012385596524357985 -0.0098889339566703201 -0.011505211379969854 -0.012701040154247783 -0.011978317380033869 -0.012656269430794001 -0.0099954809021308554 -0.012943171149293718 -0.011222649082827612 -0.011744417054697908 -0.01297655649112983
leaf_count=1833 2854 3954 2350 474 5900 4280 15921 250 18474 483 228 2573
internal_value=0 -1.55776 -1.17525 -1.25269 -1.57591 -1.44564 -1.58021 -1.35603 -1.59069 -1.46934 -1.56657 -1.568
internal_count=59574 54667 4907 3074 47050 7617 43096 724 24374 4763 18722 18494
shrinkage=0.0081


Tree=7
num_leaves=13
num_cat=0
split_feature=0 0 0 0 0 0 0 0 0 0 0 0
split_gain=162.252 27.4015 12.1431 2.48906 2.32946 1.75928 1.51575 1.39915 0.984008 0.930016 0.78323 1.04548
threshold=11.340250000000001 12.878850000000002 9.8633500000000023 11.085350000000002 13.429050000000002 12.084950000000001 15.928050000000001 11.261400000000002 14.108350000000002 12.813350000000002 12.779950000000001 12.746550000000001
decision_type=2 2 2 2 2 2 2 2 2 2 2 2
left_child=2 5 -1 -4 -3 -2 8 -5 -6 10 11 -7
right_child=1 4 3 7 6 9 -8 -9 -10 -11 -12 -13
leaf_value=-0.0084012072694540814 -0.011301799081978845 -0.012291679307339971 -0.0098120087550642998 -0.011416775240145564 -0.012604916269900349 -0.011898111611225592 -0.012593214170867808 -0.0099179120486157409 -0.012845474113359106 -0.011136461882446548 -0.012790982380109209 -0.010776963100043009
leaf_count=1833 2854 3954 2350 474 5900 3810 18722 250 18474 483 238 232
internal_value=0 -1.54596 -1.16608 -1.24296 -1.564 -1.43458 -1.56827 -1.34557 -1.57867 -1.45813 -1.46753 -1.46096
internal_count=59574 54667 4907 3074 47050 7617 43096 724 24374 4763 4280 4042
shrinkage=0.0081


Tree=8
num_leaves=13
num_cat=0
split_feature=0 0 0 0 0 0 0 0 0 0 0 0
split_gain=160.027 27.0394 11.9667 2.45352 2.29758 1.73606 1.49468 1.37896 0.971118 0.917297 0.77302 0.852658
threshold=11.340250000000001 12.878850000000002 9.8633500000000023 11.085350000000002 13.429050000000002 12.084950000000001 15.928050000000001 11.261400000000002 14.108350000000002 12.813350000000002 20.170750000000002 18.357200000000002
decision_type=2 2 2 2 2 2 2 2 2 2 2 2
left_child=2 5 -1 -4 -3 -2 8 -5 -6 -7 11 -8
right_child=1 4 3 7 6 9 10 -9 -10 -11 -12 -13
leaf_value=-0.0083354256219384908 -0.011215700788511621 -0.012199353066066048 -0.0097361288639821186 -0.011329726027140531 -0.012510468651453031 -0.011797144913617934 -0.012466210977371812 -0.0098414063014721827 -0.012749519294116265 -0.011051589741591296 -0.011560149668019172 -0.012784485525909687
leaf_count=1833 2854 3954 2350 474 5900 4280 15921 250 18474 483 228 2573
internal_value=0 -1.53437 -1.15703 -1.23338 -1.55229 -1.4237 -1.55653 -1.33527 -1.56687 -1.4471 -1.54308 -1.54451
internal_count=59574 54667 4907 3074 47050 7617 43096 724 24374 4763 18722 18494
shrinkage=0.0081


Tree=9
num_leaves=13
num_cat=0
split_feature=0 0 0 0 0 0 0 0 0 0 0 0
split_gain=157.879 26.6914 11.7952 2.4191 2.26696 1.71368 1.47446 1.35943 0.958762 0.905032 0.773085 1.03101
threshold=11.340250000000001 12.878850000000002 9.8633500000000023 11.085350000000002 13.429050000000002 12.084950000000001 15.928050000000001 11.261400000000002 14.108350000000002 12.813350000000002 12.779950000000001 12.746550000000001
decision_type=2 2 2 2 2 2 2 2 2 2 2 2
left_child=2 5 -1 -4 -3 -2 8 -5 -6 10 11 -7
right_child=1 4 3 7 6 9 -8 -9 -10 -11 -12 -13
leaf_value=-0.0082704306483560031 -0.011130921581230581 -0.012108572729595478 -0.0096612693661690813 -0.011244025221161478 -0.012417648494775202 -0.01171978953723472 -0.012406242896539991 -0.0097659367307265897 -0.012655255350014166 -0.010967997753344332 -0.01260743206718592 -0.010605815683604133
leaf_count=1833 2854 3954 2350 474 5900 3810 18722 250 18474 483 238 232
internal_value=0 -1.52298 -1.1481 -1.22392 -1.54079 -1.41299 -1.54501 -1.32512 -1.55528 -1.43625 -1.44553 -1.43899
internal_count=59574 54667 4907 3074 47050 7617 43096 724 24374 4763 4280 4042
shrinkage=0.0081


Tree=10
num_leaves=13
num_cat=0
split_feature=0 0 0 0 0 0 0 0 0 0 0 0
split_gain=154.282 16.8427 13.5726 2.72637 2.60988 2.36854 2.2021 2.10221 2.08555 1.51812 1.6254 1.46777
threshold=11.490300000000001 13.009350000000001 10.554700000000002 14.083150000000002 14.006350000000001 19.094850000000005 12.037450000000002 9.5215000000000014 10.428650000000003 9.1184500000000011 9.1702500000000011 12.813350000000002
decision_type=2 2 2 2 2 2 2 2 2 2 2 2
left_child=2 6 7 4 -3 -5 -2 9 -9 -1 -11 -8
right_child=1 3 -4 5 -6 -7 11 8 -10 10 -12 -13
leaf_value=-0.0094145108042590093 -0.01112302860300749 -0.012190075870662438 -0.010322715208845116 -0.012452134300477685 -0.011125429953795308 -0.011712436296548247 -0.011870144437089366 -0.0093177810108796243 -0.007733561916490066 -0.0068793158701448941 -0.008316544594020505 -0.01126991288605839
leaf_count=238 2169 8071 2339 36116 656 1178 4513 1433 258 266 929 1408
internal_value=0 -1.51212 -1.15902 -1.52695 -1.49507 -1.53442 -1.42782 -1.07269 -1.12051 -1.01629 -0.987214 -1.44783
internal_count=59574 54111 5463 46021 8727 37294 8090 3124 1691 1433 1195 5921
shrinkage=0.0081


Tree=11
num_leaves=13
num_cat=0
split_feature=0 0 0 0 0 0 0 0 0 0 0 0
split_gain=152.308 16.6402 13.3848 2.69193 2.57456 2.33661 2.17424 2.07269 2.05383 1.49529 1.60204 1.44684
threshold=11.490300000000001 13.009350000000001 10.554700000000002 14.083150000000002 14.006350000000001 19.094850000000005 12.037450000000002 9.5215000000000014 10.428650000000003 9.1184500000000011 9.1702500000000011 12.813350000000002
decision_type=2 2 2 2 2 2 2 2 2 2 2 2
left_child=2 6 7 4 -3 -5 -2 9 -9 -1 -11 -8
right_child=1 3 -4 5 -6 -7 11 8 -10 10 -12 -13
leaf_value=-0.009342143411074165 -0.011040358412693671 -0.012101222455248332 -0.010244942282110325 -0.01236175052745341 -0.011043413837336842 -0.011626764305623994 -0.011782879244913239 -0.0092465253269186625 -0.0076740728311332392 -0.006825300852940753 -0.0082523655561603081 -0.011186725319961729
leaf_count=238 2169 8071 2339 36116 656 1178 4513 1433 258 266 929 1408
internal_value=0 -1.50111 -1.15019 -1.51586 -1.48416 -1.52328 -1.41728 -1.06444 -1.11194 -1.00843 -0.979566 -1.43718
internal_count=59574 54111 5463 46021 8727 37294 8090 3124 1691 1433 1195 5921
shrinkage=0.0081


Tree=12
num_leaves=13
num_cat=0
split_feature=0 0 0 0 0 0 0 0 0 0 0 0
split_gain=150.4 16.4473 13.2022 2.77832 2.51624 2.30591 2.0582 2.04392 2.02295 1.86254 1.47306 1.57923
threshold=11.490300000000001 12.977250000000002 10.554700000000002 14.083150000000002 14.006350000000001 19.094850000000005 12.037450000000002 9.5215000000000014 10.428650000000003 12.813350000000002 9.1184500000000011 9.1702500000000011
decision_type=2 2 2 2 2 2 2 2 2 2 2 2
left_child=2 6 7 4 -3 -5 -2 10 -9 -8 -1 -12
right_child=1 3 -4 5 -6 -7 9 8 -10 -11 11 -13
leaf_value=-0.0092707098742135924 -0.010958917354904551 -0.012007704776689568 -0.010168247561469647 -0.012272887319864655 -0.010962612766181153 -0.011542433876160533 -0.011697005141243185 -0.0091761766534025103 -0.0076152429605221301 -0.010972243817202304 -0.0067718546817949954 -0.0081889375001998055
leaf_count=238 2169 8299 2339 36116 656 1178 4513 1433 258 1180 266 929
internal_value=0 -1.49028 -1.14146 -1.5047 -1.47298 -1.51232 -1.4055 -1.05629 -1.10347 -1.42553 -1.00066 -0.972006
internal_count=59574 54111 5463 46249 8955 37294 7862 3124 1691 5693 1433 1195
shrinkage=0.0081


Tree=13
num_leaves=13
num_cat=0
split_feature=0 0 0 0 0 0 0 0 0 0 0 0
split_gain=148.556 16.2602 13.0247 2.62632 2.50798 2.27638 2.12102 2.01588 1.99288 1.45141 1.55694 1.4084
threshold=11.490300000000001 13.009350000000001 10.554700000000002 14.083150000000002 14.006350000000001 19.094850000000005 12.037450000000002 9.5215000000000014 10.428650000000003 9.1184500000000011 9.1702500000000011 12.813350000000002
decision_type=2 2 2 2 2 2 2 2 2 2 2 2
left_child=2 6 7 4 -3 -5 -2 9 -9 -1 -11 -8
right_child=1 3 -4 5 -6 -7 11 8 -10 10 -12 -13
leaf_value=-0.0092001883911576373 -0.01087867450341487 -0.011927893136893285 -0.010092603874949979 -0.012185501110472723 -0.010882996135686303 -0.011459409396132979 -0.011612484673198779 -0.0091067134685504769 -0.0075570585031956208 -0.0067189686714642502 -0.0081262440376562023 -0.011023822976137869
leaf_count=238 2169 8071 2339 36116 656 1178 4513 1433 258 266 929 1408
internal_value=0 -1.47962 -1.13285 -1.49422 -1.46288 -1.50155 -1.39669 -1.04824 -1.0951 -0.992976 -0.964531 -1.41636
internal_count=59574 54111 5463 46021 8727 37294 8090 3124 1691 1433 1195 5921
shrinkage=0.0081


Tree=14
num_leaves=13
num_cat=0
split_feature=0 0 0 0 0 0 0 0 0 0 0 0
split_gain=146.772 16.0862 12.8521 2.71107 2.45305 2.24797 2.00794 1.98854 1.9636 1.81795 1.43031 1.53516
threshold=11.490300000000001 12.977250000000002 10.554700000000002 14.083150000000002 14.006350000000001 19.094850000000005 12.037450000000002 9.5215000000000014 10.428650000000003 12.813350000000002 9.1184500000000011 9.1702500000000011
decision_type=2 2 2 2 2 2 2 2 2 2 2 2
left_child=2 6 7 4 -3 -5 -2 10 -9 -8 -1 -12
right_child=1 3 -4 5 -6 -7 9 8 -10 -11 11 -13
leaf_value=-0.0091305565226673085 -0.010799597656586023 -0.011837322719400863 -0.010017985241997743 -0.012099551703386474 -0.010804532551485122 -0.011377654749083699 -0.011529280073447445 -0.0090381162940580215 -0.0074995066348743757 -0.010812627502625245 -0.0066666315095496682 -0.0080642705432788508
leaf_count=238 2169 8299 2339 36116 656 1178 4513 1433 258 1180 266 929
internal_value=0 -1.46914 -1.12435 -1.48342 -1.45205 -1.49096 -1.38522 -1.04028 -1.08684 -1.40503 -0.985383 -0.95714
internal_count=59574 54111 5463 46249 8955 37294 7862 3124 1691 5693 1433 1195
shrinkage=0.0081


Tree=15
num_leaves=13
num_cat=0
split_feature=0 0 0 0 0 0 0 0 0 0 0 0
split_gain=168.617 19.4881 15.051 4.2851 0.950397 0.909305 0.709953 2.09387 1.03716 1.0068 0.804942 0.708631
threshold=11.490300000000001 13.518550000000001 10.019000000000002 12.405100000000003 13.489150000000002 9.1184500000000011 14.158650000000002 14.369250000000003 13.684350000000002 13.657950000000001 14.230400000000001 9.3585500000000028
decision_type=2 2 2 2 2 2 2 2 2 2 2 2
left_child=2 3 5 -2 -5 -1 8 10 9 -3 -8 -7
right_child=1 6 -4 4 -6 11 7 -9 -10 -11 -12 -13
leaf_value=-0.0087063506857098013 -0.010826367317918166 -0.012035216728797407 -0.0095266871394307489 -0.01151570657997553 -0.010460522779713875 -0.007330445167064022 -0.012075254383391021 -0.012006713059083593 -0.011717259392610554 -0.013217787164075307 -0.012746525529537192 -0.0079584665244015959
leaf_count=240 3956 1190 3191 7528 233 943 700 34640 4315 227 1460 951
internal_value=0 -1.46286 -1.08889 -1.39035 -1.41778 -0.958636 -1.48285 -1.48609 -1.46206 -1.50922 -1.54679 -0.94391
internal_count=59574 54249 5325 11717 7761 2134 42532 36800 5732 1417 2160 1894
shrinkage=0.0081


Tree=16
num_leaves=13
num_cat=0
split_feature=0 0 0 0 0 0 0 0 0 0 0 0
split_gain=166.645 19.2759 14.851 4.23725 0.937555 0.896153 0.702607 2.06845 1.02436 0.99442 0.794957 0.69904
threshold=11.490300000000001 13.518550000000001 10.019000000000002 12.405100000000003 13.489150000000002 9.1184500000000011 14.158650000000002 14.369250000000003 13.684350000000002 13.657950000000001 14.230400000000001 9.3585500000000028
decision_type=2 2 2 2 2 2 2 2 2 2 2 2
left_child=2 3 5 -2 -5 -1 8 10 9 -3 -8 -7
right_child=1 6 -4 4 -6 11 7 -9 -10 -11 -12 -13
leaf_value=-0.0086408884778493532 -0.010749083472228671 -0.01195171293038772 -0.0094565702556365944 -0.011434872320889015 -0.010386311836950388 -0.0072744536554655492 -0.011991789549245053 -0.011923549053345021 -0.011635533249076825 -0.013127738141010252 -0.012659289291483302 -0.0078983687688850938
leaf_count=240 3956 1190 3191 7528 233 943 700 34640 4315 227 1460 951
internal_value=0 -1.45268 -1.08078 -1.38054 -1.40783 -0.951364 -1.47258 -1.47581 -1.45188 -1.49877 -1.53617 -0.936741
internal_count=59574 54249 5325 11717 7761 2134 42532 36800 5732 1417 2160 1894
shrinkage=0.0081


Tree=17
num_leaves=13
num_cat=0
split_feature=0 0 0 0 0 0 0 0 0 0 0 0
split_gain=164.736 19.0715 14.6561 4.19104 0.92515 0.883322 0.695546 2.04402 1.01205 0.982544 0.785376 0.689663
threshold=11.490300000000001 13.518550000000001 10.019000000000002 12.405100000000003 13.489150000000002 9.1184500000000011 14.158650000000002 14.369250000000003 13.684350000000002 13.657950000000001 14.230400000000001 9.3585500000000028
decision_type=2 2 2 2 2 2 2 2 2 2 2 2
left_child=2 3 5 -2 -5 -1 8 10 9 -3 -8 -7
right_child=1 6 -4 4 -6 11 7 -9 -10 -11 -12 -13
leaf_value=-0.008576201415800332 -0.010672893784476778 -0.011869537441348931 -0.0093873383696367312 -0.011355259751103736 -0.010313107752910944 -0.0072190561013600035 -0.011909656081969875 -0.011841703549868018 -0.011555065848102515 -0.013039306295514003 -0.0125735457512794 -0.0078389373071947148
leaf_count=240 3956 1190 3191 7528 233 943 700 34640 4315 227 1460 951
internal_value=0 -1.44267 -1.07276 -1.37086 -1.39802 -0.944171 -1.46247 -1.46568 -1.44186 -1.4885 -1.52573 -0.92965
internal_count=59574 54249 5325 11717 7761 2134 42532 36800 5732 1417 2160 1894
shrinkage=0.0081


Tree=18
num_leaves=13
num_cat=0
split_feature=0 0 0 0 0 0 0 0 0 0 0 0
split_gain=162.886 18.8746 14.466 4.14641 0.913163 0.8708 0.688754 2.02056 1.0002 0.971152 0.776178 0.680494
threshold=11.490300000000001 13.518550000000001 10.019000000000002 12.405100000000003 13.489150000000002 9.1184500000000011 14.158650000000002 14.369250000000003 13.684350000000002 13.657950000000001 14.230400000000001 9.3585500000000028
decision_type=2 2 2 2 2 2 2 2 2 2 2 2
left_child=2 3 5 -2 -5 -1 8 10 9 -3 -8 -7
right_child=1 6 -4 4 -6 11 7 -9 -10 -11 -12 -13
leaf_value=-0.0085122729387106313 -0.010597770019593543 -0.011788655080659592 -0.009318970328299531 -0.011276836244609168 -0.010240885971922738 -0.0071642407076942466 -0.011828818447105724 -0.011761140875853846 -0.011475823916286496 -0.012952448271437567 -0.012489253089499872 -0.0077801588083236499
leaf_count=240 3956 1190 3191 7528 233 943 700 34640 4315 227 1460 951
internal_value=0 -1.4328 -1.06484 -1.36133 -1.38836 -0.937057 -1.45252 -1.45572 -1.432 -1.4784 -1.51546 -0.922635
internal_count=59574 54249 5325 11717 7761 2134 42532 36800 5732 1417 2160 1894
shrinkage=0.0081


Tree=19
num_leaves=13
num_cat=0
split_feature=0 0 0 0 0 0 0 0 0 0 0 0
split_gain=161.093 18.6849 14.2806 4.1033 0.901577 0.858578 0.682218 1.99803 0.9888 0.96022 0.767346 0.671524
threshold=11.490300000000001 13.518550000000001 10.019000000000002 12.405100000000003 13.489150000000002 9.1184500000000011 14.158650000000002 14.369250000000003 13.684350000000002 13.657950000000001 14.230400000000001 9.3585500000000028
decision_type=2 2 2 2 2 2 2 2 2 2 2 2
left_child=2 3 5 -2 -5 -1 8 10 9 -3 -8 -7
right_child=1 6 -4 4 -6 11 7 -9 -10 -11 -12 -13
leaf_value=-0.0084490873076476011 -0.010523685018503395 -0.011709029360719027 -0.0092514464836880566 -0.011199570494476499 -0.010169622157307448 -0.0071099967724321212 -0.01174924299448972 -0.011681825232405954 -0.011397774201350873 -0.012867116399800097 -0.012406371374634016 -0.0077220196804742378
leaf_count=240 3956 1190 3191 7528 233 943 700 34640 4315 227 1460 951
internal_value=0 -1.42309 -1.05701 -1.35194 -1.37885 -0.930019 -1.44272 -1.44591 -1.42229 -1.46845 -1.50535 -0.915695
internal_count=59574 54249 5325 11717 7761 2134 42532 36800 5732 1417 2160 1894
shrinkage=0.0081


Tree=20
num_leaves=13
num_cat=0
split_feature=0 0 0 0 0 0 0 0 0 0 0 0
split_gain=173.13 17.8257 16.636 1.5957 1.21666 1.20716 2.75552 0.944237 1.15623 0.948109 2.57969 1.36696
threshold=11.561650000000002 12.913600000000002 9.6923500000000011 10.554700000000002 13.167950000000001 15.856650000000002 17.327250000000003 15.530050000000001 15.669850000000002 13.847850000000001 13.981350000000001 13.632150000000001
decision_type=2 2 2 2 2 2 2 2 2 2 2 2
left_child=2 -2 -1 -4 -3 7 -7 9 -9 11 -11 -6
right_child=1 4 3 -5 5 6 -8 8 -10 10 -12 -13
leaf_value=-0.0071238215837685576 -0.01073297998887422 -0.01120595620907654 -0.0086342158380842953 -0.0093082335242746419 -0.011665708820838403 -0.011377965023642042 -0.011776197577704442 -0.012335952177933152 -0.011707284975533191 -0.010854782311536275 -0.011659675956186479 -0.012209757491946114
leaf_count=1625 7051 1880 1438 2635 3577 11899 7582 1321 1904 1138 15648 1876
internal_value=0 -1.41942 -1.05108 -1.11975 -1.43366 -1.43577 -1.42382 -1.4449 -1.47714 -1.44023 -1.43273 -1.46331
internal_count=59574 53876 5698 4073 46825 44945 19481 25464 3225 22239 16786 5453
shrinkage=0.0081


Tree=21
num_leaves=13
num_cat=0
split_feature=0 0 0 0 0 0 0 0 0 0 0 0
split_gain=171.288 17.6571 16.4247 1.5781 1.20499 1.19318 2.7228 0.933925 1.14293 0.934799 2.55141 1.35232
threshold=11.561650000000002 12.913600000000002 9.6923500000000011 10.554700000000002 13.167950000000001 15.856650000000002 17.327250000000003 15.530050000000001 15.669850000000002 13.847850000000001 13.981350000000001 13.632150000000001
decision_type=2 2 2 2 2 2 2 2 2 2 2 2
left_child=2 -2 -1 -4 -3 7 -7 9 -9 11 -11 -6
right_child=1 4 3 -5 5 6 -8 8 -10 10 -12 -13
leaf_value=-0.0070703533661699994 -0.010659557165980093 -0.011130605794795821 -0.0085712580906048969 -0.0092418402221286881 -0.011588113169870793 -0.011302174822513895 -0.011698327819112687 -0.012255405910670052 -0.011629884224187089 -0.010781498116520571 -0.011582512208707048 -0.012129651710806226
leaf_count=1625 7051 1880 1438 2635 3577 11899 7582 1321 1904 1138 15648 1876
internal_value=0 -1.40997 -1.04343 -1.1117 -1.42415 -1.42625 -1.41437 -1.43534 -1.46742 -1.43069 -1.42323 -1.45362
internal_count=59574 53876 5698 4073 46825 44945 19481 25464 3225 22239 16786 5453
shrinkage=0.0081


Tree=22
num_leaves=13
num_cat=0
split_feature=0 0 0 0 0 0 0 0 0 0 0 0
split_gain=169.502 17.4945 16.2183 1.56094 1.19374 1.18232 3.15726 0.744788 1.2641 0.728997 0.696281 0.601945
threshold=11.561650000000002 12.913600000000002 9.6923500000000011 10.554700000000002 13.167950000000001 16.075750000000003 17.327250000000003 9.1702500000000011 9.1184500000000011 9.5215000000000014 13.136250000000002 13.847850000000001
decision_type=2 2 2 2 2 2 2 2 2 2 2 2
left_child=2 -2 7 -4 10 11 -7 8 -1 -9 -3 -6
right_child=1 4 3 -5 5 6 -8 9 -10 -11 -12 -13
leaf_value=-0.0073484373973469116 -0.010587141631294865 -0.011174902626279935 -0.008509021312053661 -0.0091762470802990714 -0.011697091852705956 -0.011177343780671841 -0.011621646221327036 -0.0074351044855690933 -0.0055924944655960946 -0.0064466724425710636 -0.010222142596089921 -0.011505309536884547
leaf_count=210 7051 1646 1438 2635 5453 9805 7582 941 224 250 234 22105
internal_value=0 -1.40066 -1.03587 -1.10374 -1.41479 -1.41687 -1.40384 -0.866349 -0.795172 -0.892313 -1.36498 -1.4251
internal_count=59574 53876 5698 4073 46825 44945 17387 1625 434 1191 1880 27558
shrinkage=0.0081


Tree=23
num_leaves=13
num_cat=0
split_feature=0 0 0 0 0 0 0 0 0 0 0 0
split_gain=167.767 17.3377 16.0163 1.54419 1.18291 1.16927 3.12161 0.734593 1.24683 0.718415 0.687952 0.593494
threshold=11.561650000000002 12.913600000000002 9.6923500000000011 10.554700000000002 13.167950000000001 16.075750000000003 17.327250000000003 9.1702500000000011 9.1184500000000011 9.5215000000000014 13.136250000000002 13.847850000000001
decision_type=2 2 2 2 2 2 2 2 2 2 2 2
left_child=2 -2 7 -4 10 11 -7 8 -1 -9 -3 -6
right_child=1 4 3 -5 5 6 -8 9 -10 -11 -12 -13
leaf_value=-0.0072940267670662581 -0.010515708679883962 -0.01110107196505462 -0.0084474894373522125 -0.0091114360505620013 -0.011621001501942941 -0.011103983806013878 -0.011546119892152278 -0.0073799337017139916 -0.0055496200517349938 -0.0063983938611665084 -0.01015336784607033 -0.011430417886486164
leaf_count=210 7051 1646 1438 2635 5453 9805 7582 941 224 250 234 22105
internal_value=0 -1.39148 -1.02839 -1.09588 -1.40556 -1.40764 -1.39466 -0.859884 -0.789176 -0.885679 -1.35594 -1.41582
internal_count=59574 53876 5698 4073 46825 44945 17387 1625 434 1191 1880 27558
shrinkage=0.0081


Tree=24
num_leaves=13
num_cat=0
split_feature=0 0 0 0 0 0 0 0 0 0 0 0
split_gain=166.084 17.1863 15.8189 1.52785 1.17247 1.1567 3.08726 0.724604 1.2299 0.708065 0.679898 0.585347
threshold=11.561650000000002 12.913600000000002 9.6923500000000011 10.554700000000002 13.167950000000001 16.075750000000003 17.327250000000003 9.1702500000000011 9.1184500000000011 9.5215000000000014 13.136250000000002 13.847850000000001
decision_type=2 2 2 2 2 2 2 2 2 2 2 2
left_child=2 -2 7 -4 10 11 -7 8 -1 -9 -3 -6
right_child=1 4 3 -5 5 6 -8 9 -10 -11 -12 -13
leaf_value=-0.0072401727746489323 -0.010445233902515156 -0.011028291776545547 -0.0083866473427483129 -0.0090473894223067168 -0.011546055658551383 -0.011031664089664859 -0.011471719560809638 -0.0073253346737511826 -0.0055071414130944355 -0.0063505767842958003 -0.010085475703674709 -0.011356628014633621
leaf_count=210 7051 1646 1438 2635 5453 9805 7582 941 224 250 234 22105
internal_value=0 -1.38243 -1.02099 -1.08811 -1.39646 -1.39853 -1.38562 -0.853484 -0.783239 -0.879112 -1.34703 -1.40668
internal_count=59574 53876 5698 4073 46825 44945 17387 1625 434 1191 1880 27558
shrinkage=0.0081


Tree=25
num_leaves=13
num_cat=0
split_feature=0 0 0 0 0 0 0 0 0 0 0 0
split_gain=166.072 33.8783 6.15071 2.63809 2.51594 1.92331 1.44822 1.10886 1.50515 1.33091 1.33633 0.977132
threshold=11.176300000000001 12.913600000000002 10.156750000000001 12.084950000000001 10.886850000000001 11.818600000000002 19.25675 15.786050000000001 15.833250000000001 13.518550000000001 13.684350000000002 13.981350000000001
decision_type=2 2 2 2 2 2 2 2 2 2 2 2
left_child=2 3 -1 5 -4 -2 7 9 -9 -3 -11 -12
right_child=1 6 4 -5 -6 -7 -8 8 -10 10 11 -13
leaf_value=-0.0072020112351461208 -0.010037619772703 -0.011024835850420767 -0.0088218098704545764 -0.010331826069525095 -0.007625475430289263 -0.0092203467989797113 -0.011872082323328868 -0.010198102954122554 -0.011142252933912496 -0.011833145393736299 -0.011008108972618127 -0.01134510566819572
leaf_count=2341 2095 4469 1387 5040 707 1217 917 465 18738 1357 2647 18194
internal_value=0 -1.36486 -0.959888 -1.2464 -1.03929 -1.20218 -1.38608 -1.38449 -1.37277 -1.39293 -1.39935 -1.39534
internal_count=59574 55139 4435 8352 2094 3312 46787 45870 19203 26667 22198 20841
shrinkage=0.0081


Tree=26
num_leaves=13
num_cat=0
split_feature=0 0 0 0 0 0 0 0 0 0 0 0
split_gain=164.423 33.5827 6.07815 2.61482 2.48163 1.89726 1.43183 1.0968 1.4881 1.32045 1.32177 0.967981
threshold=11.176300000000001 12.913600000000002 10.156750000000001 12.084950000000001 10.886850000000001 11.818600000000002 19.25675 15.786050000000001 15.833250000000001 13.518550000000001 13.684350000000002 13.981350000000001
decision_type=2 2 2 2 2 2 2 2 2 2 2 2
left_child=2 3 -1 5 -4 -2 7 9 -9 -3 -11 -12
right_child=1 6 4 -5 -6 -7 -8 8 -10 10 11 -13
leaf_value=-0.0071490950139217555 -0.0099697612918670016 -0.010953888305940108 -0.0087597080408022832 -0.010263587036929481 -0.0075709707131514162 -0.009157510510768796 -0.011797509212563517 -0.010131611126766259 -0.011071144655433711 -0.011758972937087215 -0.01093748661382124 -0.011273186836082989
leaf_count=2341 2095 4469 1387 5040 707 1217 917 465 18738 1357 2647 18194
internal_value=0 -1.3561 -0.952958 -1.23808 -1.03193 -1.19402 -1.37725 -1.37567 -1.364 -1.38407 -1.39047 -1.38648
internal_count=59574 55139 4435 8352 2094 3312 46787 45870 19203 26667 22198 20841
shrinkage=0.0081


Tree=27
num_leaves=13
num_cat=0
split_feature=0 0 0 0 0 0 0 0 0 0 0 0
split_gain=162.819 33.2969 6.00714 2.59222 2.44815 1.87196 1.41603 1.08516 1.47161 1.31039 1.30775 0.959162
threshold=11.176300000000001 12.913600000000002 10.156750000000001 12.084950000000001 10.886850000000001 11.818600000000002 19.25675 15.786050000000001 15.833250000000001 13.518550000000001 13.684350000000002 13.981350000000001
decision_type=2 2 2 2 2 2 2 2 2 2 2 2
left_child=2 3 -1 5 -4 -2 7 9 -9 -3 -11 -12
right_child=1 6 4 -5 -6 -7 -8 8 -10 10 11 -13
leaf_value=-0.0070967087209847764 -0.0099027580716769797 -0.010883922140416983 -0.008698309811431491 -0.010196226535156802 -0.0075170171810895184 -0.0090953986314508666 -0.011724071597199995 -0.010065956650000183 -0.011001031253661928 -0.011685923456673531 -0.010867837747449857 -0.011202297275428269
leaf_count=2341 2095 4469 1387 5040 707 1217 917 465 18738 1357 2647 18194
internal_value=0 -1.34747 -0.9461 -1.22987 -1.02466 -1.18597 -1.36855 -1.36697 -1.35536 -1.37534 -1.38172 -1.37775
internal_count=59574 55139 4435 8352 2094 3312 46787 45870 19203 26667 22198 20841
shrinkage=0.0081


Tree=28
num_leaves=13
num_cat=0
split_feature=0 0 0 0 0 0 0 0 0 0 0 0
split_gain=161.259 33.0206 5.93762 2.57027 2.41547 1.84737 1.40081 1.07406 1.21843 1.35087 0.993429 1.38368
threshold=11.176300000000001 12.913600000000002 10.156750000000001 12.084950000000001 10.886850000000001 11.818600000000002 19.25675 15.999450000000001 13.518550000000001 13.684350000000002 17.803950000000004 18.148950000000003
decision_type=2 2 2 2 2 2 2 2 2 2 2 2
left_child=2 3 -1 5 -4 -2 7 8 -3 -10 -9 -12
right_child=1 6 4 -5 -6 -7 -8 10 9 -11 11 -13
leaf_value=-0.007044842546386757 -0.0098365890496907738 -0.010814912705742762 -0.0086375989469067455 -0.010129723423782147 -0.007463605516695654 -0.0090339957926667911 -0.011651739534386618 -0.010830360190214739 -0.011613968190883065 -0.011080252126752501 -0.011529782233236056 -0.010893676901999964
leaf_count=2341 2095 4469 1387 5040 707 1217 917 13060 1357 23007 1459 2518
internal_value=0 -1.33895 -0.939313 -1.22175 -1.01746 -1.17802 -1.35997 -1.3584 -1.36595 -1.3716 -1.34563 -1.37371
internal_count=59574 55139 4435 8352 2094 3312 46787 45870 28833 24364 17037 3977
shrinkage=0.0081


Tree=29
num_leaves=13
num_cat=0
split_feature=0 0 0 0 0 0 0 0 0 0 0 0
split_gain=159.742 32.7534 5.86954 2.54893 2.38358 1.82348 1.38613 1.06456 1.46176 1.29183 1.28093 0.954254
threshold=11.176300000000001 12.913600000000002 10.156750000000001 12.084950000000001 10.886850000000001 11.818600000000002 19.25675 15.786050000000001 15.833250000000001 13.518550000000001 13.684350000000002 13.981350000000001
decision_type=2 2 2 2 2 2 2 2 2 2 2 2
left_child=2 3 -1 5 -4 -2 7 9 -9 -3 -11 -12
right_child=1 6 4 -5 -6 -7 -8 8 -10 10 11 -13
leaf_value=-0.0069934874235185289 -0.0097712352534263074 -0.010746836100716597 -0.0085775607992716624 -0.01006405663226213 -0.0074107241752451886 -0.0089732852630344685 -0.011580483429608809 -0.0099301908890358833 -0.010863788043778647 -0.01154307885320113 -0.010729605880863604 -0.011063822470761684
leaf_count=2341 2095 4469 1387 5040 707 1217 917 465 18738 1357 2647 18194
internal_value=0 -1.33055 -0.932596 -1.21374 -1.01034 -1.17016 -1.35151 -1.34995 -1.33842 -1.35825 -1.3646 -1.36066
internal_count=59574 55139 4435 8352 2094 3312 46787 45870 19203 26667 22198 20841
shrinkage=0.0081


Tree=30
num_leaves=13
num_cat=0
split_feature=0 0 0 0 0 0 0 0 0 0 0 0
split_gain=122.046 23.3872 11.5661 1.90976 1.69343 2.15627 1.51854 1.39584 3.50104 2.87947 2.10129 2.35876
threshold=11.490300000000001 13.039950000000001 9.8633500000000023 12.604850000000001 11.418350000000002 10.990550000000001 11.261400000000002 16.336450000000003 16.580750000000005 14.254550000000002 16.552550000000004 16.363350000000001
decision_type=2 2 2 2 2 2 2 2 2 2 2 2
left_child=2 3 -1 -2 5 -4 -7 9 10 -3 11 -9
right_child=1 7 4 -5 -6 6 -8 8 -10 -11 -12 -13
leaf_value=-0.0071071666118520194 -0.0097406990902086012 -0.010716962905331974 -0.0084851453365275449 -0.01025862391612677 -0.0073923950305408125 -0.0098288697805318896 -0.0086394270935042372 -0.008737546654061349 -0.010853450829625563 -0.011055993118444338 -0.0086351942064053916 -0.010530813935734218
leaf_count=1838 5183 10034 2101 3056 246 722 479 227 12851 21007 229 1601
internal_value=0 -1.32572 -1.00697 -1.22624 -1.07449 -1.08653 -1.1549 -1.34363 -1.32747 -1.3514 -1.24962 -1.27261
internal_count=59574 54188 5386 8239 3548 3302 1201 45949 14908 31041 2057 1828
shrinkage=0.0081


Tree=31
num_leaves=13
num_cat=0
split_feature=0 0 0 0 0 0 0 0 0 0 0 0
split_gain=121.025 23.2082 11.4377 1.8927 1.67133 2.13332 1.49975 1.38228 3.46536 2.85501 2.07841 2.3333
threshold=11.490300000000001 13.039950000000001 9.8633500000000023 12.604850000000001 11.418350000000002 10.990550000000001 11.261400000000002 16.336450000000003 16.580750000000005 14.254550000000002 16.552550000000004 16.363350000000001
decision_type=2 2 2 2 2 2 2 2 2 2 2 2
left_child=2 3 -1 -2 5 -4 -7 9 10 -3 11 -9
right_child=1 7 4 -5 -6 6 -8 8 -10 -11 -12 -13
leaf_value=-0.0070556256399012642 -0.0096775424315513597 -0.010650778794410122 -0.0084264494375047641 -0.010193589618527467 -0.0073406222634894739 -0.0097635254152325553 -0.008580660700806696 -0.0086804944864976984 -0.010786851859902849 -0.0109886971097555 -0.0085786494078785216 -0.010465498018199057
leaf_count=1838 5183 10034 2101 3056 246 722 479 227 12851 21007 229 1601
internal_value=0 -1.31753 -0.999929 -1.21836 -1.06713 -1.0791 -1.14715 -1.3354 -1.3193 -1.34313 -1.24177 -1.26466
internal_count=59574 54188 5386 8239 3548 3302 1201 45949 14908 31041 2057 1828
shrinkage=0.0081


Tree=32
num_leaves=13
num_cat=0
split_feature=0 0 0 0 0 0 0 0 0 0 0 0
split_gain=120.032 23.0351 11.312 1.87613 1.64976 2.11093 1.48146 1.36915 3.43081 2.83142 2.05617 2.30856
threshold=11.490300000000001 13.039950000000001 9.8633500000000023 12.604850000000001 11.418350000000002 10.990550000000001 11.261400000000002 16.336450000000003 16.580750000000005 14.254550000000002 16.552550000000004 16.363350000000001
decision_type=2 2 2 2 2 2 2 2 2 2 2 2
left_child=2 3 -1 -2 5 -4 -7 9 10 -3 11 -9
right_child=1 7 4 -5 -6 6 -8 8 -10 -11 -12 -13
leaf_value=-0.0070045879226849498 -0.0096151344244676754 -0.010585461328874553 -0.0083683838923254115 -0.01012936758712637 -0.0072893489559295935 -0.0096989762573965049 -0.0085225269867058653 -0.0086240419867651269 -0.010721139532063082 -0.010922317518037081 -0.0085226934787424463 -0.010401018178449458
leaf_count=1838 5183 10034 2101 3056 246 722 479 227 12851 21007 229 1601
internal_value=0 -1.30945 -0.992965 -1.21057 -1.05985 -1.07174 -1.1395 -1.32727 -1.31123 -1.33498 -1.23402 -1.25682
internal_count=59574 54188 5386 8239 3548 3302 1201 45949 14908 31041 2057 1828
shrinkage=0.0081


Tree=33
num_leaves=13
num_cat=0
split_feature=0 0 0 0 0 0 0 0 0 0 0 0
split_gain=119.065 22.8676 11.1889 1.86003 1.6287 2.08908 1.46365 1.35647 3.39733 2.80864 2.03455 2.28452
threshold=11.490300000000001 13.039950000000001 9.8633500000000023 12.604850000000001 11.418350000000002 10.990550000000001 11.261400000000002 16.336450000000003 16.580750000000005 14.254550000000002 16.552550000000004 16.363350000000001
decision_type=2 2 2 2 2 2 2 2 2 2 2 2
left_child=2 3 -1 -2 5 -4 -7 9 10 -3 11 -9
right_child=1 7 4 -5 -6 6 -8 8 -10 -11 -12 -13
leaf_value=-0.006954044690900954 -0.0095534579267632577 -0.010520989324776018 -0.0083109355802100954 -0.010065938028070761 -0.0072385656472882844 -0.0096352035831944668 -0.0084650122830312591 -0.0085681770636784841 -0.010656290117529475 -0.01085683137727219 -0.0084673133663748078 -0.010337354994997959
leaf_count=1838 5183 10034 2101 3056 246 722 479 227 12851 21007 229 1601
internal_value=0 -1.30148 -0.986073 -1.20287 -1.05264 -1.06447 -1.13192 -1.31926 -1.30327 -1.32694 -1.22637 -1.24907
internal_count=59574 54188 5386 8239 3548 3302 1201 45949 14908 31041 2057 1828
shrinkage=0.0081


Tree=34
num_leaves=13
num_cat=0
split_feature=0 0 0 0 0 0 0 0 0 0 0 0
split_gain=118.124 22.7055 11.0683 1.8444 1.60813 2.06776 1.44631 1.34421 3.36488 2.78666 2.01351 2.26114
threshold=11.490300000000001 13.039950000000001 9.8633500000000023 12.604850000000001 11.418350000000002 10.990550000000001 11.261400000000002 16.336450000000003 16.580750000000005 14.254550000000002 16.552550000000004 16.363350000000001
decision_type=2 2 2 2 2 2 2 2 2 2 2 2
left_child=2 3 -1 -2 5 -4 -7 9 10 -3 11 -9
right_child=1 7 4 -5 -6 6 -8 8 -10 -11 -12 -13
leaf_value=-0.0069039872433746974 -0.0094924960002040482 -0.01045734201635295 -0.0082540920999756556 -0.01000328345608005 -0.0071882652000133202 -0.0095721894015106668 -0.0084081042617355148 -0.008512887833285656 -0.010592283669365104 -0.010792216740559808 -0.0084124975626846937 -0.01027448767811482
leaf_count=1838 5183 10034 2101 3056 246 722 479 227 12851 21007 229 1601
internal_value=0 -1.29361 -0.979252 -1.19527 -1.04551 -1.05728 -1.12444 -1.31134 -1.29542 -1.319 -1.21881 -1.24142
internal_count=59574 54188 5386 8239 3548 3302 1201 45949 14908 31041 2057 1828
shrinkage=0.0081


Tree=35
num_leaves=13
num_cat=0
split_feature=0 0 0 0 0 0 0 0 0 0 0 0
split_gain=127.994 23.905 7.75728 2.92329 2.52499 1.80769 1.66858 3.65454 1.36777 0.972824 2.17724 1.30763
threshold=11.490300000000001 12.813350000000002 9.6923500000000011 11.085350000000002 13.518550000000001 11.261400000000002 13.366850000000001 13.429050000000002 9.1184500000000011 16.445550000000001 16.580750000000005 16.391500000000004
decision_type=2 2 2 2 2 2 2 2 2 2 2 2
left_child=2 -2 8 -4 6 -5 -3 -8 -1 11 -11 -6
right_child=1 4 3 5 9 -7 7 -9 -10 10 -12 -13
leaf_value=-0.0079267979072080233 -0.0094610654874630103 -0.010334652154878115 -0.0078189888788575638 -0.0096302691076834181 -0.010600827436630477 -0.0082833388089556884 -0.0084522737504476638 -0.01034146871592594 -0.0065812060482353567 -0.0097589200329693988 -0.010508232164181003 -0.011501874452305582
leaf_count=236 6652 3929 2490 454 27879 662 450 742 1407 1155 13070 448
internal_value=0 -1.28236 -0.951123 -1.00386 -1.29841 -1.09022 -1.25561 -1.18868 -0.836326 -1.30358 -1.28979 -1.31051
internal_count=59574 54325 5249 3606 47673 1116 5121 1192 1643 42552 14225 28327
shrinkage=0.0081


Tree=36
num_leaves=13
num_cat=0
split_feature=0 0 0 0 0 0 0 0 0 0 0 0
split_gain=126.986 23.7363 7.67587 2.89291 2.50905 1.78775 1.65024 3.61669 1.35027 0.964919 2.15728 1.29458
threshold=11.490300000000001 12.813350000000002 9.6923500000000011 11.085350000000002 13.518550000000001 11.261400000000002 13.366850000000001 13.429050000000002 9.1184500000000011 16.445550000000001 16.580750000000005 16.391500000000004
decision_type=2 2 2 2 2 2 2 2 2 2 2 2
left_child=2 -2 8 -4 6 -5 -3 -8 -1 11 -11 -6
right_child=1 4 3 5 9 -7 7 -9 -10 10 -12 -13
leaf_value=-0.0078714000468712696 -0.0094014759599965036 -0.010272320694338203 -0.0077653628068869102 -0.0095683831151036781 -0.010538287189470428 -0.0082278507655580303 -0.0083983182750332307 -0.01027946248005638 -0.0065337211882219772 -0.0096993076495355875 -0.01044592714886128 -0.011435886558609748
leaf_count=236 6652 3929 2490 454 27879 662 450 742 1407 1155 13070 448
internal_value=0 -1.2747 -0.944558 -0.997058 -1.29072 -1.08304 -1.248 -1.18138 -0.830319 -1.29587 -1.28213 -1.30278
internal_count=59574 54325 5249 3606 47673 1116 5121 1192 1643 42552 14225 28327
shrinkage=0.0081


Tree=37
num_leaves=13
num_cat=0
split_feature=0 0 0 0 0 0 0 0 0 0 0 0
split_gain=126.004 23.5727 7.59599 2.86319 2.49364 1.76831 1.63243 3.57987 1.33312 0.957265 2.13794 1.28198
threshold=11.490300000000001 12.813350000000002 9.6923500000000011 11.085350000000002 13.518550000000001 11.261400000000002 13.366850000000001 13.429050000000002 9.1184500000000011 16.445550000000001 16.580750000000005 16.391500000000004
decision_type=2 2 2 2 2 2 2 2 2 2 2 2
left_child=2 -2 8 -4 6 -5 -3 -8 -1 11 -11 -6
right_child=1 4 3 5 9 -7 7 -9 -10 10 -12 -13
leaf_value=-0.0078165673281696008 -0.0093425552768432001 -0.010210756386000908 -0.0077122663650952229 -0.0095072168151966625 -0.010476538233943442 -0.0081729272154262966 -0.0083448991380541716 -0.010218218608177619 -0.0064866744601281626 -0.0096403772479464103 -0.010384402908854723 -0.011370838792018518
leaf_count=236 6652 3929 2490 454 27879 662 450 742 1407 1155 13070 448
internal_value=0 -1.26713 -0.938057 -0.990326 -1.28312 -1.07593 -1.24049 -1.17416 -0.824368 -1.28826 -1.27456 -1.29515
internal_count=59574 54325 5249 3606 47673 1116 5121 1192 1643 42552 14225 28327
shrinkage=0.0081


Tree=38
num_leaves=13
num_cat=0
split_feature=0 0 0 0 0 0 0 0 0 0 0 0
split_gain=125.045 23.4142 7.5176 2.83412 2.47873 1.74935 1.61513 3.54403 1.31632 0.954011 1.90636 1.58138
threshold=11.490300000000001 12.813350000000002 9.6923500000000011 11.085350000000002 13.518550000000001 11.261400000000002 13.366850000000001 13.429050000000002 9.1184500000000011 15.999450000000001 15.622350000000003 15.669850000000002
decision_type=2 2 2 2 2 2 2 2 2 2 2 2
left_child=2 -2 8 -4 6 -5 -3 -8 -1 10 -6 -12
right_child=1 4 3 5 9 -7 7 -9 -10 -11 11 -13
leaf_value=-0.007762289151133717 -0.0092842885846133559 -0.010149942316292368 -0.0076596899193646737 -0.0094467532665143492 -0.01037874232771756 -0.00811855734591942 -0.0082920047533434817 -0.010157719482785139 -0.0064400580198466844 -0.010282985005124279 -0.011662329944967686 -0.010652974841063777
leaf_count=236 6652 3929 2490 454 20571 662 450 742 1407 18171 492 3318
internal_value=0 -1.25966 -0.931619 -0.983661 -1.27561 -1.0689 -1.23306 -1.16702 -0.818473 -1.28075 -1.28913 -1.33126
internal_count=59574 54325 5249 3606 47673 1116 5121 1192 1643 42552 24381 3810
shrinkage=0.0081


Tree=39
num_leaves=13
num_cat=0
split_feature=0 0 0 0 0 0 0 0 0 0 0 0
split_gain=124.111 23.2604 7.44064 2.80567 2.4643 1.73084 1.59831 3.50914 1.29986 0.947269 1.88904 1.56812
threshold=11.490300000000001 12.813350000000002 9.6923500000000011 11.085350000000002 13.518550000000001 11.261400000000002 13.366850000000001 13.429050000000002 9.1184500000000011 15.999450000000001 15.622350000000003 15.669850000000002
decision_type=2 2 2 2 2 2 2 2 2 2 2 2
left_child=2 -2 8 -4 6 -5 -3 -8 -1 10 -6 -12
right_child=1 4 3 5 9 -7 7 -9 -10 -11 11 -13
leaf_value=-0.0077085539742775214 -0.0092266615391198535 -0.01008986032052892 -0.0076076231642609972 -0.0093869766278577675 -0.010318671658004114 -0.0080647300792841357 -0.0082396262457366896 -0.010097947069596666 -0.0063938653782947188 -0.010223077276033393 -0.011598368784546231 -0.010591951463580098
leaf_count=236 6652 3929 2490 454 20571 662 450 742 1407 18171 492 3318
internal_value=0 -1.25228 -0.925244 -0.977063 -1.2682 -1.06195 -1.22573 -1.15996 -0.812632 -1.27332 -1.28169 -1.32368
internal_count=59574 54325 5249 3606 47673 1116 5121 1192 1643 42552 24381 3810
shrinkage=0.0081


Tree=40
num_leaves=13
num_cat=0
split_feature=0 0 0 0 0 0 0 0 0 0 0 0
split_gain=103.793 13.9018 8.81185 1.68211 1.95696 2.0733 1.24742 1.07507 0.799513 0.757439 0.657958 0.685259
threshold=12.037450000000002 10.554700000000002 13.459850000000001 10.673200000000001 11.490300000000001 11.984700000000002 12.448950000000002 10.886850000000001 12.489850000000002 11.756450000000003 12.604850000000001 13.398350000000002
decision_type=2 2 2 2 2 2 2 2 2 2 2 2
left_child=1 -1 6 -3 7 9 -2 -5 -8 -6 -10 -12
right_child=2 3 -4 4 5 -7 8 -9 10 -11 11 -13
leaf_value=-0.0071570249290829474 -0.0092608027249700669 -0.010006687655653924 -0.010173700669157857 -0.0088568091708663126 -0.0093836281204766996 -0.0074306097168668397 -0.010677541821766173 -0.0079551297779938308 -0.0092040658357480775 -0.0087215862274889391 -0.0097885330485009969 -0.0091308455568566132
leaf_count=3097 2162 218 42776 464 962 242 230 1590 707 933 5719 474
internal_value=0 -0.98735 -1.24352 -1.0612 -1.05209 -1.09547 -1.18635 -1.0073 -1.19945 -1.11823 -1.19548 -1.20225
internal_count=59574 7506 52068 4409 4191 2137 9292 2054 7130 1895 6900 6193
shrinkage=0.0081


Tree=41
num_leaves=13
num_cat=0
split_feature=0 0 0 0 0 0 0 0 0 0 0 0
split_gain=103.104 13.78 8.76464 1.66109 1.94292 2.05088 1.23944 1.0619 0.790949 0.749605 0.652933 0.678026
threshold=12.037450000000002 10.554700000000002 13.459850000000001 10.673200000000001 11.490300000000001 11.984700000000002 12.448950000000002 10.886850000000001 12.489850000000002 11.756450000000003 12.604850000000001 13.398350000000002
decision_type=2 2 2 2 2 2 2 2 2 2 2 2
left_child=1 -1 6 -3 7 9 -2 -5 -8 -6 -10 -12
right_child=2 3 -4 4 5 -7 8 -9 10 -11 11 -13
leaf_value=-0.0071073156246288325 -0.0092040682762943929 -0.0099441168673255233 -0.010115282874210109 -0.0087995254087343475 -0.0093259301519637901 -0.0073818166465704953 -0.010615757362679362 -0.0079026675578067456 -0.0091478362993796455 -0.0086667003042898601 -0.0097305877660153941 -0.0090757007270934262
leaf_count=3097 2162 218 42776 464 962 242 230 1590 707 933 5719 474
internal_value=0 -0.980805 -1.23633 -1.05441 -1.04534 -1.08862 -1.17925 -1.00069 -1.19232 -1.11127 -1.18837 -1.19513
internal_count=59574 7506 52068 4409 4191 2137 9292 2054 7130 1895 6900 6193
shrinkage=0.0081


Tree=42
num_leaves=13
num_cat=0
split_feature=0 0 0 0 0 0 0 0 0 0 0 0
split_gain=102.431 13.6605 8.71892 1.64063 1.92916 2.02898 1.23169 1.04903 0.782645 0.741966 0.648041 0.670994
threshold=12.037450000000002 10.554700000000002 13.459850000000001 10.673200000000001 11.490300000000001 11.984700000000002 12.448950000000002 10.886850000000001 12.489850000000002 11.756450000000003 12.604850000000001 13.398350000000002
decision_type=2 2 2 2 2 2 2 2 2 2 2 2
left_child=1 -1 6 -3 7 9 -2 -5 -8 -6 -10 -12
right_child=2 3 -4 4 5 -7 8 -9 10 -11 11 -13
leaf_value=-0.007058069266129785 -0.0091479414792038395 -0.0098822972629401453 -0.010057553205918775 -0.0087428477982901837 -0.0092688629010455603 -0.0073334615550102612 -0.010554759453268951 -0.0078507106671680017 -0.0090922049071604904 -0.00861237372120594 -0.0096732972796844084 -0.0090211299488700165
leaf_count=3097 2162 218 42776 464 962 242 230 1590 707 933 5719 474
internal_value=0 -0.974325 -1.22922 -1.04768 -1.03867 -1.08183 -1.17222 -0.994138 -1.18527 -1.10439 -1.18134 -1.18808
internal_count=59574 7506 52068 4409 4191 2137 9292 2054 7130 1895 6900 6193
shrinkage=0.0081


Tree=43
num_leaves=13
num_cat=0
split_feature=0 0 0 0 0 0 0 0 0 0 0 0
split_gain=101.774 13.5432 8.67461 1.62069 1.91567 2.00756 1.22414 1.03647 0.774587 0.734521 0.644004 0.843678
threshold=12.037450000000002 10.554700000000002 13.459850000000001 10.673200000000001 11.490300000000001 11.984700000000002 12.448950000000002 10.886850000000001 12.489850000000002 11.756450000000003 18.615850000000005 16.026750000000003
decision_type=2 2 2 2 2 2 2 2 2 2 2 2
left_child=1 -1 6 -3 7 9 -2 -5 -8 -6 11 -4
right_child=2 3 10 4 5 -7 8 -9 -10 -11 -12 -13
leaf_value=-0.0070092778695886497 -0.0090924095082148704 -0.0098212101830641527 -0.010046082481155402 -0.0086867641978980274 -0.0092124125094129282 -0.0072855379057288503 -0.010494526651745956 -0.0077992493273265568 -0.0095125199109654789 -0.0085585923135937051 -0.010286410487992855 -0.00988978926130131
leaf_count=3097 2162 218 25001 464 962 242 230 1590 6900 933 2091 15684
internal_value=0 -0.967907 -1.22219 -1.04102 -1.03206 -1.07511 -1.16528 -0.987653 -1.1783 -1.09758 -1.23463 -1.23281
internal_count=59574 7506 52068 4409 4191 2137 9292 2054 7130 1895 42776 40685
shrinkage=0.0081


Tree=44
num_leaves=13
num_cat=0
split_feature=0 0 0 0 0 0 0 0 0 0 0 0
split_gain=101.132 13.428 8.63175 1.60128 1.90246 1.98662 1.21679 1.0242 0.766774 0.727257 0.646285 0.665261
threshold=12.037450000000002 10.554700000000002 13.459850000000001 10.673200000000001 11.490300000000001 11.984700000000002 12.448950000000002 10.886850000000001 12.489850000000002 11.756450000000003 12.604850000000001 13.398350000000002
decision_type=2 2 2 2 2 2 2 2 2 2 2 2
left_child=1 -1 6 -3 7 9 -2 -5 -8 -6 -10 -12
right_child=2 3 -4 4 5 -7 8 -9 10 -11 11 -13
leaf_value=-0.0069609335477133685 -0.0090374598866925591 -0.0097608413564130164 -0.0099440946794412642 -0.0086312621452742603 -0.0091565660416196258 -0.0072380366068314416 -0.010435044083792436 -0.0077482741916158233 -0.0089798211972320248 -0.0085053475320289781 -0.009561227470975979 -0.008910420348551799
leaf_count=3097 2162 218 42776 464 962 242 230 1590 707 933 5719 474
internal_value=0 -0.961552 -1.21524 -1.03443 -1.02551 -1.06847 -1.15841 -0.981231 -1.17141 -1.09084 -1.16751 -1.17426
internal_count=59574 7506 52068 4409 4191 2137 9292 2054 7130 1895 6900 6193
shrinkage=0.0081


Tree=45
num_leaves=13
num_cat=0
split_feature=0 0 0 0 0 0 0 0 0 0 0 0
split_gain=122.588 21.4084 13.4612 1.25082 1.29539 1.1657 1.02024 1.22025 0.932528 0.865083 0.821295 4.77416
threshold=11.418350000000002 12.878850000000002 9.6923500000000011 10.990550000000001 11.261400000000002 10.783250000000001 12.604850000000001 12.643250000000002 11.176300000000001 13.039950000000001 11.933450000000002 11.984700000000002
decision_type=2 2 2 2 2 2 2 2 2 2 2 2
left_child=2 6 -1 5 8 -4 10 -8 -5 -3 -2 -12
right_child=1 9 3 4 -6 -7 7 -9 -10 -11 11 -13
leaf_value=-0.0059087109576884088 -0.0091114133995736785 -0.0094829021976502847 -0.0076800051645615677 -0.0082066314991895411 -0.007482949994565672 -0.0067621127895478505 -0.010360021247096278 -0.009115436128794804 -0.0095248938132499739 -0.0099393432083597303 -0.006357798790816392 -0.0088443324337130584
leaf_count=1645 1857 1189 1902 466 457 472 253 1643 216 46071 229 3174
internal_value=0 -1.20962 -0.880641 -0.952275 -1.00805 -0.925683 -1.10488 -1.14586 -1.06453 -1.22566 -1.09017 -1.07116
internal_count=59574 54416 5158 3513 1139 2374 7156 1896 682 47260 5260 3403
shrinkage=0.0081


Tree=46
num_leaves=13
num_cat=0
split_feature=0 0 0 0 0 0 0 0 0 0 0 0
split_gain=121.753 21.295 13.3178 1.24006 1.28141 1.15076 1.01315 1.20918 0.924014 0.860694 0.810548 4.72533
threshold=11.418350000000002 12.878850000000002 9.6923500000000011 10.990550000000001 11.261400000000002 10.783250000000001 12.604850000000001 12.643250000000002 11.176300000000001 13.039950000000001 11.933450000000002 11.984700000000002
decision_type=2 2 2 2 2 2 2 2 2 2 2 2
left_child=2 6 -1 5 8 -4 10 -8 -5 -3 -2 -12
right_child=1 9 3 4 -6 -7 7 -9 -10 -11 11 -13
leaf_value=-0.0058667351185721275 -0.0090563903557056308 -0.0094282033452371423 -0.0076292075951708317 -0.0081541111264004061 -0.007434043761203415 -0.0067165818478810172 -0.010301933303738435 -0.0090614854442941477 -0.0094676363629979544 -0.0098840187420957751 -0.0063154576248465521 -0.0087910832646771291
leaf_count=1645 1857 1189 1902 466 457 472 253 1643 216 46071 229 3174
internal_value=0 -1.20282 -0.874713 -0.946033 -1.00161 -0.919538 -1.09825 -1.13912 -1.05784 -1.21883 -1.08357 -1.06467
internal_count=59574 54416 5158 3513 1139 2374 7156 1896 682 47260 5260 3403
shrinkage=0.0081


Tree=47
num_leaves=13
num_cat=0
split_feature=0 0 0 0 0 0 0 0 0 0 0 0
split_gain=120.935 21.1847 13.1768 1.2295 1.26772 1.13613 1.00623 1.19841 0.915701 0.856442 0.800076 4.67748
threshold=11.418350000000002 12.878850000000002 9.6923500000000011 10.990550000000001 11.261400000000002 10.783250000000001 12.604850000000001 12.643250000000002 11.176300000000001 13.039950000000001 11.933450000000002 11.984700000000002
decision_type=2 2 2 2 2 2 2 2 2 2 2 2
left_child=2 6 -1 5 8 -4 10 -8 -5 -3 -2 -12
right_child=1 9 3 4 -6 -7 7 -9 -10 -11 11 -13
leaf_value=-0.0058251136497677611 -0.0090019394281586392 -0.0093740858607291189 -0.0075788843153039784 -0.0081020967807344489 -0.0073855784756474557 -0.0066714400382874147 -0.010244542258805325 -0.0090080875276748271 -0.0094110077112565336 -0.0098293137085127772 -0.0062734584395594479 -0.0087383653973959665
leaf_count=1645 1857 1189 1902 466 457 472 253 1643 216 46071 229 3174
internal_value=0 -1.19608 -0.868838 -0.939849 -0.995242 -0.91345 -1.09167 -1.13246 -1.05123 -1.21207 -1.07703 -1.05823
internal_count=59574 54416 5158 3513 1139 2374 7156 1896 682 47260 5260 3403
shrinkage=0.0081


Tree=48
num_leaves=13
num_cat=0
split_feature=0 0 0 0 0 0 0 0 0 0 0 0
split_gain=120.135 21.0775 13.0382 1.21913 1.25434 1.1218 0.999467 1.18794 0.907581 0.852323 0.789866 4.6306
threshold=11.418350000000002 12.878850000000002 9.6923500000000011 10.990550000000001 11.261400000000002 10.783250000000001 12.604850000000001 12.643250000000002 11.176300000000001 13.039950000000001 11.933450000000002 11.984700000000002
decision_type=2 2 2 2 2 2 2 2 2 2 2 2
left_child=2 6 -1 5 8 -4 10 -8 -5 -3 -2 -12
right_child=1 9 3 4 -6 -7 7 -9 -10 -11 11 -13
leaf_value=-0.0057838416762322235 -0.0089480472948701099 -0.0093205376152181094 -0.0075290269930709695 -0.0080505797707745904 -0.0073375446298472244 -0.0066266824442556922 -0.010187829796276861 -0.0089552310415014266 -0.0093549949394430183 -0.0097752145385757265 -0.0062317949640226617 -0.0086861675657344904
leaf_count=1645 1857 1189 1902 466 457 472 253 1643 216 46071 229 3174
internal_value=0 -1.18942 -0.863016 -0.933722 -0.988932 -0.907417 -1.08517 -1.12586 -1.04468 -1.2054 -1.07056 -1.05186
internal_count=59574 54416 5158 3513 1139 2374 7156 1896 682 47260 5260 3403
shrinkage=0.0081


Tree=49
num_leaves=13
num_cat=0
split_feature=0 0 0 0 0 0 0 0 0 0 0 0
split_gain=119.352 20.9731 12.902 1.20895 1.24124 1.10776 0.99286 1.17777 0.899646 0.848326 0.779913 4.58464
threshold=11.418350000000002 12.878850000000002 9.6923500000000011 10.990550000000001 11.261400000000002 10.783250000000001 12.604850000000001 12.643250000000002 11.176300000000001 13.039950000000001 11.933450000000002 11.984700000000002
decision_type=2 2 2 2 2 2 2 2 2 2 2 2
left_child=2 6 -1 5 8 -4 10 -8 -5 -3 -2 -12
right_child=1 9 3 4 -6 -7 7 -9 -10 -11 11 -13
leaf_value=-0.0057429149493200453 -0.0088947032901349754 -0.009267546892711068 -0.0074796270316597364 -0.0079995495738801568 -0.0072899352852124674 -0.0065823021935635341 -0.010131783700143157 -0.0089029039411350798 -0.0092995831321525408 -0.0097217073874685204 -0.0061904613545084126 -0.0086344794472728893
leaf_count=1645 1857 1189 1902 466 457 472 253 1643 216 46071 229 3174
internal_value=0 -1.18283 -0.857245 -0.927651 -0.982682 -0.901439 -1.07873 -1.11934 -1.03819 -1.19879 -1.06416 -1.04556
internal_count=59574 54416 5158 3513 1139 2374 7156 1896 682 47260 5260 3403
shrinkage=0.0081


Tree=50
num_leaves=13
num_cat=0
split_feature=0 0 0 0 0 0 0 0 0 0 0 0
split_gain=122.836 20.7152 10.3821 2.04686 2.0346 2.34623 1.74212 1.6969 1.505 1.90182 3.17527 1.32328
threshold=12.229850000000001 10.554700000000002 13.202350000000001 18.717000000000002 9.2146000000000026 10.156750000000001 9.6923500000000011 16.075750000000003 15.598950000000002 14.987550000000002 14.509050000000002 9.2693500000000011
decision_type=2 2 2 2 2 2 2 2 2 2 2 2
left_child=1 4 -2 7 -1 6 11 8 9 10 -4 -6
right_child=2 -3 3 -5 5 -7 -8 -9 -10 -11 -12 -13
leaf_value=-0.0055763681304047659 -0.0089644566845142066 -0.00805396655274279 -0.0096316631842149492 -0.01023026986801358 -0.0075653626831759238 -0.0057782347750839728 -0.0075515518870505781 -0.0095230841671062744 -0.010021452167449908 -0.0094420936342885699 -0.010146425114204915 -0.0061135170572954962
leaf_count=714 6390 5403 11470 1895 224 700 696 15468 4619 6436 4846 713
internal_value=0 -0.917237 -1.18482 -1.19607 -0.78333 -0.812574 -0.854768 -1.19311 -1.20295 -1.196 -1.20795 -0.79762
internal_count=59574 8450 51124 44734 3047 2333 1633 42839 27371 22752 16316 937
shrinkage=0.0081


Tree=51
num_leaves=13
num_cat=0
split_feature=0 0 0 0 0 0 0 0 0 0 0 0
split_gain=122.096 20.5361 10.3307 2.0307 2.01155 2.31444 1.72402 1.68495 1.49381 1.88466 3.15351 1.30673
threshold=12.229850000000001 10.554700000000002 13.202350000000001 18.717000000000002 9.2146000000000026 10.156750000000001 9.6923500000000011 16.075750000000003 15.598950000000002 14.987550000000002 14.509050000000002 9.2693500000000011
decision_type=2 2 2 2 2 2 2 2 2 2 2 2
left_child=1 4 -2 7 -1 6 11 8 9 10 -4 -6
right_child=2 -3 3 -5 5 -7 -8 -9 -10 -11 -12 -13
leaf_value=-0.0055368025833322128 -0.0089129809585562318 -0.0080042612369930592 -0.0095793188909154454 -0.010176498693496235 -0.0075145964675933253 -0.0057384833884316774 -0.007501989842304168 -0.0094710618317077784 -0.0099683017966184298 -0.0093905129925318086 -0.01009303154125994 -0.0060708966659177776
leaf_count=714 6390 5403 11470 1895 224 700 696 15468 4619 6436 4846 713
internal_value=0 -0.911343 -1.17836 -1.1896 -0.77795 -0.80705 -0.848987 -1.18664 -1.19647 -1.18954 -1.20144 -0.792109
internal_count=59574 8450 51124 44734 3047 2333 1633 42839 27371 22752 16316 937
shrinkage=0.0081


Tree=52
num_leaves=13
num_cat=0
split_feature=0 0 0 0 0 0 0 0 0 0 0 0
split_gain=121.372 20.3599 10.2808 2.01504 1.98887 2.28328 1.70623 1.67335 1.48295 1.86798 3.13241 1.2905
threshold=12.229850000000001 10.554700000000002 13.202350000000001 18.717000000000002 9.2146000000000026 10.156750000000001 9.6923500000000011 16.075750000000003 15.598950000000002 14.987550000000002 14.509050000000002 9.2693500000000011
decision_type=2 2 2 2 2 2 2 2 2 2 2 2
left_child=1 4 -2 7 -1 6 11 8 9 10 -4 -6
right_child=2 -3 3 -5 5 -7 -8 -9 -10 -11 -12 -13
leaf_value=-0.0054975600516693063 -0.0088620093038796355 -0.0079550088256155962 -0.0095275255874569826 -0.010123343774265053 -0.0074643059167216926 -0.0056990467985106744 -0.0074528791646755969 -0.0094195791028072184 -0.0099157420283796024 -0.0093394596938840869 -0.010040240323380889 -0.0060286328715217852
leaf_count=714 6390 5403 11470 1895 224 700 696 15468 4619 6436 4846 713
internal_value=0 -0.905501 -1.17197 -1.1832 -0.772616 -0.801574 -0.843258 -1.18025 -1.19006 -1.18314 -1.19501 -0.786646
internal_count=59574 8450 51124 44734 3047 2333 1633 42839 27371 22752 16316 937
shrinkage=0.0081


Tree=53
num_leaves=13
num_cat=0
split_feature=0 0 0 0 0 0 0 0 0 0 0 0
split_gain=120.663 20.1863 10.2322 1.99984 1.96656 2.25273 1.68873 1.66209 1.47242 1.85177 3.11196 1.27457
threshold=12.229850000000001 10.554700000000002 13.202350000000001 18.717000000000002 9.2146000000000026 10.156750000000001 9.6923500000000011 16.075750000000003 15.598950000000002 14.987550000000002 14.509050000000002 9.2693500000000011
decision_type=2 2 2 2 2 2 2 2 2 2 2 2
left_child=1 4 -2 7 -1 6 11 8 9 10 -4 -6
right_child=2 -3 3 -5 5 -7 -8 -9 -10 -11 -12 -13
leaf_value=-0.0054586366525766553 -0.0088115314629684874 -0.0079062007201359513 -0.0094762714694658998 -0.010070790885625312 -0.0074144825783000719 -0.0056599213789781874 -0.0074042128042259734 -0.0093686243027647758 -0.0098637592047182421 -0.0092889238725697744 -0.009988039727749717 -0.0059867215930105473
leaf_count=714 6390 5403 11470 1895 224 700 696 15468 4619 6436 4846 713
internal_value=0 -0.89971 -1.16564 -1.17686 -0.767327 -0.796145 -0.837579 -1.17393 -1.18371 -1.17681 -1.18865 -0.781229
internal_count=59574 8450 51124 44734 3047 2333 1633 42839 27371 22752 16316 937
shrinkage=0.0081


Tree=54
num_leaves=13
num_cat=0
split_feature=0 0 0 0 0 0 0 0 0 0 0 0
split_gain=119.968 20.0153 10.185 1.98509 1.9446 2.22277 1.67152 1.65116 1.4622 1.83603 3.09214 1.25895
threshold=12.229850000000001 10.554700000000002 13.202350000000001 18.717000000000002 9.2146000000000026 10.156750000000001 9.6923500000000011 16.075750000000003 15.598950000000002 14.987550000000002 14.509050000000002 9.2693500000000011
decision_type=2 2 2 2 2 2 2 2 2 2 2 2
left_child=1 4 -2 7 -1 6 11 8 9 10 -4 -6
right_child=2 -3 3 -5 5 -7 -8 -9 -10 -11 -12 -13
leaf_value=-0.0054200278147228534 -0.0087615367988309132 -0.007857828596182545 -0.0094255450184047261 -0.010018826925722014 -0.0073651166395268426 -0.0056211036070986167 -0.0073559816797764575 -0.0093181858124329487 -0.0098123409032051211 -0.0092388927153141728 -0.0099364170095582634 -0.0059451573348400337
leaf_count=714 6390 5403 11470 1895 224 700 696 15468 4619 6436 4846 713
internal_value=0 -0.893969 -1.15938 -1.1706 -0.762082 -0.790761 -0.831949 -1.16766 -1.17744 -1.17055 -1.18235 -0.775859
internal_count=59574 8450 51124 44734 3047 2333 1633 42839 27371 22752 16316 937
shrinkage=0.0081


Tree=55
num_leaves=13
num_cat=0
split_feature=0 0 0 0 0 0 0 0 0 0 0 0
split_gain=97.459 24.1758 4.90444 2.79016 1.79985 1.62489 1.30807 0.993396 0.976829 0.661504 3.87241 0.855449
threshold=10.554700000000002 12.229850000000001 13.202350000000001 9.3585500000000028 9.8633500000000023 9.1184500000000011 12.846950000000001 10.019000000000002 10.428650000000003 13.398350000000002 13.429050000000002 13.899350000000002
decision_type=2 2 2 2 2 2 2 2 2 2 2 2
left_child=3 -2 6 5 -5 -1 -3 -6 -9 -4 -11 -12
right_child=1 2 9 4 7 -7 -8 8 -10 10 11 -13
leaf_value=-0.0066649444084067849 -0.0081311703103904374 -0.0090642366189431101 -0.0097284439195282606 -0.0072082989811368976 -0.0051356758717998963 -0.0051803943833013634 -0.0085662548184949113 -0.0066787276351980684 -0.0054245870970115401 -0.0070755682052077084 -0.0096053592935161254 -0.0093436881910756338
leaf_count=258 5463 3709 1417 682 222 922 2535 703 227 212 3960 39264
internal_value=0 -1.13457 -1.14888 -0.756729 -0.806865 -0.679513 -1.09417 -0.75727 -0.786733 -1.15657 -1.15511 -1.1565
internal_count=59574 56560 51097 3014 1834 1180 6244 1152 930 44853 43436 43224
shrinkage=0.0081


Tree=56
num_leaves=13
num_cat=0
split_feature=0 0 0 0 0 0 0 0 0 0 0 0
split_gain=96.8305 24.0905 4.89091 2.75952 1.7756 1.60493 1.293 0.981455 0.965157 0.654659 3.84184 0.848186
threshold=10.554700000000002 12.229850000000001 13.202350000000001 9.3585500000000028 9.8633500000000023 9.1184500000000011 12.846950000000001 10.019000000000002 10.428650000000003 13.398350000000002 13.429050000000002 13.899350000000002
decision_type=2 2 2 2 2 2 2 2 2 2 2 2
left_child=3 -2 6 5 -5 -1 -3 -6 -9 -4 -11 -12
right_child=1 2 9 4 7 -7 -8 8 -10 10 11 -13
leaf_value=-0.0066199868029363168 -0.0080823765813645698 -0.0090137974487570077 -0.0096775040812099936 -0.0071605697178057075 -0.0050999170006839033 -0.0051436343538349633 -0.0085180710640668997 -0.0066346778918853211 -0.005387247306609038 -0.007032722011774851 -0.0095551239485071673 -0.0092941915795624816
leaf_count=258 5463 3709 1417 682 222 922 2535 703 227 212 3960 39264
internal_value=0 -1.12845 -1.14275 -0.75157 -0.801471 -0.674743 -1.08805 -0.752179 -0.781489 -1.15045 -1.149 -1.15038
internal_count=59574 56560 51097 3014 1834 1180 6244 1152 930 44853 43436 43224
shrinkage=0.0081


Tree=57
num_leaves=13
num_cat=0
split_feature=0 0 0 0 0 0 0 0 0 0 0 0
split_gain=96.2128 24.007 4.87778 2.72935 1.75183 1.58531 1.27831 0.969709 0.953681 0.648003 3.81194 0.841124
threshold=10.554700000000002 12.229850000000001 13.202350000000001 9.3585500000000028 9.8633500000000023 9.1184500000000011 12.846950000000001 10.019000000000002 10.428650000000003 13.398350000000002 13.429050000000002 13.899350000000002
decision_type=2 2 2 2 2 2 2 2 2 2 2 2
left_child=3 -2 6 5 -5 -1 -3 -6 -9 -4 -11 -12
right_child=1 2 9 4 7 -7 -8 8 -10 10 11 -13
leaf_value=-0.0065754100537982092 -0.0080340199324807401 -0.0089638484647460714 -0.0096270989758885182 -0.0071132620607752091 -0.0050644299211228001 -0.0051071636222831656 -0.0084703226494479752 -0.0065909915013438077 -0.0053501940247848495 -0.0069902062163705644 -0.0095054045936595125 -0.0092451840111298037
leaf_count=258 5463 3709 1417 682 222 922 2535 703 227 212 3960 39264
internal_value=0 -1.12239 -1.13669 -0.746454 -0.796122 -0.670011 -1.08199 -0.747128 -0.776287 -1.14439 -1.14294 -1.14433
internal_count=59574 56560 51097 3014 1834 1180 6244 1152 930 44853 43436 43224
shrinkage=0.0081


Tree=58
num_leaves=13
num_cat=0
split_feature=0 0 0 0 0 0 0 0 0 0 0 0
split_gain=95.6055 23.9254 4.86502 2.69964 1.72853 1.566 1.26399 0.958153 0.942398 0.641532 3.78269 0.834257
threshold=10.554700000000002 12.229850000000001 13.202350000000001 9.3585500000000028 9.8633500000000023 9.1184500000000011 12.846950000000001 10.019000000000002 10.428650000000003 13.398350000000002 13.429050000000002 13.899350000000002
decision_type=2 2 2 2 2 2 2 2 2 2 2 2
left_child=3 -2 6 5 -5 -1 -3 -6 -9 -4 -11 -12
right_child=1 2 9 4 7 -7 -8 8 -10 10 11 -13
leaf_value=-0.0065312095121799717 -0.0079860919968640399 -0.0089143800925659197 -0.0095772174430166484 -0.0070663686818400705 -0.0050292110307611571 -0.0050709791223072379 -0.0084230009992253083 -0.0065476630759857919 -0.0053134228988729777 -0.0069480170493820721 -0.0094561903589976994 -0.009196655087558089
leaf_count=258 5463 3709 1417 682 222 922 2535 703 227 212 3960 39264
internal_value=0 -1.11638 -1.13069 -0.741379 -0.790817 -0.665317 -1.07599 -0.742118 -0.771127 -1.13838 -1.13695 -1.13833
internal_count=59574 56560 51097 3014 1834 1180 6244 1152 930 44853 43436 43224
shrinkage=0.0081


Tree=59
num_leaves=13
num_cat=0
split_feature=0 0 0 0 0 0 0 0 0 0 0 0
split_gain=95.0083 23.8457 4.85263 2.67036 1.70567 1.54701 1.25002 0.946781 0.931298 0.635236 3.75407 0.827574
threshold=10.554700000000002 12.229850000000001 13.202350000000001 9.3585500000000028 9.8633500000000023 9.1184500000000011 12.846950000000001 10.019000000000002 10.428650000000003 13.398350000000002 13.429050000000002 13.899350000000002
decision_type=2 2 2 2 2 2 2 2 2 2 2 2
left_child=3 -2 6 5 -5 -1 -3 -6 -9 -4 -11 -12
right_child=1 2 9 4 7 -7 -8 8 -10 10 11 -13
leaf_value=-0.0064873781645714782 -0.0079385848049157732 -0.0088653823005557554 -0.0095278476449698005 -0.0070198827636261509 -0.0049942572829905106 -0.0050350773185152053 -0.0083760977807930837 -0.0065046856957040808 -0.0052769312089843605 -0.0069061484088482538 -0.0094074700449922229 -0.0091485949747229338
leaf_count=258 5463 3709 1417 682 222 922 2535 703 227 212 3960 39264
internal_value=0 -1.11043 -1.12474 -0.736346 -0.785556 -0.66066 -1.07005 -0.737147 -0.766008 -1.13244 -1.13101 -1.13239
internal_count=59574 56560 51097 3014 1834 1180 6244 1152 930 44853 43436 43224
shrinkage=0.0081


Tree=60
num_leaves=13
num_cat=0
split_feature=0 0 0 0 0 0 0 0 0 0 0 0
split_gain=126.983 16.7471 4.16628 2.1512 1.91009 1.38807 1.37539 1.13307 2.15391 2.43763 1.44113 2.28241
threshold=11.984700000000002 10.428650000000003 13.039950000000001 12.135500000000002 11.176300000000001 10.886850000000001 11.875950000000001 14.254550000000002 14.486750000000002 14.671450000000002 13.899350000000002 13.951950000000002
decision_type=2 2 2 2 2 2 2 2 2 2 2 2
left_child=1 -1 3 -2 5 -3 -6 10 -9 -10 -4 -12
right_child=2 4 7 -5 6 -7 -8 8 9 -11 11 -13
leaf_value=-0.0057441450143429877 -0.0095834391204611263 -0.0073629115685615171 -0.0091338747557728039 -0.0085749597343690934 -0.0078145120776978976 -0.0063789650207861405 -0.0068094002021582356 -0.0096951671423117294 -0.0085677613916461948 -0.0091985444878287578 -0.0076577796476700972 -0.0088942736464746805
leaf_count=2848 679 910 6824 5563 2362 723 464 2383 1901 31674 518 2725
internal_value=0 -0.831394 -1.12304 -1.07229 -0.91151 -0.855304 -0.944408 -1.13002 -1.13557 -1.13122 -1.11026 -1.07365
internal_count=59574 7307 52267 6242 4459 1633 2826 46025 35958 33575 10067 3243
shrinkage=0.0081


Tree=61
num_leaves=13
num_cat=0
split_feature=0 0 0 0 0 0 0 0 0 0 0 0
split_gain=126.275 16.6031 4.16378 2.12881 1.89679 1.37234 1.36134 1.12759 2.14001 2.41798 1.42941 2.26441
threshold=11.984700000000002 10.428650000000003 13.039950000000001 12.135500000000002 11.176300000000001 10.886850000000001 11.875950000000001 14.254550000000002 14.486750000000002 14.671450000000002 13.899350000000002 13.951950000000002
decision_type=2 2 2 2 2 2 2 2 2 2 2 2
left_child=1 -1 3 -2 5 -3 -6 10 -9 -10 -4 -12
right_child=2 4 7 -5 6 -7 -8 8 9 -11 11 -13
leaf_value=-0.0057049301322384697 -0.0095322082779596019 -0.0073170887137335716 -0.0090863618365952161 -0.0085276148256405622 -0.007768252156314011 -0.0063378714618871068 -0.0067673025908792581 -0.0096469922900236614 -0.0085220605564022139 -0.0091511711341790581 -0.007614314992145879 -0.0088474613010014452
leaf_count=2848 679 910 6824 5563 2362 723 464 2383 1901 31674 518 2725
internal_value=0 -0.826086 -1.11719 -1.06639 -0.905955 -0.849899 -0.938777 -1.12418 -1.12972 -1.12538 -1.10444 -1.06792
internal_count=59574 7307 52267 6242 4459 1633 2826 46025 35958 33575 10067 3243
shrinkage=0.0081


Tree=62
num_leaves=13
num_cat=0
split_feature=0 0 0 0 0 0 0 0 0 0 0 0
split_gain=125.58 16.461 4.16141 2.10699 1.88366 1.3569 1.34756 1.12226 2.12651 2.39881 1.41797 2.2468
threshold=11.984700000000002 10.428650000000003 13.039950000000001 12.135500000000002 11.176300000000001 10.886850000000001 11.875950000000001 14.254550000000002 14.486750000000002 14.671450000000002 13.899350000000002 13.951950000000002
decision_type=2 2 2 2 2 2 2 2 2 2 2 2
left_child=1 -1 3 -2 5 -3 -6 10 -9 -10 -4 -12
right_child=2 4 7 -5 6 -7 -8 8 9 -11 11 -13
leaf_value=-0.0056660215432909038 -0.0094815080747809744 -0.0072716479614640187 -0.0090392960127398617 -0.0084806918082946398 -0.0077223817751587501 -0.0062970928390094034 -0.006725528270561716 -0.009599308253688224 -0.0084767551778520776 -0.0091042460780506543 -0.0075711898673339918 -0.00880107438603373
leaf_count=2848 679 910 6824 5563 2362 723 464 2383 1901 31674 518 2725
internal_value=0 -0.82082 -1.1114 -1.06054 -0.900445 -0.844536 -0.933192 -1.1184 -1.12393 -1.1196 -1.09867 -1.06225
internal_count=59574 7307 52267 6242 4459 1633 2826 46025 35958 33575 10067 3243
shrinkage=0.0081


Tree=63
num_leaves=13
num_cat=0
split_feature=0 0 0 0 0 0 0 0 0 0 0 0
split_gain=124.896 16.3207 4.15916 2.08572 1.87072 1.34174 1.33403 1.11706 2.11337 2.38012 1.40681 2.22956
threshold=11.984700000000002 10.428650000000003 13.039950000000001 12.135500000000002 11.176300000000001 10.886850000000001 11.875950000000001 14.254550000000002 14.486750000000002 14.671450000000002 13.899350000000002 13.951950000000002
decision_type=2 2 2 2 2 2 2 2 2 2 2 2
left_child=1 -1 3 -2 5 -3 -6 10 -9 -10 -4 -12
right_child=2 4 7 -5 6 -7 -8 8 9 -11 11 -13
leaf_value=-0.0056274149974144556 -0.0094313268882742149 -0.0072265830242110403 -0.0089926677590720736 -0.0084341818370301039 -0.0076768939176204802 -0.0062566254868752936 -0.0066840709718228742 -0.0095521047559302165 -0.0084318366729713573 -0.0090577599988404273 -0.0075283999696536012 -0.0087551034498384531
leaf_count=2848 679 910 6824 5563 2362 723 464 2383 1901 31674 518 2725
internal_value=0 -0.815596 -1.10565 -1.05475 -0.89498 -0.839217 -0.927654 -1.11266 -1.1182 -1.11387 -1.09295 -1.05663
internal_count=59574 7307 52267 6242 4459 1633 2826 46025 35958 33575 10067 3243
shrinkage=0.0081


Tree=64
num_leaves=13
num_cat=0
split_feature=0 0 0 0 0 0 0 0 0 0 0 0
split_gain=124.224 16.1823 4.15701 2.06499 1.85794 1.32685 1.32075 1.112 2.10061 2.36189 1.39592 2.21268
threshold=11.984700000000002 10.428650000000003 13.039950000000001 12.135500000000002 11.176300000000001 10.886850000000001 11.875950000000001 14.254550000000002 14.486750000000002 14.671450000000002 13.899350000000002 13.951950000000002
decision_type=2 2 2 2 2 2 2 2 2 2 2 2
left_child=1 -1 3 -2 5 -3 -6 10 -9 -10 -4 -12
right_child=2 4 7 -5 6 -7 -8 8 9 -11 11 -13
leaf_value=-0.0055891065738819705 -0.0093816532978960952 -0.0071818881550921327 -0.0089464684085902753 -0.0083880774206204853 -0.0076317814466893667 -0.0062164648736032901 -0.006642926567356643 -0.0095053721031891289 -0.0083872977602096749 -0.0090117038281948506 -0.0074859384189898586 -0.0087095406309609415
leaf_count=2848 679 910 6824 5563 2362 723 464 2383 1901 31674 518 2725
internal_value=0 -0.810413 -1.09997 -1.049 -0.889558 -0.83394 -0.92216 -1.10699 -1.11251 -1.1082 -1.08729 -1.05106
internal_count=59574 7307 52267 6242 4459 1633 2826 46025 35958 33575 10067 3243
shrinkage=0.0081


Tree=65
num_leaves=13
num_cat=0
split_feature=0 0 0 0 0 0 0 0 0 0 0 0
split_gain=102.855 26.6634 3.48182 2.65453 1.50137 2.14716 6.51923 1.40858 1.40802 1.26441 2.06322 1.03746
threshold=12.977250000000002 10.673200000000001 11.490300000000001 9.6923500000000011 17.444050000000004 17.142350000000004 17.177150000000001 9.3585500000000028 9.1702500000000011 12.846950000000001 12.878850000000002 12.448950000000002
decision_type=2 2 2 2 2 2 2 2 2 2 2 2
left_child=1 3 -3 7 5 -2 -7 8 -1 11 -11 -4
right_child=4 2 9 -5 -6 6 -8 -9 -10 10 -12 -13
leaf_value=-0.0050448659315376499 -0.0088802747039871434 -0.0070350864750231218 -0.0077227651028450393 -0.0063680188536291314 -0.0091302424485389926 -0.0056597857772289085 -0.0086751407479651217 -0.0046451640056271769 -0.0062195858971942188 -0.005823948190101607 -0.0076829177630212339 -0.0081545733143918251
leaf_count=483 37744 2128 4262 1663 6725 244 1644 465 675 233 692 2616
internal_value=0 -0.88795 -0.94303 -0.727865 -1.09781 -1.09283 -1.02288 -0.669055 -0.707295 -0.963803 -0.890443 -0.9736
internal_count=59574 13217 9931 3286 46357 39632 1888 1623 1158 7803 925 6878
shrinkage=0.0081


end of trees

feature importances:
Column_0=792

parameters:
[boosting: gbdt]
[objective: binary]
[metric: auc,none]
[tree_learner: serial]
[device_type: cpu]
[data: ]
[valid: ]
[num_iterations: 100]
[learning_rate: 0.0081]
[num_leaves: 13]
[num_threads: 8]
[max_depth: -1]
[min_data_in_leaf: 80]
[min_sum_hessian_in_leaf: 10]
[bagging_fraction: 0.331]
[bagging_freq: 5]
[bagging_seed: 29824]
[feature_fraction: 0.041]
[feature_fraction_seed: 21393]
[early_stopping_round: 0]
[max_delta_step: 0]
[lambda_l1: 0]
[lambda_l2: 0]
[min_gain_to_split: 0]
[drop_rate: 0.1]
[max_drop: 50]
[skip_drop: 0.5]
[xgboost_dart_mode: 0]
[uniform_drop: 0]
[drop_seed: 5998]
[top_rate: 0.2]
[other_rate: 0.1]
[min_data_per_group: 100]
[max_cat_threshold: 32]
[cat_l2: 10]
[cat_smooth: 10]
[max_cat_to_onehot: 4]
[top_k: 20]
[monotone_constraints: ]
[feature_contri: ]
[forcedsplits_filename: ]
[refit_decay_rate: 0.9]
[verbosity: 1]
[max_bin: 255]
[min_data_in_bin: 3]
[bin_construct_sample_cnt: 200000]
[histogram_pool_size: -1]
[data_random_seed: 12652]
[output_model: LightGBM_model.txt]
[snapshot_freq: -1]
[input_model: ]
[output_result: LightGBM_predict_result.txt]
[initscore_filename: ]
[valid_data_initscores: ]
[pre_partition: 0]
[enable_bundle: 1]
[max_conflict_rate: 0]
[is_enable_sparse: 1]
[sparse_threshold: 0.8]
[use_missing: 1]
[zero_as_missing: 0]
[two_round: 0]
[save_binary: 0]
[enable_load_from_binary_file: 1]
[header: 0]
[label_column: ]
[weight_column: ]
[group_column: ]
[ignore_column: ]
[categorical_feature: ]
[predict_raw_score: 0]
[predict_leaf_index: 0]
[predict_contrib: 0]
[num_iteration_predict: -1]
[pred_early_stop: 0]
[pred_early_stop_freq: 10]
[pred_early_stop_margin: 10]
[convert_model_language: ]
[convert_model: gbdt_prediction.cpp]
[num_class: 1]
[is_unbalance: 0]
[scale_pos_weight: 1]
[sigmoid: 1]
[boost_from_average: 0]
[reg_sqrt: 0]
[alpha: 0.9]
[fair_c: 1]
[poisson_max_delta_step: 0.7]
[tweedie_variance_power: 1.5]
[max_position: 20]
[label_gain: ]
[metric_freq: 1]
[is_provide_training_metric: 0]
[eval_at: ]
[num_machines: 1]
[local_listen_port: 12400]
[time_out: 120]
[machine_list_filename: ]
[machines: ]
[gpu_platform_id: -1]
[gpu_device_id: -1]
[gpu_use_dp: 0]

end of parameters

pandas_categorical:null
